Short-Term Treasury Diff,Nonfarm Payroll,Long-Term Treasury Bond Rate,Proportion Negative Words_x_Short-Term_Treasury_Diff,Proportion Negative Words_x_LAG_RollingMean,Proportion Negative Words_x_Nonfarm_Payroll,Proportion Negative Words_x_Level,easing_x_Short-Term_Treasury_Diff,easing_x_Nonfarm_Payroll,weaker_x_Short-Term_Treasury_Diff,weaker_x_Nonfarm_Payroll,contraction_x_Short-Term_Treasury_Diff,Consumer Sentiment_x_Short-Term_Treasury_Diff,Consumer Sentiment_x_LAG_RollingMean,Consumer Sentiment_x_Nonfarm_Payroll,boosted_x_LAG_RollingMean,boosted_x_LAG,boosted_x_Level,persisting_x_LAG_RollingMean,Proportion Positive Words_x_Short-Term_Treasury_Diff,strong_x_Level,slowing_x_LAG,slowing_x_Level,improving_x_LAG_RollingMean,improving_x_Level,slower_x_LAG_RollingMean,slower_x_LAG,Housing Sales_x_Short-Term_Treasury_Diff,Housing Sales_x_LAG_RollingMean,Housing Sales_x_Nonfarm_Payroll,better_x_LAG,despite_x_Nonfarm_Payroll,unemployment_x_Nonfarm_Payroll,strength_x_Level,rebounded_x_Level,strengthened_x_LAG_RollingMean,difficult_x_Short-Term_Treasury_Diff,difficult_x_Nonfarm_Payroll,difficult_x_Level,Standardized Sentiment Score_x_Short-Term_Treasury_Diff,Standardized Sentiment Score_x_LAG_RollingMean,Standardized Sentiment Score_x_LAG,Standardized Sentiment Score_x_Nonfarm_Payroll,Standardized Sentiment Score_x_Level,Net Sentiment Score_x_Short-Term_Treasury_Diff,Net Sentiment Score_x_LAG_RollingMean,Net Sentiment Score_x_Level,slowly_x_Short-Term_Treasury_Diff,caution_x_LAG,severe_x_LAG_RollingMean,LEI_x_LAG_RollingMean,LEI_x_Level,Short-Term Treasury Bond Rate_x_Short-Term_Treasury_Diff,Short-Term Treasury Bond Rate_x_LAG_RollingMean,Treasury Deposits_x_Short-Term_Treasury_Diff,Treasury Deposits_x_LAG_RollingMean,progress_x_LAG_RollingMean,progress_x_Nonfarm_Payroll,Unemployment Rate_x_Short-Term_Treasury_Diff,Unemployment Rate_x_Level,decline_x_Short-Term_Treasury_Diff,decline_x_Nonfarm_Payroll,difficulty_x_LAG,difficulty_x_Level,tightening_x_LAG,tightening_x_Nonfarm_Payroll,CEI_RollingMean_x_Short-Term_Treasury_Diff,CEI_RollingMean_x_Level,log_pnw
-0.02,110570.0,6.04,-0.0005248359887535,0.0100815935534672,2901.5557638238024,0.0984067478912838,-0.0,0.0,-0.0,0.0,0.02,-1.606,30.84971227930096,8878771.0,0.3841807257696259,0.4696780880638282,3.75,-1.1525421773088778,-0.0004123711340206,30.0,-0.9393561761276564,-7.5,0.0,0.0,0.0,0.0,-12.52,240.49713433178584,69216820.0,0.0,110570.0,-552850.0,11.25,3.75,0.3841807257696259,0.02,-110570.0,-3.75,-0.0169333611865468,0.32527354951834,0.3976614353295792,93616.08731982452,3.175005222477544,0.48,-9.220337418471022,-90.0,-0.0,-0.9393561761276564,0.0,-0.3277169769290483,-3.198855593346097,-0.0586,1.125649526505004,-0.11904,2.2866436797808136,1.9209036288481296,552850.0,-0.142,26.625,0.22,-1216270.0,0.0,0.0,-2.348390440319141,-552850.0,0.0048240868442971,-0.9045162833057234,-3.6404017411265506
0.02,111060.0,5.81,0.0005876180482686,-0.002763196663255,3263.043022035669,0.0954879328436514,-0.06,-333180.0,-0.04,-222120.0,0.0,1.54,-7.241647655225683,8551620.0,-0.0,-0.0,0.0,-0.0,0.0004267226302903,6.5,-0.0,0.0,-0.0,0.0,0.1880947442915762,0.057752494093325,13.1,-61.6010287554912,72744300.0,-0.0,444240.0,-444240.0,13.0,0.0,-0.0940473721457881,-0.02,-111060.0,-3.25,0.0169417171506162,-0.0796661988826343,-0.0244606604917937,94077.35533737204,2.7530290369751413,-0.46,2.1630895593531263,-74.75,0.0,-0.0,-0.0,0.0134431575559573,-0.4645559047533482,0.059,-0.2774397478300749,0.12578,-0.5914639234248613,-0.6583316050205167,777420.0,0.138,22.425,-0.16,-888480.0,0.057752494093325,-6.5,0.0866287411399875,-333180.0,-0.0048746092009513,-0.7921239951546015,-3.5274103934790006
0.0599999999999996,111209.0,5.68,0.0019507389162560997,0.0058663934064557,3615.662068965511,0.1056650246305416,0.0,0.0,0.0,0.0,0.0,4.637999999999969,13.94770586284302,8596455.7,0.0,0.0,0.0,-0.1804360396228075,0.0014778325123152,13.0,-0.1005062778512568,-3.25,0.1804360396228075,3.25,-0.1804360396228075,-0.1005062778512568,38.69999999999974,116.38124555671084,71729805.0,0.1005062778512568,444836.0,-222418.0,6.5,3.25,0.5413081188684224,-0.0599999999999996,-111209.0,-3.25,0.0508000835596403,0.1527694315001543,0.0850954552185385,94157.1082097347,2.751671192813871,-1.4399999999999904,-4.33046495094738,-78.0,-0.0599999999999996,-0.1005062778512568,-0.1804360396228075,-0.0389378246198423,-0.7013450875946394,0.1805999999999988,0.5431124792646506,0.3485999999999977,1.0483333902085117,0.5413081188684224,333627.0,0.4079999999999973,22.1,-0.3599999999999976,-667254.0,0.0,0.0,-0.3015188335537704,-333627.0,-0.00394199966207,-0.2135249816954608,-3.426136330009409
-0.0599999999999996,111455.0,5.36,-0.001608040201005,0.015590032813503497,2987.0686767169154,0.0871021775544387,0.0599999999999996,-111455.0,-0.0,0.0,-0.0,-4.673999999999969,45.31467143966493,8682344.5,0.5817030993538502,1.6734792672569565,3.25,-1.7451092980615508,-0.0013567839195979,9.75,-3.346958534513913,-6.5,0.5817030993538502,3.25,0.0,0.0,-43.55999999999971,422.3164501308953,80916330.0,3.346958534513913,445820.0,-222910.0,6.5,6.5,0.5817030993538502,0.0599999999999996,-111455.0,-3.25,-0.0510256945895129,0.4946967448233809,1.4231740332155989,94784.4798412367,2.763891790265302,0.899999999999994,-8.725546490307753,-48.75,0.1799999999999988,-1.6734792672569565,0.0,-0.0540479139657877,-0.301967998079994,-0.1769999999999988,1.7160241430938583,-0.5243399999999966,5.083503385253297,2.908515496769251,557275.0,-0.4019999999999973,21.775,0.7799999999999948,-1448915.0,-3.346958534513913,-6.5,0.0,0.0,-0.0076531383831283,0.4145449957527908,-3.6193283911528216
0.0,111989.0,5.72,0.0,0.0317765689125984,3037.965448315248,0.0881639063392347,0.0,0.0,-0.0,-111989.0,0.0,0.0,95.11643578686196,9093506.8,2.342769354356206,3.480336972852189,6.5,-1.171384677178103,0.0,16.25,0.0,0.0,5.856923385890514,16.25,-2.342769354356206,-3.480336972852189,0.0,900.7948167499612,86119541.0,0.0,223978.0,-223978.0,16.25,3.25,4.685538708712412,0.0,0.0,0.0,0.0,1.000583234798676,1.486431782117464,95659.70775015668,2.776112387716733,-0.0,-7.028308063068618,-19.5,0.0,0.0,0.0,-0.0427013781927086,-0.1184747263901613,0.0,3.455584797675404,0.0,6.6253517341193495,5.856923385890514,559945.0,0.0,21.45,-0.0,-559945.0,0.0,0.0,-3.480336972852189,-223978.0,0.0,1.0143490634930208,-3.6072126212452567
0.0799999999999996,112323.0,5.77,0.0014145383104125,0.0318019491939269,1986.064833005886,0.0574656188605105,-0.0799999999999996,-112323.0,0.0,0.0,0.0,7.0559999999999645,158.634482969147,9906888.6,3.597153808824195,3.9641659191064833,6.5,-3.597153808824195,0.0014931237721021,29.25,-1.9820829595532417,-3.25,1.7985769044120976,3.25,0.0,0.0,64.95999999999968,1460.4444463826233,91206276.0,1.9820829595532417,561615.0,-224646.0,13.0,3.25,8.992884522060487,0.0,0.0,0.0,0.0687361604345098,1.545340883193432,1.7030096537795036,96508.14685606852,2.7924065176519743,0.4799999999999976,10.791461426472583,19.5,0.0,0.0,0.0,-0.0292126585928992,-0.052786811725438,0.2423999999999987,5.449688020368655,0.4871199999999976,10.951534770965264,1.7985769044120976,112323.0,0.5199999999999974,21.125,-0.4799999999999976,-673938.0,-1.9820829595532417,-3.25,-11.89249775731945,-673938.0,0.0413515224703485,1.67990560035792,-4.035223439214307
-0.0999999999999996,112598.0,5.75,-0.0028933092224231,0.0452644821282426,3257.8083182640075,0.094032549728752,-0.0,0.0,-0.0,0.0,-0.0,-9.429999999999962,147.5279804734617,10617991.4,0.0,0.0,0.0,0.0,-0.0018341513820718,32.5,-0.9711095446928284,-3.25,1.5644536635573882,3.25,-4.693360990672165,-2.913328634078485,-61.89999999999976,968.3968177420234,69698162.0,0.0,112598.0,-450392.0,6.5,0.0,6.257814654229553,-0.0,0.0,0.0,-0.083956548986839,1.3134613064209617,0.8153100606059072,94533.39502820138,2.728587842072279,4.099999999999984,-64.14260020585291,-133.25,0.0999999999999996,0.0,-3.1289073271147765,-1.0726928978817667,-2.22841494083526,-0.2929999999999989,4.583849234223147,-0.7067999999999972,11.05755849402362,7.822268317786941,562990.0,-0.6599999999999974,21.45,0.499999999999998,-562990.0,0.0,0.0,-3.8844381787713136,-450392.0,-0.0389452015051275,1.2657190489166508,-3.5427692792825556
0.54,113240.0,6.48,0.0183967935871743,0.0840298505443583,3857.8757515029956,0.1192384769539074,-1.08,-226480.0,0.0,0.0,0.0,49.41,225.68687829879983,10361460.0,2.466523260096173,4.44637727604245,3.5,0.0,0.0129859719438877,28.0,-4.44637727604245,-3.5,2.466523260096173,3.5,-2.466523260096173,-4.44637727604245,403.38000000000005,1842.4928752918413,84590280.0,4.44637727604245,792680.0,-339720.0,10.5,3.5,2.466523260096173,0.0,0.0,0.0,0.4558470858575308,2.0821434079901056,3.753459488716846,95592.82222686442,2.9545644453728848,-16.200000000000003,-73.99569780288519,-105.0,-0.54,-4.44637727604245,-12.332616300480865,-2.2088789950359544,-3.1344024229166987,1.8738,8.558835712533721,2.6935200000000004,12.303018021359712,2.466523260096173,113240.0,3.51,22.75,-5.4,-1132400.0,0.0,0.0,-22.23188638021225,-566200.0,0.3084541046354274,1.999239567081474,-3.3793927516953053
0.6599999999999997,113923.0,7.18,0.0190353058180009,0.0756268773048561,3285.695673794125,0.12257583291894548,-0.6599999999999997,-113923.0,-0.6599999999999997,-113923.0,0.0,61.24799999999997,243.33704041610565,10572054.4,0.0,0.0,0.0,-2.622166383794242,0.0127996021879661,42.5,-4.898024661294896,-8.5,2.622166383794242,4.25,-13.110831918971211,-12.24506165323724,456.0599999999998,1811.9169712018213,78720793.0,4.898024661294896,569615.0,-227846.0,12.75,0.0,0.0,0.0,0.0,0.0,0.5549404637560056,2.204767013739675,2.0591758159298053,95788.60977647796,3.573480259034886,-25.079999999999988,-99.6423225841812,-161.5,-0.6599999999999997,0.0,-20.977331070353937,-3.0865270161514067,-5.002634424617355,2.7257999999999987,10.82954716507022,4.346759999999998,17.26958780366888,5.244332767588484,227846.0,4.025999999999998,25.925,-6.599999999999997,-1139230.0,0.0,0.0,-9.796049322589791,-455692.0,0.3319328973098833,2.1374466872227345,-3.545944379226235
0.0700000000000002,114607.0,7.3,0.0017435207001009,0.0695802809159835,2854.566812521027,0.1058566139347017,0.0,0.0,-0.0700000000000002,-114607.0,0.0,6.230000000000018,248.62632837193928,10200023.0,0.0,0.0,0.0,-2.793554251370104,0.0014372265230562,38.25,-10.396912031942897,-29.75,0.0,0.0,-11.174217005480417,-5.941092589681654,43.96000000000013,1754.3520698604254,71973196.0,0.0,343821.0,-802249.0,12.75,17.0,0.0,-0.2100000000000006,-343821.0,-12.75,0.0595884687695844,2.3780517180558127,1.2643593222766212,97560.7948610821,3.617871318153332,-0.9100000000000026,-36.31620526781136,-55.25,0.0,-1.4852731474204135,0.0,-4.09432249025547,-6.228935978261907,0.2940000000000008,11.732927855754438,0.3833200000000011,15.29750308050269,11.174217005480417,458428.0,0.4270000000000012,25.925,-0.9100000000000026,-1489891.0,0.0,0.0,-8.911638884522482,-687642.0,0.0333741303139747,2.0262864833484637,-3.6925887822584413
0.1399999999999996,114899.0,7.24,0.0042792792792792,0.072028954197732,3512.035070785063,0.1451898326898323,-0.1399999999999996,-114899.0,0.0,0.0,0.0,12.837999999999964,216.0895921114609,10536238.3,2.3564841015426485,3.135166826560085,4.75,-2.3564841015426485,0.0025225225225225,33.25,-15.675834132800423,-23.75,4.712968203085297,9.5,-4.712968203085297,-6.27033365312017,91.83999999999972,1545.8535706119774,75373744.0,3.135166826560085,344697.0,-344697.0,28.5,0.0,0.0,-0.2799999999999992,-229798.0,-9.5,0.1176561520785457,1.9803917987269848,2.634797606695472,96561.24441194904,3.991905159807813,-5.459999999999984,-91.90287996016328,-185.25,0.0,0.0,0.0,-3.606063013797871,-7.268794771128178,0.6075999999999983,10.227141000695095,0.713579999999998,12.01099946556288,2.3564841015426485,114899.0,0.8399999999999976,28.5,-1.2599999999999965,-1034091.0,0.0,0.0,-21.9461677859206,-804293.0,0.0399405882793162,1.3551271023339475,-3.4878578198869996
0.4500000000000002,115254.0,7.46,0.0098871733966745,0.048598031269314,2532.302850356291,0.1043646080760093,0.0,0.0,0.0,0.0,0.0,41.17500000000002,202.3858444909062,10545741.0,2.2118671529060787,2.0151614847377384,4.75,-2.2118671529060787,0.0100207838479809,23.75,-8.060645938950953,-19.0,0.0,0.0,-2.2118671529060787,-2.0151614847377384,304.65000000000015,1497.4340625174152,78026958.0,0.0,230508.0,-230508.0,38.0,4.75,2.2118671529060787,-1.3500000000000003,-345762.0,-14.25,0.3857008564863173,1.8958201229107248,1.7272211347146316,98785.70336327556,4.071286818466681,0.4500000000000002,2.2118671529060787,4.75,-0.4500000000000002,-2.0151614847377384,0.0,-2.8705152935934564,-6.164451434913049,2.155500000000001,10.594843662420118,2.6608500000000013,13.078770475133645,2.2118671529060787,115254.0,2.655000000000001,28.025,-2.250000000000001,-576270.0,0.0,0.0,-20.151614847377385,-1152540.0,0.1038250713802722,1.0959313090139846,-3.818009282158049
0.4400000000000004,115872.0,7.96,0.0125239616613418,0.0775004274727723,3298.1283764159057,0.1565495207667726,-0.4400000000000004,-115872.0,-0.4400000000000004,-115872.0,0.0,40.30400000000003,249.40807975357208,10613875.2,0.0,0.0,0.0,-5.445591260995024,0.009329073482428,49.5,-6.036117160389424,-11.0,0.0,0.0,-2.722795630497512,-3.018058580194712,284.24000000000024,1758.9259773013928,74853312.0,0.0,579360.0,-231744.0,33.0,5.5,0.0,-0.4400000000000004,-115872.0,-5.5,0.3723501148945063,2.3041665132954714,2.554032861576933,98056.71025694592,4.654376436181325,-11.00000000000001,-68.06989076243781,-137.5,-0.4400000000000004,-3.018058580194712,0.0,-3.344987874557905,-6.756817553253852,2.3012000000000024,14.24022114750199,2.377760000000002,14.713987587208557,5.445591260995024,231744.0,2.464000000000002,30.8,0.0,0.0,-6.036117160389424,-11.0,-21.126410061362986,-811104.0,0.1781488328142158,2.226860410177696,-3.5591309846679553
0.3099999999999996,116174.0,7.81,0.0096333126165319,0.0838920925936094,3610.1305158483497,0.1709136109384709,0.0,0.0,0.0,0.0,0.0,29.480999999999963,256.7364810218899,11048147.4,2.6996475396623545,3.065722554054615,5.5,0.0,0.0071928734203438,38.5,-18.39433532432769,-33.0,0.0,0.0,-10.798590158649418,-12.26289021621846,194.98999999999972,1698.078302447621,73073446.0,6.13144510810923,580870.0,-232348.0,38.5,5.5,0.0,0.0,0.0,0.0,0.2606538541884266,2.269914632784829,2.577717418021689,97681.29308543971,4.624503864633382,-11.779999999999983,-102.58660650716948,-209.0,0.0,0.0,0.0,-3.255350070500641,-6.632134426701063,1.7173999999999978,14.956047369729443,1.8640299999999976,16.23298065598974,2.6996475396623545,116174.0,1.704999999999998,30.25,-1.8599999999999977,-697044.0,-6.13144510810923,-11.0,-36.78867064865538,-1394088.0,0.1332921527819973,2.3648607751644715,-3.471345141564238
0.2199999999999997,116504.0,7.78,0.0064523137084509,0.0655151141131306,3416.9107104062546,0.1759721920486638,0.0,0.0,-0.2199999999999997,-116504.0,-0.2199999999999997,21.47199999999997,218.02109968624788,11370790.4,4.467645485373932,1.235374187623144,12.0,-2.233822742686966,0.0033456441451227,60.0,-5.559183844304148,-54.0,0.0,0.0,-11.16911371343483,-3.08843546905786,137.7199999999998,1398.373036922041,72931504.0,0.0,582520.0,-466016.0,30.0,0.0,6.701468228060898,-0.4399999999999994,-233008.0,-12.0,0.1824984332567367,1.853041594152902,0.5123951221069046,96644.53394610404,4.977229997911009,-14.29999999999998,-145.1984782746528,-390.0,-0.659999999999999,-0.6176870938115719,0.0,-2.886491752747889,-7.753054969641475,1.267199999999998,12.866818997876925,1.485659999999998,15.085004981365085,11.16911371343483,582520.0,1.2319999999999982,33.599999999999994,-1.0999999999999983,-582520.0,0.0,0.0,-7.412245125738863,-1398048.0,0.0644627473883722,1.7580749287737918,-3.5291887653788128
-0.0499999999999998,116907.0,7.2,-0.0016993464052287,0.032850425324465,3973.309803921561,0.2039215686274506,-0.0,0.0,0.0999999999999996,-233814.0,-0.0,-4.514999999999982,87.28042139236109,10556702.1,0.9665605912775316,-0.7837278740335917,6.0,-1.9331211825550632,-0.00109477124183,24.0,2.351183622100775,-18.0,0.0,0.0,-2.899681773832594,2.351183622100775,-30.79999999999988,595.4013242269594,72014712.0,-0.0,350721.0,-233814.0,6.0,6.0,0.9665605912775316,0.0499999999999998,-116907.0,-6.0,-0.042061834134113,0.8131062254177188,-0.6593006368776423,98346.4568623355,5.047420096093587,1.8499999999999928,-35.76274187726867,-222.0,0.0499999999999998,-0.0,0.0,-0.6104516838255611,-3.789426277055487,-0.2854999999999988,5.519060976194705,-0.261099999999999,5.04737940765127,2.899681773832594,350721.0,-0.2699999999999989,32.400000000000006,0.9499999999999962,-2221233.0,-0.0,0.0,6.269822992268733,-935256.0,0.0011174552394273,-0.1340946287312862,-3.381779295805056
-0.0199999999999995,117050.0,6.63,-0.0006375271673508,-0.0045466419219855,3731.127746921025,0.191258150205264,0.119999999999997,-702300.0,0.039999999999999,-234100.0,0.0199999999999995,-1.7959999999999552,-12.808503402007688,10511090.0,-0.142633668173805,-0.2618602242993944,6.0,0.142633668173805,-0.0004829751267809,36.0,1.0474408971975775,-24.0,-0.427901004521415,18.0,0.427901004521415,0.7855806728981831,-13.479999999999665,-96.13509234914456,78891700.0,-0.2618602242993944,468200.0,-351150.0,18.0,0.0,-0.28526733634761,-0.0,0.0,0.0,-0.0168665134739916,-0.1202866343049197,-0.2208334500724159,98711.27010653856,5.059954042197619,0.639999999999984,4.56427738156176,-192.0,-0.0,0.5237204485987887,0.142633668173805,0.0092515669297244,-0.389174605750911,-0.1137999999999971,-0.8115855719089504,-0.120019999999997,-0.8559446427110038,-0.142633668173805,117050.0,-0.1119999999999972,33.599999999999994,0.2599999999999935,-1521650.0,0.5237204485987887,-12.0,0.2618602242993944,-117050.0,0.0047502818112451,-1.4250845433735948,-3.4458906609591984
-0.25,117377.0,6.28,-0.0082652303120356,-0.0229198239012104,3880.591753343234,0.1901002971768199,4.5,-2112786.0,-0.0,0.0,-0.0,-23.6,-65.44377151607108,11080388.8,-0.0,-0.0,0.0,0.6932602914838037,-0.0065007429420505,11.5,1.034192776118424,-5.75,-0.0,0.0,2.773041165935215,4.136771104473696,-191.25,-530.3441229851098,89793405.0,-2.068385552236848,117377.0,-469508.0,23.0,11.5,-2.0797808744514112,0.25,-117377.0,-5.75,-0.2121892625861708,-0.5884095601208887,-0.8777784101460532,99624.55629830791,4.88035303948193,4.75,13.171945538192272,-109.25,0.25,1.034192776118424,-0.0,-0.0967805654655004,0.802711850458881,-1.36,-3.7713359856718927,-1.91725,-5.316613175389291,-4.159561748902823,704262.0,-1.425,32.775,3.5,-1643278.0,-0.0,0.0,-0.0,0.0,0.0647931141823314,-1.4902416261936229,-3.40940332103248
0.0,117639.0,6.49,0.0,0.0064434858130324,3030.69966101694,0.1481355932203385,-0.0,-823473.0,0.0,0.0,-0.0,0.0,24.060484722111514,11316871.8,0.0,0.0,0.0,-0.500217977590676,0.0,17.25,-2.0463799668038334,-5.75,0.250108988795338,5.75,-0.7503269663860139,-6.1391399004115,0.0,175.32640114553195,82464939.0,2.0463799668038334,352917.0,-235278.0,5.75,5.75,0.0,0.0,0.0,0.0,0.0,0.2149986398355579,1.7591087452261909,101124.81407979946,4.942813870900356,0.0,1.750762921567366,40.25,-0.0,0.0,0.0,0.0177608325720724,0.4083211394412723,0.0,1.3605928990466387,0.0,1.3603427900578433,0.500217977590676,235278.0,0.0,32.775,-0.0,-941112.0,0.0,0.0,0.0,0.0,0.0,0.5085856603345023,-3.6588271090475377
-0.2000000000000001,117880.0,6.2,-0.0069490403706154,0.0246377827670844,4095.7643944407646,0.199784910655195,1.0000000000000004,-589400.0,0.2000000000000001,-117880.0,-0.0,-17.78000000000001,63.038887995402746,10479532.0,0.0,0.0,0.0,0.0,-0.0046988749172733,23.0,0.0,0.0,0.0,0.0,-2.1272965577751206,-3.3453281012691365,-135.60000000000005,480.76902205717727,79922640.0,3.3453281012691365,0.0,-235760.0,17.25,0.0,0.7090988525917069,0.2000000000000001,-117880.0,-5.75,-0.1684980154585336,0.5974087471281291,0.9394685768691892,99312.73031125969,4.844317944432839,6.800000000000003,-24.109360988118038,-195.5,0.8000000000000004,0.0,0.0,-0.0162860087355271,-0.1320613478459555,-1.0480000000000005,3.715677987580544,-1.3320000000000007,4.722598358260768,3.545494262958534,589400.0,-1.1200000000000006,32.2,2.6000000000000014,-1532440.0,-2.230218734179424,-11.5,0.0,0.0,-0.045613623053332,1.3113916627832956,-3.3597137926751626
0.1799999999999997,118168.0,5.93,0.0048192771084337,0.030067786077139103,3163.801874163314,0.153949129852744,-1.2599999999999978,-827176.0,-0.1799999999999997,-118168.0,-0.1799999999999997,15.875999999999973,99.05140564033748,10422417.6,0.0,0.0,0.0,0.0,0.0047590361445782,51.75,-0.4152121920998138,-11.5,1.1230318099811505,5.75,-2.246063619962301,-0.4152121920998138,119.5199999999998,745.6931218274839,78463552.0,0.4152121920998138,354504.0,-354504.0,46.0,0.0,0.0,-0.539999999999999,-354504.0,-17.25,0.1541299352412782,0.9616267785905026,0.1777684118881488,101184.5899310633,4.923595153540839,-0.1799999999999997,-1.1230318099811505,-5.75,-0.7199999999999988,0.0,-1.1230318099811505,0.062981671764048,0.3224704851854146,0.9755999999999982,6.086832410097836,0.9698399999999984,6.050895392178439,5.615159049905753,590840.0,1.0079999999999982,32.2,-1.799999999999997,-1181680.0,-0.2076060960499069,-5.75,0.0,0.0,0.0615680057153812,1.966755738130239,-3.6203329115788283
-0.1600000000000001,118325.0,5.71,-0.0050539999740696,0.0179774148539047,3737.5909183236818,0.1737312491086436,1.2800000000000007,-946600.0,-0.0,0.0,0.3200000000000002,-14.560000000000008,51.79089070356349,10767575.0,0.5691306670721262,0.3846765380767611,5.5,-0.5691306670721262,-0.0032803633707738,49.5,-0.7693530761535222,-11.0,0.0,0.0,-1.1382613341442525,-0.7693530761535222,-113.44000000000004,403.5136429541375,83892425.0,0.7693530761535222,709950.0,-236650.0,22.0,0.0,0.5691306670721262,-0.0,0.0,0.0,0.0343931481094631,-0.1223387207890573,-0.0826889821769348,-25434.807812826388,-1.182264466262794,410.4000000000002,-1459.8201610400038,-14107.5,0.4800000000000002,0.0,0.0,0.0033282471694291,0.0321637200223839,-0.8416000000000005,2.993627308799384,-1.0921600000000005,3.8848859334343335,1.1382613341442525,236650.0,-0.8960000000000005,30.8,1.4400000000000008,-1064925.0,-0.3846765380767611,-5.5,0.0,0.0,-0.0275388928892967,0.9466494430695764,-3.454993811398487
-0.29,118318.0,5.65,-0.0090138725297735,-0.019141978134329,3677.597827509478,0.1631821751079696,180.96,-73830432.0,49.01,-19995742.0,13.34,-25.897,-54.99520945157764,10565797.4,-51.11536824726701,-202.5055633743144,435.75,-0.0,-0.0058258081402957,1191.75,351.33495332411167,-756.0,-74.51758503517239,635.25,55.42630291872327,219.5843458275698,-207.06,-439.7153364885379,84479052.0,-131.75060749654187,10885256.0,-26739868.0,903.0,624.75,-80.06021532704472,15.659999999999998,-6389172.0,-283.5,-0.2280864842281178,-0.4843674546549523,-1.918935687024581,93057.71255483602,4.129151869646961,48.72,103.46243211495008,-882.0,62.63999999999999,-0.0,156.4253437928412,0.0558004197251374,-0.4756892834578904,-1.4412999999999998,-3.06076361673394,-1.8183,-3.861365770004387,-187.21773430324305,35968672.0,-1.624,29.4,258.39,-105421338.0,-0.0,0.0,-0.0,0.0,0.053461158613685,-0.9678313197305044,-3.4711161401728736
-0.0299999999999993,118990.0,6.27,-0.0006450662739322,-0.0058429356550203,2558.547864506626,0.1128865979381442,0.299999999999993,-1189900.0,0.1799999999999958,-713940.0,0.2399999999999944,-2.8109999999999347,-25.4617126797536,11149363.0,-0.0,0.0,0.0,4.347784449050774,-0.0005955817378497,210.0,-16.11921925220094,-68.25,-0.0,0.0,0.5434730561313468,-2.4798798849539905,-21.629999999999495,-195.9220367353505,85791790.0,23.55885890706291,594950.0,-2498790.0,21.0,26.25,-8.695568898101548,0.2099999999999951,-832930.0,-36.75,-0.0253499059954036,-0.2296165147327447,1.0477453660579583,100546.17714643828,4.436233549195739,0.8399999999999804,7.608622785838855,-147.0,0.2699999999999937,0.0,7.880359313904528,-0.0961630784447851,1.8578884680277803,-0.1481999999999965,-1.3423784486444266,-0.1657499999999961,-1.5013443175628456,-5.978203617444814,2617780.0,-0.1649999999999961,28.875,1.4399999999999664,-5711520.0,0.0,0.0,-8.679579597338966,-832930.0,0.0016038445104201,-0.2806727893235243,-3.839599598844406
0.0699999999999994,119489.0,6.74,0.0018152578148557003,0.0083424394563389,3098.619157704281,0.1361443361141818,-0.909999999999992,-1553357.0,0.0,0.0,-0.5599999999999952,6.257999999999947,28.76009440120092,10682316.6,1.608506398277456,10.824949806201277,26.25,-2.57361023724393,0.0011714745200522,120.75,-8.659959844961021,-21.0,3.217012796554912,52.5,0.0,0.0,52.21999999999955,239.98915462299647,89138794.0,30.30985945736357,2031313.0,-1792335.0,120.75,31.5,0.0,-1.1899999999999895,-2031313.0,-89.25,0.0546166701483178,0.2510036096747983,1.6892077512497083,93229.87570503449,4.096250261123878,-12.809999999999889,-58.871334176954896,-960.75,0.0,0.0,0.0,0.059097883814562,0.9644471739705583,0.3506999999999969,1.611723411074011,0.4370799999999962,2.008702790168887,4.1821166355213855,1553357.0,0.3919999999999966,29.4,-1.3299999999999883,-2270291.0,0.0,0.0,-28.14486949612332,-1553357.0,0.0097457753206404,0.7309331490480416,-3.6522677376677457
0.0499999999999998,119770.0,6.91,0.0018197616683217003,0.0599179200391522,4359.057100297909,0.1910749751737832,-0.1499999999999994,-359310.0,0.0,0.0,-0.249999999999999,4.619999999999982,152.1192557243928,11066748.0,0.0,0.0,0.0,-8.231561456947663,0.0007125124131082,31.5,-46.02020911354045,-157.5,0.0,0.0,-8.231561456947663,-7.670034852256742,36.049999999999855,1186.9911620918529,86354170.0,26.07811849767292,1796550.0,-2275630.0,0.0,42.0,0.0,-0.5999999999999976,-1437240.0,-63.0,0.0335178608731981,1.1036173267326113,1.0283326442820926,80288.68393565908,3.519375391685816,-22.299999999999912,-734.2552819597315,-2341.5,0.0,0.0,0.0,-0.0300109041450761,-0.0957031345666908,0.252999999999999,8.330340194431034,0.2897499999999988,9.54037972860234,59.26724249002317,4311720.0,0.2649999999999989,27.825,-2.049999999999992,-4910570.0,-13.806062734062134,-47.25,-30.680139409026967,-2395400.0,0.0268689324130518,2.821237903370457,-3.313317464385903
-0.0099999999999997,120201.0,6.64,-0.00024014245738990004,0.0388928404126406,2886.5363520732626,0.1260747901297379,0.0399999999999988,-480804.0,-0.0,0.0,0.0399999999999988,-0.9529999999999714,154.34537197666555,11455155.3,0.0,0.0,0.0,-3.239147365722257,-0.0001653523276519,131.25,-74.2223434810741,-336.0,0.0,0.0,-16.195736828611285,-11.59724116891783,-8.259999999999753,1337.767862043292,99286026.0,0.0,961608.0,-6250452.0,10.5,31.5,0.0,0.3399999999999898,-4086834.0,-178.5,-0.0079527888030079,1.288012745070465,0.9223040971395484,95593.31669103824,4.175214121579278,1.469999999999956,-238.0773313805859,-771.75,-0.0,0.0,0.0,-0.3795424645591953,-1.2303224978413236,-0.0504999999999984,8.1788470984487,-0.0506299999999984,8.199901556325893,51.82635785155611,3846432.0,-0.0509999999999984,26.775,0.099999999999997,-1202010.0,0.0,0.0,-89.29875700066728,-9255477.0,-0.0047160250801472,2.4759131670774037,-3.729108052270406
0.0600000000000005,120402.0,6.83,0.0014372148383257,0.031948043506571,2884.0590160682345,0.125756298353501,-0.240000000000002,-481608.0,0.0,0.0,-0.1800000000000015,5.682000000000048,126.3059483965582,11402069.4,14.671229486400634,14.382646498427471,57.75,0.0,0.0011575084308668,147.0,-22.22772640666064,-89.25,0.0,0.0,-21.33997016203729,-20.92021308862178,46.20000000000039,1026.9860640480445,92709540.0,6.537566590194306,1926432.0,-1685628.0,99.75,73.5,4.001244405381991,-0.360000000000003,-722412.0,-31.5,0.0490453311050766,1.0902353149682984,1.068790393458547,98419.26592855652,4.291466471694172,-5.640000000000047,-125.37232470196903,-493.5,0.0,0.0,0.0,-0.7079096848850336,-2.7865274917828597,0.3066000000000025,6.815452970500659,0.3508800000000029,7.799759094224628,16.004977621527964,1444824.0,0.3120000000000026,27.3,-1.2600000000000104,-2528442.0,0.0,0.0,-26.150266360777223,-2408040.0,0.0190152274889725,1.663832405285082,-3.731637461549951
-0.0700000000000002,120949.0,6.2,-0.0016118998645462,0.0323176058904322,2785.1096673857305,0.1208924898409667,-0.0,0.0,0.4900000000000014,-846643.0,-0.0,-6.94400000000002,139.22295065539805,11998140.8,7.017285819324498,8.715670283320279,26.25,-8.420742983189397,-0.00158380574926,199.5,-45.32148547326545,-136.5,0.0,0.0,-26.665686113433093,-33.11954707661706,-53.97000000000016,1082.0654733398376,93251679.0,0.0,3023725.0,-1572337.0,84.0,0.0,5.613828655459598,-0.0,0.0,0.0,-0.0597346981407981,1.197644143385861,1.4875083813396004,103212.17150616251,4.48010236055985,0.5600000000000016,-11.227657310919197,-42.0,-0.0,0.0,0.0,-0.6633106120323196,-2.4812874969263405,-0.352800000000001,7.073424105879094,-0.349160000000001,7.00044433335812,18.24494313024369,1572337.0,-0.3780000000000011,28.35,2.730000000000008,-4717011.0,0.0,0.0,-34.862681133281114,-2418980.0,-0.0204949869167609,1.5371240187570654,-3.771081718662225
-0.2000000000000001,121145.0,6.3,-0.0037149611617696,0.0223586398139313,2250.244849712928,0.0975177304964535,3.600000000000002,-2180610.0,0.8000000000000004,-484580.0,-0.0,-19.38000000000001,116.63929196707356,11738950.5,13.240786497810207,6.165238371698556,57.75,0.0,-0.0031390533070264,273.0,-11.209524312179193,-105.0,0.0,0.0,0.0,0.0,-161.00000000000009,968.9848300670196,97521725.0,0.0,2544045.0,-1696030.0,73.5,131.25,18.055617951559373,1.4000000000000006,-848015.0,-36.75,-0.1578023814497598,0.9497398371010342,0.4422224078452142,95584.84750365574,4.142312513056194,32.40000000000001,-195.00067387684123,-850.5,-0.0,0.0,0.0,-0.8027106117453979,-3.5010411077894266,-0.9680000000000004,5.82594605903649,-1.1148000000000005,6.709467630799463,16.851910088122082,1696030.0,-1.0800000000000003,28.35,10.600000000000003,-6420685.0,0.0,0.0,-14.572381605832952,-3149770.0,-0.038251645302896,1.0041056892010196,-3.985949142869124
0.2000000000000001,121363.0,6.58,0.007546141266256499,0.0419327923320565,4579.11171248345,0.1980862082392336,-6.400000000000003,-3883616.0,0.0,0.0,0.0,19.48000000000001,108.2474824956045,11820756.2,28.895631877676763,26.79302855393194,136.5,-11.113704568337218,0.0042286426290787,283.5,-70.0740746795143,-357.0,0.0,0.0,-28.895631877676763,-26.79302855393194,166.00000000000009,922.437479171989,100731290.0,0.0,2427260.0,-5582698.0,273.0,0.0,48.90030010068376,-3.8000000000000016,-2305897.0,-99.75,0.1001462293712137,0.5564978034323023,0.5160039967522204,60770.23417589305,2.62883852099436,-170.4000000000001,-946.8876292223308,-4473.0,0.0,0.0,0.0,-0.583458537583548,-2.756198262675182,1.0080000000000005,5.601307102441957,1.2294000000000007,6.831594198156887,33.34111370501165,3640890.0,1.0600000000000005,27.825,-16.200000000000006,-9830403.0,0.0,0.0,-44.311547223810514,-5218609.0,0.0329136544539436,0.863983429416019,-3.277281024500453
0.1600000000000001,121989.0,6.69,0.0041039786985422,0.0291288477503868,3129.001609102921,0.1410742677623889,-5.440000000000003,-4147626.0,-1.760000000000001,-1341879.0,0.0,16.000000000000007,113.5633487015272,12198900.0,45.42533948061088,72.63692588834826,220.0,-135.14038495481736,0.0042204471007413,401.5,-226.99039340108828,-687.5,23.848303227320717,115.5,-13.627601844183264,-21.791077766504475,132.96000000000006,943.7114277096912,101372859.0,50.84584812184377,2439780.0,-13906746.0,1094.5,0.0,45.42533948061088,-14.400000000000007,-10979010.0,-495.0,0.1396114476707751,0.9909214696600775,1.5845228715042337,106444.1305619386,4.799143513682892,6.080000000000004,43.154072506580334,209.0,-4.320000000000002,0.0,0.0,0.1990188148249987,0.9638703807637656,0.8320000000000005,5.905294132479415,0.9268800000000004,6.578724790279471,39.74717204553452,4269615.0,0.8320000000000005,28.6,-12.000000000000009,-9149175.0,0.0,0.0,-335.94578223361066,-22567965.0,0.0376772380578425,1.2951550582383362,-3.663216897792517
-0.2099999999999999,122551.0,6.71,-0.0042338828069292,0.0237608548317312,2470.7931993904003,0.1108874068481465,-0.0,0.0,1.4699999999999993,-857857.0,-0.0,-21.67199999999999,121.62482274438804,12647263.2,38.89165843570547,22.742975207700148,181.5,-82.4974572878601,-0.0046478755085776,434.5,-48.24267468300031,-385.0,11.78535104112287,55.0,-24.74923718635803,-14.472802404900094,-159.59999999999994,895.6866791253382,93138760.0,0.0,4656938.0,-7230509.0,737.0,49.5,11.78535104112287,4.829999999999998,-2818673.0,-126.5,-0.192277000208899,1.0790723545694914,0.6310174673538166,112208.27929809903,5.035826195947358,-29.60999999999999,166.1734496798325,775.5,-0.0,0.0,0.0,0.7167248989900177,3.3448192851364715,-1.0478999999999996,5.880890169520313,-2.561369999999999,14.374592664857564,40.070193539817765,4166734.0,-1.0289999999999997,26.950000000000003,19.73999999999999,-11519794.0,0.0,0.0,-189.52479339750124,-33701525.0,-0.0784582635883947,2.0548592844579576,-3.903988037431507
0.04,122816.0,6.49,0.0010359082434951,0.0354564103225959,3180.6526708275883,0.1424373834805866,0.0,0.0,0.0,0.0,0.0,4.18,143.07038879080156,12834272.0,0.0,0.0,0.0,-43.811028146465546,0.0007100591715976,198.0,-120.16347559668266,-412.5,15.060040925347533,60.5,-32.85827110984916,-38.45231219093845,31.72,1085.6920412545994,97393088.0,0.0,20141824.0,-13509760.0,231.0,88.0,20.536419443655724,-0.92,-2824768.0,-126.5,0.0275496135366617,0.9429506984991703,1.103485771303566,84588.33340296637,3.788071861290996,-16.080000000000002,-550.3760410899735,-2211.0,0.0,0.0,0.0,0.598116743089434,2.4027864954872764,0.2012,6.886545986772553,0.28944,9.90676873961952,93.09843481123929,8351488.0,0.2,27.5,-2.4,-7368960.0,0.0,0.0,-169.83104550997817,-13018496.0,0.0209805329607889,2.884823282108486,-3.653600882253876
0.1699999999999999,123092.0,6.3,0.0048606745789745,0.0379379290106685,3519.471501618425,0.1572571187315287,-4.419999999999997,-3200392.0,0.0,0.0,0.0,17.74799999999999,138.52446880395755,12850804.8,0.0,0.0,0.0,-45.11333275224671,0.0039834404465919,214.5,-65.87987025747387,-214.5,0.0,0.0,-11.941764552065306,-15.203046982493971,138.54999999999993,1081.3931233259138,100319980.0,0.0,4062036.0,-5046772.0,302.5,253.0,10.61490182405805,-3.909999999999998,-2831116.0,-126.5,0.1300125339461039,1.014757561569786,1.2918867071213804,94138.25193231668,4.206287862962189,-37.39999999999998,-291.9098001615964,-1210.0,-6.2899999999999965,0.0,0.0,0.6247669512896407,2.589731522004311,0.8839999999999996,6.899686185637733,0.8275599999999996,6.459167759939324,43.786470024239456,4062036.0,0.8159999999999995,26.4,-16.65999999999999,-12063016.0,-25.33841163748995,-82.5,-133.44896795744708,-9724268.0,0.091992925311853,2.9762417012658373,-3.554621206511869
-0.4000000000000003,123577.0,6.21,-0.0115096003311079,0.0495149923855656,3555.804700293309,0.1582570045527339,14.400000000000013,-4448772.0,-0.0,0.0,-0.0,-42.400000000000034,182.40734836583945,13099162.0,0.0,0.0,0.0,-34.41648082374329,-0.0098036745784671,902.0,-22.452780077276746,-66.0,0.0,0.0,0.0,0.0,-336.0000000000002,1445.4921945972185,103804680.0,39.2923651352343,5684542.0,-3830887.0,621.5,44.0,36.13730486493046,8.000000000000005,-2471540.0,-110.0,-0.303070816795488,1.303828869309765,1.4176629994478578,93631.45581783996,4.167223730937957,94.80000000000008,-407.835297761358,-1303.5,7.600000000000006,0.0,0.0,0.4669638063595492,1.4924831787018142,-1.9200000000000013,8.25995539769839,-2.360000000000002,10.15286184300427,49.90389719442777,3583733.0,-1.9600000000000013,26.950000000000003,22.80000000000002,-7043889.0,-39.2923651352343,-115.5,-260.07803589512224,-17177203.0,-0.2497174117820774,3.4336144120035623,-3.548283048599318
0.3700000000000001,124229.0,5.88,0.0095966325897509,0.0420214569900836,3222.1082972761333,0.1426526466044058,-17.760000000000005,-5962992.0,0.0,0.0,0.0,39.664000000000016,173.67957504538927,13317348.8,17.82159818562763,14.301577618553257,60.5,0.0,0.0078516538996508,830.5,-37.704159176185854,-159.5,0.0,0.0,0.0,0.0,319.68000000000006,1399.80553021657,107333856.0,0.0,9938320.0,-8074885.0,896.5,82.5,0.0,-9.620000000000005,-3229954.0,-143.0,0.1371944850637142,0.6007432398254561,0.4820878567508978,46063.60455400041,2.039377480676833,-430.3100000000001,-1884.228971807721,-6396.5,0.0,-29.90329865697499,0.0,0.2922465167574641,0.9921059873342613,1.9129000000000005,8.376151147244986,1.9077200000000003,8.353469113190549,85.86770034893311,6584137.0,1.7020000000000004,25.3,-55.500000000000014,-18634350.0,-29.90329865697499,-126.5,-228.8252418968521,-21864304.0,0.210653566920947,3.131336805581644,-3.652090740600277
-0.1100000000000003,124551.0,5.81,-0.0030130546273991,0.0320319961999907,3411.6269717926707,0.1506527313699584,8.360000000000023,-9465876.0,7.810000000000022,-8843121.0,-0.0,-11.23100000000003,119.39755291878954,12716657.1,0.0,0.0,0.0,-134.48304197513025,-0.0029147563913279,2898.5,-60.33102682687428,-984.5,0.0,0.0,-257.27190638720566,-74.14986537381196,-87.23000000000025,927.348280750246,98768943.0,0.0,45585666.0,-21422772.0,1958.0,0.0,54.96263454635758,-0.0,0.0,0.0,-0.0931794443283896,0.9905972429117867,0.2855059195271355,105505.39064132023,4.658972216419469,2.530000000000007,-26.89660839502605,-126.5,-0.0,0.0,0.0,0.5897456984070472,2.773689148936996,-0.5566000000000015,5.91725384690573,-0.5583600000000015,5.9359645310066185,182.42916998365493,19429956.0,-0.5170000000000015,25.85,58.740000000000165,-66510234.0,-21.23382508431888,-346.5,-25.61540803822595,-9465876.0,-0.0483525219355981,2.417626096779899,-3.597525975241344
0.0,124813.0,5.54,0.0,0.0251948158850271,4930.429323662586,0.21726391706107712,-0.0,-3245138.0,-0.0,-748878.0,0.0,0.0,67.98975528568243,13305065.8,5.740223241755553,2.48597536297624,49.5,-20.409682637353075,0.0,489.5,-1.1048779391005512,-22.0,0.0,0.0,0.0,0.0,0.0,556.1638518678714,108836936.0,0.0,3744390.0,-2496260.0,269.5,0.0,1.2756051648345672,-0.0,-1248130.0,-55.0,0.0,0.3785245741899943,0.163931388394854,74074.3123041571,3.264152914142469,-0.0,-401.8156269228887,-3465.0,0.0,-1.6573169086508268,0.0,0.5109537279715305,4.406136916524444,0.0,3.2272810670314547,0.0,4.210772649118907,19.771880054935792,3869203.0,0.0,25.3,-0.0,-6365463.0,-2.2097558782011024,-44.0,-20.16402238858506,-9111349.0,0.0,1.8411904116523148,-3.2313905490067896
0.0200000000000004,125164.0,5.65,0.0006502007107974,0.0022285771828567,4069.086088312739,0.1788051954693048,0.0,0.0,-0.3400000000000068,-2127788.0,0.0,2.1300000000000425,7.3006216705958,13329966.0,0.0,-0.0,0.0,-3.4275219110778403,0.0003986090869576,583.0,31.79381499205878,-429.0,0.0,0.0,-3.4275219110778403,20.380650635935115,16.720000000000333,57.30816635322149,104637104.0,-8.152260254374045,12140908.0,-4255576.0,456.5,49.5,6.238089878161669,0.0,0.0,0.0,0.0089116356799667,0.0305448265566285,-0.1816249333881328,55770.79841236683,2.450699811990809,-19.680000000000398,-67.45363121001189,-5412.0,0.0,-0.0,0.0,0.0730874397138825,5.864016756933649,0.101600000000002,0.3482362261655086,0.1089400000000021,0.3733942369928199,8.15750214836526,14894516.0,0.0940000000000018,25.85,-3.280000000000065,-20526896.0,-0.0,0.0,75.40840735295993,-23155340.0,0.0050776067130545,1.3963418460899648,-3.426206451468717
-0.04,125847.0,5.65,-0.0015379233582445,-0.0020378026978366,4838.576021625054,0.21146446175862588,-0.0,0.0,-0.0,0.0,1.36,-4.26,-5.644650265727806,13402705.5,-0.0,-0.0,0.0,0.901023986078617,-0.0008548258864684,874.5,3.50655952151735,-698.5,-0.7420197532412139,77.0,1.537040917428229,0.8007104419212846,-35.480000000000004,-47.01225150892549,111626289.0,-0.4693819831952358,3523716.0,-10571148.0,264.0,82.5,-0.0,0.92,-2894481.0,-126.5,-0.0163191978274493,-0.0216235127589616,-0.0112646138829464,51343.05222477544,2.2438897012742847,42.96,56.92351535579027,-5907.0,0.68,-0.0,4.399117108501483,-0.0689603909261848,7.156076476565291,-0.2016,-0.267127111166837,-0.25104,-0.332636855095847,-6.148163669712916,14598252.0,-0.176,24.200000000000003,4.4,-13843170.0,0.828321146815122,-165.0,2.4573527355515288,-11200383.0,-0.0118561509382308,1.6302207540067428,-3.2584464163628124
-0.1500000000000003,126078.0,5.5,-0.0057050845682567,-0.0266391531384313,4795.237681311193,0.2091864341694154,-0.0,0.0,-0.0,0.0,-0.0,-15.84000000000003,-73.96282748560304,13313836.8,-10.506083449659522,-24.98989458479045,82.5,52.53041724829762,-0.003280619992669,682.0,153.27135345338144,-506.0,-0.0,0.0,33.61946703891047,79.96766267132944,-138.45000000000027,-646.474334935716,116369994.0,-0.0,9203694.0,-8573304.0,676.5,225.5,-30.117439222357294,6.900000000000014,-5799588.0,-253.0,-0.0704721119699186,-0.3290603952132062,-0.7827069552425837,59233.219552955925,2.583977438897013,138.9000000000003,648.5755516256479,-5093.0,-0.0,-0.0,-0.0,-0.9075128061930634,7.126328937864479,-0.7335000000000014,-3.424983204589004,-1.1296500000000025,-5.274754297292391,-35.02027816553174,6303900.0,-0.6750000000000014,24.75,22.800000000000047,-19163856.0,-0.0,0.0,218.2450793738366,-16516218.0,-0.0230931895614041,0.8467502839181501,-3.2692774873589054
0.0200000000000004,126547.0,5.34,0.000881809998932,0.0010720855532481,5579.520496742794,0.24249774970631752,0.0,0.0,-0.4200000000000083,-2657487.0,-1.1200000000000223,2.088000000000042,2.538545307824964,13211506.8,0.0,0.0,0.0,-0.8753604509741255,0.0003075655636413,907.5,-146.6236816612668,-456.5,0.0,0.0,-1.5075652211221051,-109.52612365058484,16.92000000000034,20.57097059789195,107058762.0,77.72821678428602,4682239.0,-4429145.0,434.5,44.0,0.0,-0.9600000000000192,-6074256.0,-264.0,0.0014079799456862,0.0017117916114144,0.1243633755070759,8908.781909337793,0.3871944850637143,-37.640000000000754,-45.76189913148068,-10351.0,0.0,0.0,0.0,0.0295380583143627,6.681288307845542,0.0982000000000019,0.1193894392856376,0.102140000000002,0.1241796061979127,0.7780981786436671,4049504.0,0.0900000000000018,24.75,-3.860000000000077,-24423571.0,-47.69686029944824,-148.5,-91.8606198359744,-6580444.0,0.0076503500392218,2.1038462607859625,-3.121510940447657
-0.4699999999999997,126745.0,4.81,-0.0186030865343657,0.0081365995412566,5016.698303825943,0.2078004346923839,72.37999999999995,-19518730.0,47.46999999999997,-12801245.0,17.85999999999999,-47.42299999999997,20.74182471452812,12788570.5,1.4389769375787596,3.6130289487445104,36.75,0.0,-0.0070018239605063,981.75,-30.452672567989445,-309.75,0.0,0.0,-9.250566027292026,-23.226614670500425,-406.07999999999976,177.61086772400688,109507680.0,8.774498875522383,3168625.0,-4562820.0,252.0,36.75,9.867270429111494,9.869999999999994,-2661645.0,-110.25,0.0411385001044494,-0.0179931163820316,-0.0451776874727371,-11093.82807603926,-0.4595257990390635,1062.1999999999994,-464.5839827039995,-11865.0,14.09999999999999,0.0,-6.7837484200141525,0.2257306628748174,5.764930377972439,-2.086799999999999,0.9127225146928132,-2.895199999999998,1.2662997050693083,6.7837484200141525,4182585.0,-2.1619999999999986,24.15,64.85999999999996,-17490810.0,-29.42037858263387,-299.25,-20.1297327144337,-4943055.0,-0.1955417727733656,2.1842432065110007,-3.229405185044078
-0.0700000000000002,127224.0,4.83,-0.0020922988278084,0.0202460767680625,3802.723229558664,0.1419774204584327,27.65000000000008,-50253480.0,3.57000000000001,-6488424.0,-0.0,-7.1890000000000205,69.56417694792323,13065904.8,13.547064644191476,-5.012753550202216,95.0,-14.224417876401048,-0.0014986405459423,641.25,30.57779665623352,-579.5,20.32059696628721,142.5,-40.64119393257442,15.038260650606649,-69.6500000000002,673.966466048526,126587880.0,-12.030608520485318,2290032.0,-5343408.0,137.75,42.75,0.0,1.6100000000000043,-2926152.0,-109.25,-0.0461938583664091,0.4469937038959773,-0.1653988768026822,83956.67766868602,3.1345832462920407,32.97000000000009,-319.03337237070923,-2237.25,0.7700000000000022,4.511478195181994,-60.28443766665207,0.6438097907487169,4.514773622738435,-0.3059000000000009,2.960033624755837,-0.351960000000001,3.4057320515497365,25.06206959175423,4707288.0,-0.3080000000000009,20.9,17.50000000000005,-31806000.0,5.514028905222437,-104.5,-0.0,0.0,-0.0364944645369795,2.4764100935807494,-3.5102318629271
-0.0200000000000004,127599.0,4.65,-0.0005483237582721,0.0040577215427177,3498.2781615882373,0.1302268925896294,1.50000000000003,-9569925.0,0.3200000000000064,-2041584.0,-0.0,-2.01000000000004,14.874460896175409,12823699.5,0.0,0.0,0.0,-7.400229301579805,-0.0004553608222432,774.25,-12.852319890752142,-342.0,0.0,0.0,-9.620298092053748,-11.602788790262352,-18.98000000000038,140.4563521439847,121091451.0,0.0,3189975.0,-4848762.0,589.0,85.5,0.0,-0.0,0.0,0.0,-0.0107248798830167,0.0793665703662225,0.0957219354489031,68424.19740965115,2.54715897221642,15.340000000000307,-113.51951748623422,-3643.25,-0.0,0.0,0.0,0.0975073053206484,3.1293604657237077,-0.0870000000000017,0.643819949237443,-0.1171600000000023,0.86701086497309,9.17628433395896,7911138.0,-0.0880000000000017,20.9,1.8800000000000376,-11994306.0,-3.0345755297609225,-80.75,-4.462611073177827,-3189975.0,-0.0062075079409342,1.4742831359718465,-3.596621640274937
0.0300000000000002,127704.0,4.72,0.0007004149711937,0.0009528313177866001,2981.526449377538,0.1108990371056764,-3.00000000000002,-12770400.0,-1.1100000000000074,-4725048.0,0.0,3.117000000000021,4.240308016944902,13268445.6,0.0,0.0,0.0,0.0,0.0007608476693122,2166.0,-47.27991156048133,-1154.25,0.0,0.0,0.0,0.0,26.25000000000017,35.71000495502204,111741000.0,0.0,27839472.0,-29627328.0,950.0,152.0,3.7954633837909135,-3.300000000000022,-14047440.0,-522.5,0.0269542510967204,0.03666805486563,0.1748140751758493,114738.85606851891,4.267756423647379,3.00000000000002,4.08114342343109,475.0,-1.650000000000011,0.0,0.0,0.012792661237583,1.4889244158793415,0.1314000000000008,0.1787540819462817,0.1925400000000013,0.2619277849158073,4.938183542351618,15452184.0,0.1290000000000008,20.425,-12.03000000000008,-51209304.0,0.0,0.0,-11.28491716258402,-7406832.0,0.0060456987590409,0.9572356368481368,-3.7572796852558077
0.0099999999999997,128234.0,5.23,0.0002622398652712,0.003653738193252,3362.8066883194883,0.12456393600384888,0.0,0.0,0.0,0.0,0.0,1.0569999999999684,14.726980073272028,13554333.8,5.712452062480162,1.8414049987057108,194.75,0.0,0.0002321664862263,380.0,-1.8414049987057108,-194.75,3.343874378037168,114.0,-5.851780161565044,-1.8863173157473132,8.629999999999741,120.24014951025316,110665942.0,0.0,11669294.0,-4744658.0,551.0,0.0,3.622530576206932,0.0,0.0,0.0,0.0079402548569038,0.1106300615461952,0.0356615243524403,101821.06413202424,3.771621057029455,-1.499999999999955,-20.8992148627323,-712.5,0.0,-1.1228079260400676,0.0,0.0127043633698581,0.4331195674324243,0.0438999999999986,0.611650354982632,0.0536899999999983,0.7480525639867315,4.5978272698011065,4231722.0,0.0419999999999987,19.95,-0.5699999999999829,-7309338.0,0.0,0.0,-3.727722314453024,-10643422.0,0.0014604987684991,0.6937369150371067,-3.6410807707420023
0.0700000000000002,128810.0,5.54,0.0018066655860753,0.0147517221607761,3324.5227734623304,0.1225951647693973,-6.090000000000018,-11206470.0,0.0,0.0,0.0,7.476000000000021,61.04277168058273,13756908.0,0.0,0.0,0.0,0.0,0.0015491939204269,494.0,-42.7809375598077,-137.75,14.860599847332876,123.5,-44.58179954199863,-115.0659699884483,62.16000000000018,507.5466409396767,114383280.0,0.0,10691230.0,-7084550.0,361.0,57.0,0.0,0.0,0.0,0.0,0.0513411322331315,0.4192088032008623,1.0819811686282883,94475.01775642368,3.48386254439106,-20.65000000000006,-168.61065211396917,-1401.25,0.0,0.0,0.0,0.0441088456609078,0.3665694854235511,0.3122000000000009,2.549164435350178,0.4067000000000011,3.320772504346308,18.86153057546096,4250730.0,0.2940000000000008,19.95,-6.440000000000018,-11850520.0,-36.88011858604112,-118.75,-123.91719844909817,-10820040.0,0.015148900642211,1.0279611150071757,-3.6570123133793793
0.1399999999999996,129088.0,5.9,0.0043307122927571,0.0225245869689709,3993.1642031959714,0.1546682961698985,-4.479999999999987,-4130816.0,0.0,0.0,0.0,15.021999999999956,78.13133788956006,13851142.4,41.50499776053051,37.868320834046486,285.0,-46.60210274866584,0.0032895980814905,480.0,0.0,0.0,62.62157556851972,430.0,-61.16525985762391,-55.80594649227904,129.21999999999963,672.0897005784151,119148224.0,11.958417105488364,22461312.0,-10585216.0,880.0,60.0,0.0,0.0,0.0,0.0,0.082210152496344,0.4275854881270226,0.3901203547051945,75802.4583246292,2.936076874869438,-90.29999999999974,-469.6618167638979,-3225.0,-3.3599999999999905,0.0,0.0,0.2020625346121509,1.387491277477591,0.6439999999999981,3.3495261350603567,0.8132599999999977,4.229868982296873,50.97104988135326,9036160.0,0.6019999999999982,21.5,-17.91999999999995,-16523264.0,0.0,0.0,-237.83962909804637,-46213504.0,0.0362743272305675,1.2955116868059875,-3.4759103923323504
0.0200000000000004,129569.0,5.94,0.0004563644103874,0.0270512250505398,2956.5340144742386,0.1197956577266919,0.0,0.0,-0.4800000000000096,-3109656.0,0.0,2.0900000000000416,123.88577870836846,13539960.5,87.72772846334226,104.85565294167074,388.5,-60.461002049060205,0.000549595572584,1113.0,-165.78528911047945,-614.25,154.11627973289856,682.5,-62.83202173725865,-75.09931899876418,17.86000000000036,1058.6602907806032,115705117.0,38.258143640879865,4275777.0,-6996726.0,750.75,89.25,42.67835438757192,-1.260000000000025,-8162847.0,-330.75,0.0189638604554004,1.1240921626000333,1.343559439422771,122856.42176728642,4.978013369542511,4.380000000000088,259.62665585772913,1149.75,0.0,0.0,0.0,0.0833554674057533,0.3691375538199069,0.0924000000000018,5.477055479738396,0.100680000000002,5.967856555195472,48.60590360806801,5312329.0,0.0840000000000016,22.05,-2.52000000000005,-16325694.0,0.0,0.0,-466.1825651055361,-42628201.0,0.0078412191335873,2.058320022566633,-3.7801959165821586
0.1200000000000001,129781.0,5.92,0.0034071071693721,0.0274902137380322,3684.814796235723,0.1490609386600314,0.0,0.0,0.0,0.0,0.0,12.864000000000011,103.79306900146996,13912523.2,24.20547318131296,20.583299822538496,131.25,-18.39615961779785,0.0026414109998595,283.5,0.0,0.0,40.665194944605766,220.5,-20.332597472302883,-17.28997185093234,99.12000000000008,799.7488339105801,107199106.0,13.17331188642464,5191240.0,-4542335.0,498.75,47.25,0.0,-2.5200000000000022,-2725401.0,-110.25,0.0868602465009401,0.7008311224002456,0.5959568321294831,93940.08042615416,3.800135784416127,-38.16000000000003,-307.8936188663008,-1669.5,-0.6000000000000005,-18.93663583673542,0.0,0.0683088011430744,0.3703926827982879,0.5688000000000005,4.589357715176937,0.7418400000000007,5.9855294082750685,31.951224599333106,4282773.0,0.5040000000000004,22.05,-13.680000000000012,-14795034.0,0.0,0.0,-51.046583559895474,-8046422.0,0.0392716953371196,1.7181366709989845,-3.5616281489559776
0.0,130466.0,6.03,0.0,0.0386558906364857,3776.2693094226743,0.159194588642441,0.0,0.0,0.0,0.0,0.0,0.0,143.16763725218627,13985955.2,56.09179817716253,74.18278294380983,231.0,-28.045899088581265,0.0,808.5,-75.9490396805672,-236.5,66.77595021090778,275.0,-72.11802622778039,-95.37786378489834,0.0,1152.5529006402685,112592158.0,35.325134735147536,7958426.0,-5218640.0,132.0,71.5,14.69070904639971,0.0,0.0,0.0,0.0,0.8528685180478173,1.127939595627178,83316.18174221851,3.512325047002298,-0.0,-697.1409202018772,-2871.0,-0.0,0.0,0.0,0.2085371777417266,0.8588080543645659,0.0,6.330360079994057,0.0,6.626845298930487,42.736608134980976,4174912.0,0.0,22.55,-0.0,-4435844.0,0.0,0.0,-300.263645248754,-22179220.0,0.0,2.33063388137566,-3.542376089327426
0.4900000000000002,130780.0,6.28,0.01065031424581,0.0320895505089214,2842.547136871505,0.1195443435754188,0.0,0.0,0.0,0.0,0.0,51.64600000000002,155.6101432627451,13784212.0,11.811016566432269,14.716339862025473,44.0,-29.527541416080663,0.0090477770018621,473.0,-57.02581696534871,-170.5,0.0,0.0,-97.4408866730662,-121.40980386171016,427.7700000000002,1288.877182811921,114170940.0,49.66764703433597,6015880.0,-4969640.0,368.5,121.0,0.0,-23.03000000000001,-6146660.0,-258.5,0.3047273866722374,0.9181480133243384,1.143997904983545,81331.11761019427,3.4204094422393982,-275.3800000000001,-829.7239137918667,-3091.0,-18.13000000000001,0.0,0.0,0.2806020044439371,1.0453366250135332,2.5627000000000013,7.721452080305095,3.2854500000000013,9.899108259741045,50.196820407337135,4446520.0,1.9600000000000009,22.0,-53.410000000000025,-14255020.0,-36.79084965506368,-110.0,-371.5875815161432,-26417560.0,0.2337873605604979,2.624143843025996,-3.8288159927357204
0.25,131009.0,6.66,0.0062990072656643,0.0382818219913566,3300.9065714696703,0.1448771671102794,0.0,0.0,0.0,0.0,0.0,28.0,170.16824565369657,14673008.0,135.22298092124103,84.75281222728326,511.75,-165.6101676451154,0.0062090856772894,1592.75,0.0,0.0,77.48732614587969,293.25,-59.255014111555056,-37.13887277375333,218.25,1326.400700497117,114370857.0,56.1844485551653,36027475.0,-20961440.0,580.75,207.0,72.92924813729853,-26.25,-13755945.0,-603.75,0.2120848130353039,1.288932163000354,0.8078554757500941,111140.07708376856,4.877950699811991,-5.0,-30.38718672387439,-115.0,-8.0,0.0,0.0,-0.0889597821765705,-0.3366673935059572,1.37,8.326089162341583,2.429,14.762095310458175,0.0,0.0,1.0,23.0,-65.5,-34324358.0,0.0,0.0,-298.06326097909727,-41005817.0,0.1192754514987058,2.743335384470233,-3.681068873759979
0.2199999999999997,131605.0,6.26,0.0059332497795107,0.0442717561777738,3549.296987420508,0.1618159030775658,0.0,0.0,0.0,0.0,0.0,23.56199999999997,175.81109136226593,14094895.5,47.6052441597172,61.85291559626192,174.0,-95.2104883194344,0.0052132943415494,738.0,-132.237267826491,-372.0,0.0,0.0,0.0,0.0,197.9999999999997,1477.4041290946716,118444500.0,123.70583119252385,6711855.0,-3948150.0,912.0,0.0,0.0,0.0,0.0,0.0,0.1755128472947564,1.3096131580931114,1.7015644717526943,104992.58303739296,4.786714017129727,-31.01999999999996,-231.4599802248319,-846.0,0.0,-63.985774754753706,0.0,0.030446086437203,0.1112822575239744,1.2539999999999982,9.356892817599588,1.1723799999999984,8.747874004383894,0.0,0.0,0.8799999999999988,24.0,-3.959999999999994,-2368890.0,0.0,0.0,-522.5504938304886,-32243225.0,0.109919920253226,2.9978160069061683,-3.613055459926516
0.2599999999999998,132106.0,6.44,0.007210022522522499,0.0246491438105619,3663.4124436936863,0.1802505630630627,0.0,0.0,0.0,0.0,0.0,28.78199999999998,98.39798071912054,14624134.2,16.88854230951482,-7.951994075140911,123.5,-103.1089951528273,0.0046899131274131,838.5,8.789046083050481,-136.5,0.0,0.0,0.0,-0.0,222.81999999999985,761.7621452239051,113214842.0,-6.696416063276557,0.0,-1056848.0,643.5,0.0,22.221766196730023,0.0,0.0,0.0,0.1703822853561728,0.5824915860383713,-0.2742669885953958,86571.2391894715,4.259557133904325,-125.3199999999999,-428.4356522729548,-3133.0,0.0,-0.0,0.0,0.258804899214698,1.8925496627975968,1.5495999999999988,5.297669061300438,2.0240999999999985,6.919857993661729,0.0,0.0,1.0399999999999991,26.0,-9.359999999999992,-4755816.0,9.62609809096005,-149.5,83.28667478700217,-26289094.0,0.0747206416987,1.868016042467502,-3.5852095559340196
-0.2699999999999996,132060.0,6.1,-0.0064543269230769,0.0165050148226815,3156.883012820509,0.1553819444444442,-0.0,0.0,-0.0,0.0,1.889999999999997,-28.727999999999955,73.46328617639281,14051184.0,13.808888379021203,7.140002046323525,130.0,-17.951554892727565,-0.005342548076923,435.5,-58.19101667753674,-1059.5,0.0,0.0,-52.47377584028058,-27.1320077760294,-214.10999999999967,547.5224242281907,104723580.0,5.3550015347426445,10828920.0,-6470940.0,260.0,221.0,11.737555122168024,-0.0,0.0,0.0,-0.2104386881136408,0.5381341397757272,0.2782467895846363,102927.9005640276,5.066116565698768,49.94999999999992,-127.73221750594614,-1202.5,-0.0,0.0,0.0,0.2068964692787077,1.947770180190165,-1.5362999999999978,3.928628743831533,-1.6750799999999972,4.283517175172378,0.0,0.0,-1.0799999999999983,26.0,8.909999999999986,-4357980.0,0.0,0.0,-75.3270215887132,-27864660.0,-0.0712959169256932,1.7163831852481743,-3.733671212316674
0.3999999999999994,132231.0,5.83,0.0112327413609297,-0.0119790261144629,3713.2915572427714,0.1825320471151092,0.0,0.0,-3.5999999999999948,-1190079.0,0.0,42.91999999999994,-45.77153379682138,14188386.3,-0.0,-0.0,0.0,2.986027367919382,0.0087469773005017,227.5,115.72901075247836,-617.5,-0.0,0.0,-0.0,-0.0,339.1999999999995,-361.7358868565194,112131888.0,-0.0,2512389.0,-3570237.0,45.5,0.0,-0.0,-8.399999999999988,-2776851.0,-136.5,0.3027365782327131,-0.3228498956689821,-0.9219843346700584,100077.90119072488,4.919469396281596,-95.59999999999988,101.95150584753318,-1553.5,0.0,25.58220237686364,-0.0,-0.1881351901186228,2.86673566436932,2.4359999999999964,-2.597843810089862,2.015199999999997,-2.1490865542254065,-0.0,0.0,1.6399999999999977,26.65,-35.199999999999946,-11636328.0,-0.0,0.0,124.25641154476624,-13487562.0,-0.0096466999365333,-0.1567588739686664,-3.5726316976464325
-0.0199999999999995,132356.0,5.8,-0.0007124107859513,-0.0080541127261202,4714.592099268923,0.23153350543419257,-0.0,0.0,-0.0,0.0,-0.0,-2.135999999999947,-24.148405838660803,14135620.8,-1.3566520134079103,1.0972440249831132,39.0,-0.0,-0.0004095711217649,123.5,-12.069684274814245,-429.0,-0.0,0.0,10.400998769460646,-8.412204191537201,-18.239999999999544,-206.2111060380024,120708672.0,2.925984066621635,7411936.0,-4235392.0,0.0,0.0,-0.0,0.9199999999999772,-6088376.0,-299.0,-0.0113014414038016,-0.1277676936239954,0.1033369921168206,74790.67892208064,3.672968456235638,13.959999999999653,157.82385089312024,-4537.0,0.359999999999991,-4.388976099932453,-0.0,-0.0937710033135166,2.695657466383433,-0.1213999999999969,-1.3724796202310028,-0.1307599999999967,-1.4782984772768195,-0.0,0.0,-0.077999999999998,25.35,2.039999999999949,-13500312.0,0.0,0.0,-14.99566834143588,-10853192.0,-0.0009443983730052,0.3069294712267107,-3.33483286093293
0.1200000000000001,132553.0,5.72,0.0049891921102404,-0.0501790636304018,5511.103181572545,0.2702479059713589,0.0,0.0,-2.7600000000000025,-3048719.0,0.0,12.912000000000011,-129.86312318298755,14262702.8,-0.0,-0.0,0.0,33.793377779959584,0.0018603080248581,461.5,183.5628986571203,-461.5,-0.0,0.0,115.86300953129,248.1977221279373,105.6000000000001,-1062.0775873701584,116646640.0,-0.0,9808922.0,-1458083.0,0.0,123.5,-0.0,-3.0000000000000027,-3313825.0,-162.5,0.0253937748067683,-0.2553992337215305,-0.5471073839643839,28050.17526634636,1.3754961353666182,-185.28000000000017,1863.4634032949143,-10036.0,0.0,54.293251715486285,-0.0,-0.7086603861582335,3.816611382283453,0.7428000000000007,-7.470750302069637,0.6153600000000006,-6.189015759129741,-0.0,0.0,0.4680000000000004,25.35,-3.8400000000000034,-4241696.0,69.80560934848236,-175.5,144.7820045746301,-7422968.0,-0.0256829006012548,-1.3911571159013028,-3.180217747881539
-0.3000000000000007,132718.0,5.24,-0.0114669468223608,-0.0670206055381378,5072.900827900282,0.2484505144844846,75.90000000000018,-33577654.0,14.700000000000037,-6503182.0,-0.0,-29.52000000000007,-172.5348783887098,13059451.2,-26.301048534864297,-42.865361584560446,97.5,54.35550030538621,-0.0047653277168148,351.0,365.7844188549158,-832.0,-0.0,0.0,91.17696825419624,148.59992015980956,-294.9000000000007,-1723.59538065144,130461794.0,-62.86919699068866,11281030.0,-1592616.0,435.5,0.0,-0.0,8.10000000000002,-3583386.0,-175.5,0.3000000000000007,1.7534032356576197,2.85769077230403,-132718.0,-6.5,1333.2000000000032,7792.123979262462,-28886.0,-0.0,60.01150621838463,-0.0,-0.5727153789037687,2.123099745209666,-1.767000000000004,-10.32754505802338,-1.732800000000004,-10.127657089158411,-0.0,0.0,-1.1700000000000028,25.35,45.900000000000105,-20305854.0,-0.0,0.0,62.86919699068866,-2919796.0,0.1159830588014337,-2.512966274031057,-3.2643137670607882
-0.8499999999999996,132698.0,5.16,-0.0370858045956599,-0.1279972002002082,5789.661292041049,0.2399669709130941,302.59999999999985,-47240488.0,117.29999999999995,-18312324.0,74.79999999999997,-80.49499999999996,-277.8188242765399,12566500.6,-143.7499724345349,-164.53881545790588,269.5,178.9540473164618,-0.0167542706964519,588.5,265.27686573825645,-434.5,-0.0,0.0,249.36219708031564,285.4244757943265,-795.5999999999997,-2745.917840790299,124205328.0,-0.0,21098982.0,-19639304.0,946.0,0.0,-143.7499724345349,67.99999999999997,-10615840.0,-440.0,-0.2498328807186128,-0.8622681804691731,-0.9869677372359392,39002.7336536453,1.6165656987674957,1144.9499999999996,3951.657405496296,-7408.5,32.29999999999998,-0.0,-0.0,-1.3728595387125806,2.573813680914168,-4.283999999999998,-14.785711450409304,-5.544549999999997,-19.136348371234103,-0.0,0.0,-3.5699999999999985,23.1,583.9499999999997,-91163526.0,-0.0,0.0,-0.0,0.0,0.6203225983655378,-4.013852107071129,-3.1320020785446774
-0.6299999999999999,132753.0,4.89,-0.0332066015726259,-0.18734864482995647,6997.263458048901,0.2635444569256024,303.03,-63854193.0,57.96,-12213276.0,15.749999999999996,-57.64499999999999,-325.2278799925634,12146899.5,-0.0,-0.0,0.0,74.64246426058831,-0.0181819752873066,635.0,40.02825058591496,-45.0,-0.0,0.0,60.42485202047625,75.60891777339492,-591.5699999999999,-3337.5844733663057,124655067.0,-0.0,0.0,-1858542.0,630.0,115.0,-124.40410710098053,-0.0,0.0,0.0,-0.176484228117819,-0.9957080642359656,-1.2459179731149632,37188.58846876959,1.4006684771255484,869.3999999999999,4905.07622283866,-6900.0,9.45,88.9516679686999,-0.0,-4.836166903471214,6.8030648491410775,-2.7783,-15.674917494723546,-3.3364799999999994,-18.824118605908367,-0.0,0.0,-2.709,21.5,120.95999999999998,-25488576.0,-0.0,0.0,-0.0,0.0,0.5272632416723554,-4.184628902161551,-2.9429711206807214
-0.75,132412.0,5.39,-0.0344896396689906,-0.1774057822759681,6089.122890467191,0.1839447449012836,404.25,-71370068.0,72.75,-12843964.0,-0.0,-69.0,-354.9181462758966,12181904.0,-61.72489500450376,-60.28639048903104,64.0,208.3215206402002,-0.0148563237114745,456.0,75.3579881112888,-80.0,-208.3215206402002,216.0,-0.0,-0.0,-663.75,-3414.158254936614,117184620.0,-0.0,19994212.0,-5561304.0,504.0,0.0,-119.59198407122604,39.75,-7017836.0,-212.0,-0.138970127428452,-0.7148263770236427,-0.6981672807051722,24535.083350741595,0.7411740129517445,1205.25,6199.494142014846,-6428.0,-0.0,-0.0,-0.0,-5.286156647900563,5.480997990210448,-2.745,-14.119569732280237,-4.06425,-20.905450376837862,-192.89029688907425,6620600.0,-3.225,17.2,189.0,-33367824.0,162.01967443927091,-172.0,-0.0,0.0,0.6178485168237021,-3.2951920897264118,-3.0794142270414966
-0.29,132296.0,5.28,-0.0166494044536509,-0.2508064738646982,7595.343488276572,0.2152940231075553,67.86,-30957264.0,22.33,-10186792.0,-0.0,-26.854,-404.5284062809641,12250609.6,-69.89691685200245,-78.24302569201639,60.0,26.21134381950092,-0.0058311755567063,168.75,185.82718601853887,-142.5,-0.0,0.0,52.42268763900184,58.682269269012295,-255.78,-3853.067541466635,116685072.0,-112.47434943227356,9789904.0,-5027248.0,378.75,0.0,-0.0,7.539999999999999,-3439696.0,-97.5,0.0046647169417171,0.0702692526321828,0.0786598205855078,-2128.011698349682,-0.0603196156256523,605.81,9125.91620648957,-7833.75,7.249999999999999,-0.0,109.21393258125384,-5.677843839090606,4.873900676717426,-0.9773,-14.722038111953015,-1.56716,-23.607683666763823,-275.21911010475964,8334648.0,-1.305,16.875,77.14,-35190736.0,117.3645385380246,-90.0,-0.0,0.0,0.2588915818696304,-3.347735972452118,-2.857506475743269
-0.0500000000000002,132024.0,4.97,-0.0028852100280670995,-0.2448900843412593,7618.339374910801,0.20196470196470193,21.900000000000087,-57826512.0,4.050000000000016,-10693944.0,2.2000000000000086,-4.575000000000018,-388.3156251927385,12080196.0,-93.36550551082236,-89.61856928352687,77.0,118.8288251955921,-0.0007694686266114,164.5,191.45785256026195,-164.5,-0.0,0.0,72.14607244018092,69.25071262817985,-43.30000000000017,-3675.2058078350983,114332784.0,-101.83928327673507,3564648.0,-13334424.0,392.0,21.0,-0.0,1.3500000000000054,-3564648.0,-94.5,-0.0056716106120743,-0.481393447142607,-0.4620742078067025,14975.77438897012,0.3970127428452056,88.95000000000034,7549.874286534226,-6226.5,0.6500000000000026,97.76571194566569,110.34105196733552,-3.804496688350593,3.1376282214745688,-0.1660000000000006,-14.08970355890592,-0.252900000000001,-21.465578494260885,-101.85327873907896,3168576.0,-0.245000000000001,17.150000000000002,10.20000000000004,-26932896.0,171.08999590491493,-147.0,-0.0,0.0,0.045079954041581,-3.1555967829106613,-2.8524253080945936
-0.9899999999999998,131765.0,4.73,-0.04855239786856111,-0.2378226708424729,6462.127985000976,0.12260706532464952,134.63999999999996,-17920040.0,17.819999999999997,-2371770.0,17.819999999999997,-80.98199999999999,-396.6715625931221,10778377.0,-0.0,-0.0,0.0,155.1771394007324,-0.022019538188277,0.0,61.42506020198057,-27.5,-0.0,0.0,-0.0,-0.0,-844.4699999999998,-4136.4406221507725,112395545.0,-106.09783125796643,1976475.0,-3952950.0,47.5,0.0,-0.0,19.8,-2635300.0,-50.0,-0.2864320033423856,-1.4030207989738772,-1.6156201146997191,38122.94234384793,0.7233131397534992,1344.4199999999996,6585.329853318581,-3395.0,-0.0,117.2660240219629,-0.0,-2.797475151196567,1.4422099347880435,-2.3067,-11.298835462615829,-6.275609999999999,-30.739621458163832,-198.8207098571884,5402365.0,-4.949999999999999,12.5,259.37999999999994,-34522430.0,-0.0,0.0,67.00915658397881,-1581180.0,1.1468001187887984,-2.89595989593131,-3.015061359939228
-0.31,131142.0,4.65,-0.0167046232343973,-0.2491431209482347,7066.702258726898,0.1077717628025636,79.98,-33834636.0,-0.0,0.0,18.29,-26.009,-387.9143720763129,11002813.8,-32.36472711006186,-29.49050733871212,14.0,-0.0,-0.0069827639848173,12.0,80.04566277650433,-38.0,-212.68249243754937,92.0,-0.0,-0.0,-286.44,-4272.1439785281655,121175208.0,-96.8973812557684,8786514.0,-917994.0,40.0,18.0,-41.611791998650965,-0.0,0.0,0.0,-0.0697451430958847,-1.0402223610831904,-0.9478431586676104,29504.89534155004,0.44996866513474,468.72,6990.781055773362,-3024.0,-0.0,88.47152201613636,-0.0,-6.404684362604563,2.7704723346358078,-0.6262,-9.339535537474994,-1.57728,-23.52453307657068,-198.8118951046657,5639106.0,-1.705,11.0,92.38,-39080316.0,-0.0,0.0,-0.0,0.0,0.3358305614613304,-2.1666487836214863,-2.920886775986635
-0.3,130985.0,5.09,-0.0107927783906618,-0.1517904273148501,4712.306925002804,0.0629578739455274,65.39999999999999,-28554730.0,25.2,-11002740.0,24.3,-26.64,-374.66691497773246,11631468.0,-0.0,-0.0,0.0,105.48055038787514,-0.0065418585140607,43.75,-0.0,0.0,-0.0,0.0,172.98810263611523,117.28624183396138,-293.7,-4130.61835318919,128234315.0,-137.31072214707677,6156295.0,-3536595.0,122.5,29.75,-0.0,9.3,-4060535.0,-54.25,0.0118445790683099,0.1665830292317388,0.1129435906526244,-5171.540630875271,-0.0690933778984748,643.5,9050.231223279688,-3753.75,-0.0,60.07344093934607,-0.0,-6.081203881387549,2.522291254950521,-0.516,-7.2570618666858095,-1.5761999999999998,-22.16779246951584,-84.3844403103001,2619700.0,-1.71,9.975,65.39999999999999,-28554730.0,117.28624183396138,-71.75,88.67984138665372,-4060535.0,0.2731069949934926,-1.5931241374620408,-3.3249052317151793
-0.03,130852.0,5.04,-0.0009858176555716,-0.0927015248385973,4299.873728895319,0.0575060299083453,7.47,-32582148.0,2.49,-10860716.0,2.52,-2.79,-262.3581073415788,12169236.0,-0.0,-0.0,0.0,268.0002171768816,-0.0008520984081041,75.25,61.142183889924375,-77.0,-403.410853224148,250.25,330.063425365212,162.58262534366256,-26.4,-2482.5283275332185,115149760.0,-0.0,30226812.0,-45013088.0,644.0,85.75,-95.91586720014708,-0.0,0.0,0.0,-0.0228055149362857,-2.144520335352703,-1.056347718135456,99471.57468142889,1.3303217046166702,6.93,651.6636859774699,-404.25,-0.0,-0.0,146.694855717872,-3.398596029425808,2.108269149345974,-0.0506999999999999,-4.76758281083084,-0.19809,-18.62742562125209,-208.75806390620247,9683048.0,-0.1709999999999999,9.975,15.54,-67781336.0,73.64853968559073,-92.75,-0.0,0.0,0.01307492656137,-0.7627040494132536,-3.4154812566412924
0.1300000000000001,130721.0,5.28,0.0043221443501782,-0.0487073788170363,4346.115627689651,0.05818271240624601,-1.8200000000000007,-1830094.0,-1.560000000000001,-1568652.0,0.0,12.44100000000001,-140.20089353048903,12509999.7,-38.09010691528437,-3.764207284261544,45.5,-0.0,0.0025926472396409,178.5,3.0403212680574008,-36.75,-128.92036186711633,154.0,-0.0,-0.0,119.99000000000008,-1352.198795492595,120655483.0,-8.976186600931372,12287774.0,-9150470.0,446.25,57.75,-35.16009869103173,0.0,0.0,0.0,0.081986630457489,-0.923928851996943,-0.0913061158521122,82441.34092333404,1.1036661792354292,-70.33000000000004,792.5672246603402,-946.75,-3.5100000000000025,-0.0,-0.0,0.089974642863139,-0.1074779406468426,0.2366000000000001,-2.666307484069906,0.7144800000000006,-8.051662600246265,-0.0,0.0,0.7410000000000005,9.975,-15.470000000000011,-15555799.0,3.0403212680574008,-36.75,4.632870503706515,-4183072.0,-0.0231232705617973,-0.3112747960241953,-3.4037827939979683
-0.08,130633.0,5.16,-0.0030057067696289,-0.014487891468608498,4908.056155461736,0.0657498355856333,1.44,-2351394.0,1.28,-2090128.0,0.96,-7.752000000000001,-37.36563253591035,12658337.7,-2.3136614573319103,2.2652493778934737,10.5,-0.0,-0.0024227252476822,180.25,-14.72412095630758,-68.25,-0.0,0.0,-0.0,0.0,-78.24,-377.12681754510135,127759074.0,0.0,3396458.0,-1828862.0,210.0,22.75,-0.0,1.84,-3004559.0,-40.25,-0.0455734280342594,-0.2196697581694909,0.215073290631415,74417.42030499269,0.9969187382494256,54.96,264.9142368645037,-1202.25,-0.0,0.0,-0.0,0.2160262950851447,-0.9803837511343476,-0.1392,-0.6709618226262539,-0.4344,-2.0938636188853788,-0.0,0.0,-0.4639999999999999,10.15,15.44,-25212169.0,0.0,0.0,-10.948705326485122,-3788357.0,0.004494623388425,-0.0983198866217972,-3.281513896461545
-0.05,130683.0,4.93,-0.0021031926161295,0.0035492651080344,5497.030413073081,0.0736117415645331,-0.0,0.0,1.4500000000000002,-3789807.0,-0.0,-4.62,7.796530224271764,12075109.2,8.100291142100534,1.9554948911255716,168.0,-3.543877374668984,-0.0010830219863356,311.5,0.0,0.0,7.172132782068181,148.75,-4.978303931082619,-1.2018145685042574,-47.85,80.7497773228147,125063631.0,1.9962343680240209,4965954.0,-17380839.0,693.0,57.75,0.0,-0.0,0.0,0.0,-0.0062147482765824,0.0104877646698302,0.002531855938435,16243.238980572394,0.2175161896803845,87.65,-147.91469137606495,-3067.75,-0.0,-1.7925369835317737,-3.965767538320053,-0.0346367324265145,-0.7183656668105264,-0.0845,0.1425988753140614,-0.29355,0.4953834301590858,3.628255407399197,5619369.0,-0.29,10.15,14.5,-37898070.0,0.0,0.0,-1.772167245082549,-11369421.0,0.0038190099987719,-0.1336653499570189,-3.168566521779816
-0.0999999999999998,130587.0,4.26,-0.004151176627953,-0.0096401863843026,5420.897023145115,0.0726455909891792,9.59999999999998,-12536352.0,2.7999999999999945,-3656436.0,-0.0,-8.759999999999982,-20.343155759221748,11439421.2,-0.0,-0.0,0.0,8.360200996940444,-0.0019879523629419,187.25,-0.0,0.0,-15.094807355586914,113.75,-0.0,-0.0,-101.3999999999998,-235.47899474715584,132415218.0,-41.59459927804062,18412767.0,-6398763.0,197.75,0.0,-0.0,7.199999999999985,-9402264.0,-126.0,0.0123041570921244,0.0285736739966919,0.134680653605521,-16067.62962189262,-0.2153227491121787,234.49999999999952,544.5742038284817,-4103.75,-0.0,-0.0,8.82465660788158,0.0521375930737268,-0.3928934680932758,-0.1589999999999997,-0.3692422106982029,-0.507999999999999,-1.179717251790485,-0.0,0.0,-0.5699999999999988,9.975,24.89999999999995,-32516163.0,-0.0,0.0,-0.0,0.0,0.0185892425777572,-0.3253117451107516,-3.1817783671230715
0.03,130498.0,3.87,0.0011506950197919,-0.0410053850389411,5005.4466230936805,0.0671238761545306,-12.84,-55853144.0,-1.14,-4958924.0,0.0,2.583,-92.04603108018556,11235877.8,-0.0,-0.0,0.0,228.77875320742984,0.0008749884930498,220.5,-0.0,0.0,-41.69332418266245,68.25,73.76511201547972,147.17381246825667,31.32,-1116.098216582041,136239912.0,-0.0,17225736.0,-11875318.0,292.25,0.0,-0.0,-1.47,-6394402.0,-85.75,0.018193022770002,-0.6483141847968007,-1.293495904049764,79138.43618132443,1.0612596615834553,-17.97,640.3666970619181,-1048.25,-1.17,85.31815215551111,42.762383777089696,0.0092114705500292,-0.0150787416778085,0.0486,-1.7318765429721326,0.16806,-5.988871847981412,-0.0,0.0,0.1709999999999999,9.975,-3.96,-17225736.0,113.04655160605222,-92.75,-0.0,0.0,-0.0113595118932919,-0.6626381937753634,-3.2608312568055142
-0.2100000000000002,130618.0,4.05,-0.0085426072234763,-0.0523063115282389,5313.420334838224,0.0508488525206922,7.770000000000007,-4832866.0,10.920000000000009,-6792136.0,4.6200000000000045,-17.682000000000016,-108.26673593286829,10998035.6,-48.86147227374103,-23.93757299544696,47.5,128.5828217730027,-0.005428423626787,213.75,23.30763686398783,-46.25,-74.57803662834156,72.5,39.86067474963084,19.528020075233044,-215.0400000000002,-1316.6880949555475,133752832.0,-38.42610401900696,11233148.0,-7967698.0,153.75,0.0,-0.0,-0.0,0.0,0.0,-0.0969062043033216,-0.5933558665062941,-0.2906891402534404,60274.73616043452,0.576822644662628,198.66000000000017,1216.3934939726057,-1182.5,-0.0,39.68597628192522,-0.0,-0.4092753093135365,0.3978712938382062,-0.2961000000000002,-1.813017786999338,-1.062390000000001,-6.505004953496207,-38.57484653190081,3918540.0,-1.2390000000000012,7.375,35.49000000000003,-22074442.0,-0.0,0.0,22.6777007325287,-4702248.0,0.0778947272160869,-0.4636590905719454,-3.2020412740211475
-0.2099999999999999,130470.0,4.03,-0.008703057140424,-0.0698889799702924,5407.085071957751,0.0518039115501432,32.33999999999999,-20092380.0,-0.0,0.0,-0.0,-18.206999999999997,-146.20938801018983,11311749.0,-0.0,-0.0,0.0,57.33701490595679,-0.005740441113855,146.25,-0.0,0.0,-57.33701490595679,42.5,-0.0,-0.0,-220.0799999999999,-1767.329165336551,136732560.0,-158.44183227085918,3392220.0,-3000810.0,48.75,33.75,-0.0,8.819999999999997,-5479740.0,-52.5,-0.1363003969082932,-1.0945459228597534,-1.4903854123806306,84681.48945059536,0.8113118863588886,104.36999999999996,838.1322473017802,-621.25,14.489999999999991,-0.0,67.45531165406682,-0.4360777175090817,0.323234528768789,-0.2519999999999999,-2.023659349622005,-1.0189199999999996,-8.182329303638305,-0.0,0.0,-1.2599999999999991,7.5,44.09999999999998,-27398700.0,-0.0,0.0,-0.0,0.0,0.0927433927416828,-0.5520440044147791,-3.183433171330811
-0.06,130579.0,4.05,-0.0019296612920679,-0.0331989871506444,4199.554030949023,0.0402012769180823,0.8999999999999999,-1958685.0,1.14,-2481001.0,-0.0,-4.944,-85.05937966806972,10759709.6,-18.5809324517628,-3.0712950922781825,22.5,37.1618649035256,-0.0012777837896331,36.25,2.218157566645354,-16.25,-35.09731685332974,42.5,-0.0,-0.0,-59.94,-1031.2417510728355,130448421.0,-4.265687628164142,8226477.0,-1566948.0,86.25,0.0,-0.0,2.22,-4831423.0,-46.25,-0.0136494673072905,-0.2348331759623249,-0.0388162425491602,29705.56319197827,0.2843639022352203,90.36,1554.6046817974875,-1882.5,1.86,6.825100205062627,19.613206476860736,-0.0479889672962469,0.0581107415878431,-0.0683999999999999,-1.176792388611644,-0.34062,-5.860219640480968,-0.0,0.0,-0.348,7.25,5.04,-10968636.0,1.0237650307593942,-7.5,2.559412576898485,-1958685.0,0.0145870155424962,-0.3038961571353376,-3.4370000710444386
-0.0399999999999998,130233.0,3.81,-0.0009638554216867,-0.0297870053753052,3138.144578313243,0.0301204819277107,3.95999999999998,-12893067.0,1.5199999999999925,-4948854.0,-0.0,-3.103999999999984,-95.92607211063338,10106080.8,-50.68258964608207,-50.905445241024765,51.25,201.49419786125316,-0.0006927710843373,267.5,-0.0,0.0,-55.62723253838276,56.25,49.446428923006906,49.66384901563392,-39.9599999999998,-1234.9245623520974,130102767.0,-69.52938862188748,28130328.0,-23181474.0,257.5,46.25,-0.0,-0.0,0.0,0.0,-0.0338165865886775,-1.0450684032348492,-1.049663656602624,110100.88803008146,1.056768330896177,1.0799999999999943,33.37633952302966,-33.75,5.279999999999974,175.06506778010956,66.75267904605931,-0.4884697077884448,0.4939383069999267,-0.0439999999999997,-1.3597767953826898,-0.2099999999999989,-6.489843796144656,-0.0,0.0,-0.2359999999999988,7.375,17.95999999999991,-58474617.0,57.113426367979,-57.5,-0.0,0.0,0.0118297075435195,-0.3696783607349863,-3.7256934272366555
-0.02,130197.0,3.57,-0.000854720591146,-0.0275574723404941,5564.102840271814,0.0534200369466252,0.06,-390591.0,-0.0,0.0,-0.0,-1.842,-59.3888395541406,11991143.7,-1.2896599251713483,-1.0445323144792178,2.5,3.868979775514045,-0.0005162631127531,1.25,0.5222661572396089,-1.25,-2.579319850342697,5.0,1.2896599251713483,1.0445323144792178,-21.56,-695.1266996673569,140352366.0,-0.0,390591.0,-260394.0,1.25,1.25,-0.0,-0.0,0.0,0.0,-0.0085606851890536,-0.2760093155082613,-0.2235478078512552,55728.77647796115,0.5350428243158555,20.52,661.5955416129018,-1282.5,0.02,0.5222661572396089,0.6448299625856743,-0.8216003077943654,1.592668524001017,-0.0216,-0.6964163595925282,-0.13348,-4.303595170296791,-1.2896599251713483,260394.0,-0.122,7.625,0.28,-1822758.0,0.5222661572396089,-1.25,-0.0,0.0,0.0004249561115547,-0.0265597569721732,-3.152712930989439
-0.27,130192.0,3.33,-0.005591525827184,-0.0077036676687283,2696.192335158294,0.0207093549154963,71.55000000000001,-34500880.0,14.580000000000002,-7030368.0,-0.0,-24.219,-33.36748018973105,11678222.4,-0.0,0.0,0.0,9.67173338832784,-0.0061699595334444,69.0,0.0,0.0,-20.087446268065516,54.0,-0.0,0.0,-322.11,-443.7837666259658,155319056.0,14.253649201345535,4035952.0,-7030368.0,83.0,0.0,-0.0,-0.0,0.0,0.0,-0.2414602047211197,-0.3326693338965426,0.5794089316801209,116430.32212241487,0.8942970545226656,-24.3,-33.47907711344252,90.0,6.48,-47.94409276816226,9.67173338832784,-0.436965754415331,1.1746715049558294,-0.2187,-0.3013116940209827,-1.84599,-2.5432938913845167,-0.0,0.0,-1.701,6.3,65.88000000000001,-31766848.0,0.0,0.0,0.0,0.0,-0.0459839038095982,0.1703107548503639,-3.877169752514799
0.12,130153.0,4.45,0.0029096576064536,0.0050960539212666,3155.8388871063776,0.0242471467204473,-3.24,-3514131.0,0.0,0.0,0.0,10.716,18.768295520122027,11622662.9,1.8915415417816157,4.543981730859972,9.0,0.0,0.003165421460329,102.0,0.0,0.0,7.7763374495466415,37.0,0.0,0.0,144.72,253.46656659873648,156964518.0,0.0,2603060.0,-780918.0,0.0,0.0,5.464453342924667,0.0,0.0,0.0,0.1074660538959682,0.1882189863662648,0.4521516533249007,116558.5776060163,0.8955504491330688,11.16,19.54592926507669,93.0,0.0,0.0,0.0,0.1161288274472319,0.5525437448445709,0.1116,0.1954592926507669,0.68604,1.201549221596166,5.674624625344846,3514131.0,0.732,6.1,-9.72,-10542393.0,0.0,0.0,0.0,0.0,0.042918604410728,0.3576550367560673,-3.719456329533727
0.0099999999999998,130252.0,4.27,0.0002174836887233,0.0244578034581957,2832.7685423593134,0.0217483688723345,0.0,0.0,0.0,0.0,0.0,0.8769999999999826,98.62575790740344,11423100.4,33.73743143924862,66.62889418274143,30.0,-50.60614715887292,0.0003032272579556,70.0,-57.74504162504257,-26.0,40.484917727098335,36.0,0.0,0.0,11.309999999999777,1271.9011652596728,147315012.0,0.0,5861340.0,-651260.0,183.0,0.0,4.498324191899815,0.0,0.0,0.0,0.0099999999999998,1.1245810479749538,2.2209631394247142,130252.0,1.0,3.429999999999932,385.7312994554092,343.0,-0.4399999999999912,-99.94334127411214,0.0,0.0794579036189092,0.0706555599189494,0.0093999999999998,1.0571061850964565,0.0580299999999988,6.525943821398657,0.0,0.0,0.0609999999999987,6.1,-0.449999999999991,-5861340.0,-57.74504162504257,-26.0,0.0,0.0,0.0050916875784228,0.5091687578422935,-3.828216518635088
0.0,130439.0,4.29,0.0,0.0483066500925209,4178.6686693137535,0.0320354239860299,0.0,0.0,-0.0,-3391414.0,-0.0,0.0,135.1090545946063,11687334.4,85.95107267737235,102.47976812279516,57.0,-40.71366600507111,0.0,31.0,0.0,0.0,55.792801562504856,37.0,-7.539567778716872,-8.989453344104838,0.0,1725.0531077704204,149222216.0,0.0,1043512.0,-652195.0,55.0,0.0,0.0,0.0,0.0,0.0,0.0,1.0486409498787743,1.250298315543138,90710.55588050972,0.6954251096720284,-0.0,-582.0546325169425,-386.0,0.0,0.0,0.0,0.1090172691846903,0.072296763146311,0.0,1.417438742398772,0.0,7.955751920102044,0.0,0.0,0.0,6.0,-0.0,-4956682.0,0.0,0.0,0.0,0.0,0.0,0.5138549112163583,-3.440912988891178
-0.0299999999999999,130595.0,4.27,-0.0004948253557567,0.0299158016894185,2154.057244501929,0.0164941785252263,1.3199999999999956,-5746180.0,1.4099999999999953,-6137965.0,0.3299999999999989,-2.7779999999999903,167.9503609230004,12093097.0,128.77403483297007,100.98348411346676,71.0,-48.97040761253791,-0.00051617076326,40.0,0.0,0.0,97.94081522507582,54.0,0.0,0.0,-33.869999999999884,2047.6885257242704,147441755.0,0.0,3134280.0,-10447600.0,48.0,0.0,0.0,-0.0,0.0,0.0,-0.0258387298934613,1.5621396729297234,1.2250164177035323,112480.29768121998,0.8612909964487153,-0.3299999999999989,19.95090680510804,11.0,-0.0,-59.73670891219162,0.0,-1.593300900143518,-0.8784718445525208,-0.0272999999999999,1.650484108422574,-0.1595099999999994,9.64354286206904,59.852720415324114,4309635.0,-0.1709999999999994,5.7,2.519999999999992,-10969980.0,0.0,0.0,0.0,0.0,-0.0138994773739657,0.463315912465525,-4.104747776982992
-0.03,130765.0,4.15,-0.0009578710124826,0.0489733287826656,4175.200098243167,0.031929033749422,-0.0,0.0,0.09,-392295.0,-0.0,-3.114,159.2103152113933,13573407.0,4.601454196861077,4.14378280467807,3.0,-9.202908393722154,-0.0006579403606102,18.0,-4.14378280467807,-3.0,13.804362590583231,9.0,-4.601454196861077,-4.14378280467807,-34.95,1786.8980464477183,152341225.0,0.0,1176885.0,-1961475.0,21.0,3.0,4.601454196861077,-0.0,0.0,0.0,-0.0213641111343221,1.0922886537914778,0.9836470706181702,93122.59974932107,0.7121370378107374,10.38,-530.7010507046442,-346.0,0.09,-4.14378280467807,0.0,-1.903441939115686,-1.2409828660779472,-0.0264,1.349759897745916,-0.1704899999999999,8.7166880669205,0.0,0.0,-0.1709999999999999,5.7,0.8999999999999999,-3922950.0,0.0,0.0,-8.28756560935614,-784590.0,-0.0075486226960945,0.2516207565364851,-3.4442395342409897
0.0699999999999999,131139.0,3.83,0.0012962962962962,0.038175490048736,2428.4999999999977,0.0185185185185185,-1.4699999999999978,-2753919.0,0.0,0.0,0.0,6.70599999999999,197.4894451201214,12563116.2,30.92214693947621,50.712987897827,15.0,-49.47543510316194,0.0015197956577266,82.0,-77.75991477666807,-23.0,30.92214693947621,15.0,0.0,0.0,89.31999999999987,2630.4439663181097,167333364.0,0.0,8655174.0,-393417.0,7.0,13.0,18.55328816368573,-1.1899999999999982,-2229363.0,-17.0,0.0602611238771672,1.774669835493092,2.9104968056116576,112894.05034468352,0.8608731982452476,0.699999999999999,20.614764626317477,10.0,0.0,-57.47471961753727,-39.1680527900032,-2.6421519088258667,-1.281679396646038,0.0664999999999998,1.95840263950016,0.3849999999999994,11.338120544474611,0.0,0.0,0.4059999999999993,5.8,-7.139999999999989,-13376178.0,0.0,0.0,-199.4710857314529,-7737201.0,0.0191908224106698,0.2741546058667127,-3.9889840465642754
0.0,131410.0,4.35,0.0,0.044174743086844,2704.456815114701,0.0205802968960863,0.0,0.0,-0.0,-131410.0,0.0,0.0,202.19634438665688,12378822.0,2.146458008350922,1.6772472303049426,1.0,0.0,0.0,7.0,0.0,0.0,4.292916016701844,2.0,-4.292916016701844,-3.354494460609885,0.0,2545.6991979041936,155852260.0,0.0,394230.0,-131410.0,7.0,0.0,0.0,0.0,0.0,0.0,0.0,1.8505185294473063,1.4459994400393772,113292.05556716106,0.8621265928556507,0.0,27.903954108561987,13.0,0.0,-5.031741690914828,0.0,-2.595228435308208,-1.2090748690220434,0.0,2.039135107933376,0.0,13.007535530606589,4.292916016701844,262820.0,0.0,5.6,-0.0,-788460.0,-1.6772472303049426,-1.0,-5.031741690914828,-394230.0,0.0,0.2667097066852122,-3.8834211222426696
0.33,131789.0,4.73,0.0104251495324478,0.0677577192908711,4163.394035550812,0.0394892027744236,0.0,0.0,0.0,0.0,-0.33,31.548,205.04459159412053,12599028.4,6.434453711112569,4.12902186285748,3.75,-6.434453711112569,0.0088405268035157,10.0,-4.12902186285748,-3.75,2.14481790370419,1.25,0.0,0.0,389.4,2530.885126370944,155511020.0,0.0,395367.0,-395367.0,7.5,1.25,0.0,-0.33,-131789.0,-1.25,0.2591330687278045,1.684221955300616,1.0807738446125803,103487.53937748069,0.9815646542719868,-56.43,-366.7638615334165,-213.75,0.0,-1.376340620952493,0.0,-2.564319136280324,-1.4944853429349632,0.4224,2.745366916741363,1.84668,12.002400989128647,2.14481790370419,131789.0,1.848,7.0,-1.98,-790734.0,0.0,0.0,-4.12902186285748,-395367.0,0.0893285040567883,0.3383655456696528,-3.4548715432384496
0.1699999999999999,131936.0,4.28,0.0038719381177480996,0.0374549522795463,3004.988397077775,0.0341641598624838,0.0,0.0,0.0,0.0,-2.5499999999999985,16.30299999999999,157.70605532522634,12652662.4,42.75659477013436,48.87650017770974,39.0,-37.82314152742654,0.0037988826815642,82.5,-178.58721218778558,-142.5,0.0,0.0,-124.9808154819312,-142.86976975022847,199.7499999999999,1932.2691867272256,155024800.0,0.0,6728736.0,-6464864.0,34.5,10.5,24.66726621353905,0.0,0.0,0.0,0.1455671610612073,1.4081348681748704,1.6096862835920378,112973.81742218508,1.2844161270106538,-0.1699999999999999,-1.6444844142359367,-1.5,0.0,-67.67515409221348,0.0,-1.2957064930161064,-1.181865709823209,0.2464999999999998,2.3845024006421083,0.8078399999999994,7.814589936449171,0.0,0.0,0.9179999999999996,8.100000000000001,-15.979999999999992,-12401984.0,0.0,0.0,-161.66842366473222,-11346496.0,0.0291684872172139,0.2573690048577703,-3.7820432497501724
0.1899999999999999,132082.0,4.13,0.0040533333333333,0.0365654553975193,2817.749333333329,0.0373333333333332,0.0,0.0,0.0,0.0,0.0,17.89799999999999,161.45933898967155,12442124.4,1.7140057217587212,1.885811152873296,1.75,-1.7140057217587212,0.0037638095238095,7.0,-1.885811152873296,-1.75,0.0,0.0,-1.7140057217587212,-1.885811152873296,230.65999999999983,2080.802946215088,160347548.0,1.885811152873296,660410.0,-264164.0,3.5,1.75,0.0,0.0,0.0,0.0,0.1624545644453728,1.4655160683431057,1.6124138392960938,112933.28305828286,1.496292040944224,-0.7599999999999996,-6.856022887034885,-7.0,0.0,0.0,0.0,-1.253068990099769,-1.279383554463585,0.3115999999999998,2.8109693836843026,1.0474699999999997,9.44931354405583,0.0,0.0,1.0259999999999996,9.45,-1.3299999999999992,-924574.0,-3.771622305746592,-3.5,-9.42905576436648,-660410.0,0.0454362423063077,0.4184917054528346,-3.847484484290576
0.3500000000000001,132509.0,4.19,0.0071851559415712,0.0403672294490352,2720.279510461892,0.0410580339518356,0.0,0.0,0.0,0.0,0.0,32.480000000000004,182.47726607001803,12296835.2,1.966349849892436,2.133373005353635,2.0,-1.966349849892436,0.0085669166995657,4.0,-6.400119016060906,-6.0,0.0,0.0,0.0,0.0,412.6500000000001,2318.3264730231817,156228111.0,4.26674601070727,0.0,-397527.0,0.0,2.0,3.9326996997848713,-0.3500000000000001,-132509.0,-2.0,0.3013056193858367,1.6927778841459635,1.8365636421688596,114073.4466262795,1.721746396490495,3.500000000000001,19.663498498924355,20.0,0.0,0.0,0.0,-1.6760115924934798,-1.704693183245252,0.6965000000000001,3.913036201285947,1.7087000000000003,9.59971996717487,0.0,0.0,1.8900000000000008,10.8,-3.150000000000001,-1192581.0,-2.133373005353635,-2.0,-2.133373005353635,-132509.0,0.121592359552773,0.6948134831587032,-3.885915931420252
0.2100000000000002,132633.0,4.23,0.0028281214334626,0.0323237150668267,1786.201095640257,0.0303013010728143,0.0,0.0,0.0,0.0,0.0,20.391000000000016,233.0567797156669,12878664.3,2.40017280860625,3.1813342675918186,2.25,-2.40017280860625,0.0037388724035608,9.0,-3.1813342675918186,-2.25,4.8003456172125,4.5,0.0,0.0,260.8200000000002,2981.0146282889623,164730186.0,3.1813342675918186,663165.0,-397899.0,0.0,2.25,0.0,0.0,0.0,0.0,0.1815730102360561,2.075269533073171,2.7506878073036427,114678.91936494672,1.9454251096720283,3.990000000000004,45.60328336351875,42.75,-0.2100000000000002,-3.1813342675918186,0.0,-1.6682958349810713,-1.5639147378255305,0.4620000000000004,5.280380178933751,1.050630000000001,12.008064561457068,0.0,0.0,1.134000000000001,12.15,-1.050000000000001,-663165.0,0.0,0.0,-12.725337070367274,-530532.0,0.1017677983410098,1.0903692679393902,-4.3074948439081835
0.2099999999999999,132778.0,4.22,0.0033846153846153,0.0413529062010047,2140.0117216117196,0.0402930402930402,0.0,0.0,0.0,0.0,0.0,20.054999999999996,245.03006682261284,12680299.0,0.0,0.0,0.0,0.0,0.0043846153846153,15.0,-4.765144626210424,-5.0,0.0,0.0,0.0,0.0,252.62999999999988,3086.6091140063168,159731934.0,2.382572313105212,398334.0,-663890.0,10.0,0.0,0.0,0.0,0.0,0.0,0.1810465844996865,2.212009807926405,2.054078950529603,114471.4447461876,2.155316482139127,2.729999999999998,33.35487820621955,32.5,0.0,-2.382572313105212,0.0,-2.38579874475833,-2.3246512466709426,0.5060999999999998,6.183481267460701,1.0934699999999995,13.359911601521938,0.0,0.0,1.1129999999999995,13.25,-1.6799999999999993,-1062224.0,0.0,0.0,-2.382572313105212,-132778.0,0.1079252888017018,1.2848248666869275,-4.127867254260745
0.3199999999999998,133153.0,4.5,0.0067381316998468,0.0429018990992536,2803.7576569678354,0.0579058192955588,0.0,0.0,-0.3199999999999998,-133153.0,0.0,29.631999999999977,188.66788758937125,12329967.8,4.074900379900027,1.0968879783060193,5.5,0.0,0.0060030627871362,24.75,-1.0968879783060193,-5.5,4.074900379900027,5.5,0.0,0.0,424.9599999999997,2705.7338522536184,176827184.0,0.0,133153.0,-266306.0,5.5,0.0,0.0,-0.3199999999999998,-133153.0,-2.75,0.2733402966367242,1.740366372823398,0.4684745083866004,113737.75161896805,2.3490181742218508,-1.9199999999999984,-12.224701139700082,-16.5,-0.3199999999999998,0.0,0.0,-1.896882649183507,-2.560272300636033,0.8735999999999994,5.562239018563537,1.5475199999999991,9.853109118598269,2.0374501899500137,133153.0,1.663999999999999,14.3,-1.2799999999999991,-532612.0,0.0,0.0,-1.645331967459029,-399459.0,0.1120736429902392,0.9631328694473688,-3.860538305163853
0.0899999999999998,133516.0,4.34,0.0021798165137614,0.040813490719585,3233.78201834862,0.0726605504587155,0.0,0.0,-0.1799999999999996,-267032.0,0.0,7.892999999999983,147.78348554383695,11709353.2,0.0,0.0,0.0,0.0,0.0018825688073394,24.0,-8.497164283852449,-12.0,0.0,0.0,-5.055307373221333,-6.372873212889337,113.39999999999976,2123.22909675296,168230160.0,0.0,534064.0,-267032.0,6.0,0.0,1.6851024577404443,-0.0899999999999998,-133516.0,-3.0,0.0767641529141422,1.4372829193553862,1.811882273395109,113880.47378316271,2.558805097138082,-0.8099999999999983,-15.165922119664,-27.0,0.0,0.0,0.0,-1.399579066586064,-2.491680657441022,0.2537999999999994,4.751988930828053,0.478349999999999,8.956319562890462,0.0,0.0,0.467999999999999,15.6,-0.3599999999999992,-534064.0,0.0,0.0,-2.124291070963112,-133516.0,0.0209595031149066,0.698650103830224,-3.72056896507092
0.2000000000000001,133940.0,4.0,0.0032725572697522,0.0191727940767985,2191.6316035530617,0.0531790556334735,0.0,0.0,0.0,0.0,0.0,19.20000000000001,112.48623505446042,12858240.0,3.515194845451888,2.527379356007298,9.75,0.0,0.003833567087424,9.75,-0.842459785335766,-3.25,0.0,0.0,-1.1717316151506294,-0.842459785335766,254.80000000000013,1492.7860777019018,170639560.0,0.0,535760.0,-669700.0,3.25,3.25,1.1717316151506294,0.0,0.0,0.0,0.1718404010862754,1.0067541535647668,0.7238431370557773,115081.5166074786,2.7924065176519743,1.2000000000000006,7.030389690903776,19.5,-0.2000000000000001,0.0,0.0,-0.3716115979357507,-1.0307289465223926,0.6040000000000003,3.5386294777549008,0.9978000000000004,5.84576902798649,0.0,0.0,1.0000000000000004,16.25,-0.6000000000000003,-401820.0,-0.842459785335766,-3.25,-2.527379356007298,-401820.0,0.0283251742932336,0.4602840822650473,-4.112745647592992
0.3700000000000001,134495.0,4.26,0.0088632404181184,0.0389672714365486,3221.787891986061,0.0838414634146341,0.0,0.0,0.0,0.0,0.0,32.967000000000006,144.93954545367154,11983504.5,3.2534129170296646,3.8267370384912383,7.0,0.0,0.0074128919860627,28.0,-3.8267370384912383,-7.0,1.6267064585148323,3.5,-3.2534129170296646,-3.8267370384912383,464.35000000000014,2041.5166054361143,168791225.0,0.0,268990.0,-268990.0,3.5,0.0,0.0,0.0,0.0,0.0,0.3155859619803636,1.3874749258650638,1.6319790399164116,114715.49717986213,2.9852726133277625,-3.330000000000001,-14.64035812663349,-31.5,0.0,0.0,0.0,-2.132163249185218,-4.587534114152052,1.2543000000000004,5.514534894365282,1.8422300000000005,8.09937145694535,0.0,0.0,1.8130000000000008,17.150000000000002,-0.7400000000000002,-268990.0,0.0,0.0,-1.9133685192456191,-134495.0,0.08827159603215,0.8350015840879058,-3.731590572206987
-0.02,134551.0,4.2,-0.0005658783783783,0.0370202854506402,3806.975084459457,0.1061021959459458,-0.0,0.0,0.02,-134551.0,-0.0,-1.5380000000000005,100.61737857213792,10346971.9,3.925255340915653,3.5082811090028025,11.25,0.0,-0.0003209459459459,18.75,-1.1694270363342676,-3.75,0.0,0.0,-1.3084184469718845,-1.1694270363342676,-24.88,1627.6725480330242,167381444.0,0.0,403653.0,-269102.0,3.75,0.0,1.3084184469718845,0.04,-269102.0,-7.5,-0.0168915813662001,1.1050628329031396,0.9876735968037276,113638.95822017966,3.167171506162524,0.58,-37.94413496218465,-108.75,-0.0,0.0,-1.3084184469718845,-2.1788745306882467,-6.244775521921772,-0.0674,4.4093701662952505,-0.10722,7.014431294216273,0.0,0.0,-0.1,18.75,-0.0,0.0,-1.1694270363342676,-3.75,-1.1694270363342676,-134551.0,-0.001249495652358,0.2342804348171321,-3.565108376612931
0.4199999999999999,134644.0,4.46,0.0074320241691842,0.0318312654547598,2382.565386275346,0.0707811825636596,-0.4199999999999999,-134644.0,0.0,0.0,0.0,31.16399999999999,133.4750175793651,9990584.8,5.39656405307406,6.941305492482519,12.0,0.0,0.0099697885196374,20.0,-4.627536994988346,-8.0,0.0,0.0,0.0,0.0,561.1199999999998,2403.269858302315,179884384.0,0.0,403932.0,-269288.0,0.0,0.0,1.7988546843580202,0.0,0.0,0.0,0.3622686442448297,1.5515920183234313,1.995728039722883,116136.42698976396,3.450177564236474,5.879999999999998,25.183965581012284,56.0,-0.4199999999999999,0.0,-1.7988546843580202,-1.5940994342082693,-3.54469863090064,1.5917999999999994,6.817659253716896,2.0315399999999992,8.701060108239743,1.7988546843580202,134644.0,2.099999999999999,20.0,-0.4199999999999999,-134644.0,-2.313768497494173,-4.0,-6.941305492482519,-403932.0,0.0635294656852404,0.6050425303356236,-4.034456457728073
0.06,135161.0,4.47,0.0008343498414247,0.0251620980521916,1879.5259819468035,0.0590997804342518,0.0,0.0,0.0,0.0,0.0,5.49,165.56594302294684,12367231.5,7.237855432697129,7.780784162777626,17.0,0.0,0.0007757989753598,17.0,-1.9451960406944064,-4.25,0.0,0.0,0.0,0.0,74.34,2241.925720277936,167464479.0,0.0,405483.0,-135161.0,12.75,12.75,0.0,-0.06,-135161.0,-4.25,0.0513014414038019,1.5471350682070897,1.6631893450098614,115565.9020263213,3.633852099435973,-0.24,-7.237855432697129,-17.0,0.0,0.0,0.0,-0.1641921169579377,-0.385648209506279,0.2309999999999999,6.966435853970987,0.30876,9.311501014164858,0.0,0.0,0.294,20.825000000000003,-0.12,-270322.0,0.0,0.0,-1.9451960406944064,-135161.0,0.0164664419542675,1.1663729717606175,-4.2754470526697945
0.4899999999999997,135425.0,4.42,0.007750439367311,0.0328615103645794,2142.047451669592,0.07117750439367299,0.0,0.0,0.0,0.0,0.0,44.68799999999997,189.47508722745025,12350760.0,8.31031084330922,7.895074377173339,18.0,0.0,0.0091282952548329,18.0,-7.895074377173339,-18.0,2.077577710827305,4.5,-2.077577710827305,-1.9737685942933347,575.2599999999996,2439.076232511256,158988950.0,0.0,270850.0,-406275.0,9.0,4.5,0.0,-0.9799999999999994,-270850.0,-9.0,0.4214184249007727,1.7867949520526456,1.697515208419816,116470.59222895342,3.870169208272405,3.9199999999999977,16.62062168661844,36.0,-0.4899999999999997,0.0,0.0,-0.0374750898073384,-0.0811704434708583,2.1265999999999985,9.016687264990502,2.407369999999999,10.20713929329455,0.0,0.0,2.3029999999999986,21.15,-3.9199999999999977,-1083400.0,0.0,0.0,-1.9737685942933347,-135425.0,0.252682994671854,2.3205581143333545,-4.146655856790113
0.2099999999999999,136040.0,4.72,0.0036964463633344,0.0302262750353629,2394.5931584191285,0.083610096313517,0.0,0.0,0.0,0.0,0.0,18.668999999999997,152.658600496007,12093956.0,3.434389212508594,2.4652383675503,9.5,0.0,0.0041149119893722,33.25,0.0,0.0,0.0,0.0,0.0,0.0,234.3599999999999,1916.3891805797955,151820640.0,0.0,136040.0,-136040.0,9.5,19.0,1.717194606254297,0.0,0.0,0.0,0.180432421140589,1.4754170494096353,1.0590688746327952,116885.84081888448,4.081209525799039,1.2599999999999991,10.303167637525782,28.5,0.0,0.0,0.0,-0.9475493793313066,-2.621053860424938,0.9554999999999996,7.813235458457052,1.0554599999999994,8.630620091034096,0.0,0.0,0.9869999999999997,22.325,-0.8399999999999996,-544160.0,0.0,0.0,-7.395715102650898,-816240.0,0.0928611076897576,2.100429816792137,-4.039735614929612
0.1500000000000003,136247.0,5.11,0.0037546933667083,0.0329747799351185,3410.4380475594444,0.125156445556946,0.0,0.0,0.0,0.0,0.0,11.865000000000023,104.20178846007197,10777137.7,5.269369833631958,2.9825583886219325,20.0,0.0,0.0028785982478097,35.0,-1.4912791943109662,-10.0,0.0,0.0,-2.634684916815979,-1.4912791943109662,162.90000000000032,1430.6339098310766,147964242.0,0.0,0.0,-136247.0,0.0,10.0,2.634684916815979,0.0,0.0,0.0,0.1276269062043036,1.1208556158545522,0.6344244995225157,115925.22059745144,4.254230206810111,-2.100000000000004,-18.442794417711852,-70.0,-0.3000000000000006,0.0,0.0,-1.7218612578290255,-6.53535930174868,0.7050000000000014,6.191509554517551,0.7816500000000016,6.864671550764034,0.0,0.0,0.6900000000000013,23.0,-0.7500000000000016,-681235.0,-0.7456395971554831,-5.0,-1.4912791943109662,-272494.0,0.0306703170101907,1.022343900339691,-3.687628672212285
0.1399999999999996,136328.0,5.11,0.0029787234042553,0.0148977448383654,2900.595744680844,0.1117021276595741,-0.1399999999999996,-136328.0,-0.1399999999999996,-136328.0,-0.1399999999999996,11.885999999999967,59.44647122852962,11574247.2,1.4003880148063514,0.244646482557787,10.5,0.0,0.0019274092615769,36.75,-0.3669697238366805,-15.75,0.0,0.0,-2.800776029612703,-0.489292965115574,150.35999999999956,752.0083639510108,146416272.0,0.1223232412788935,272656.0,-136328.0,10.5,0.0,0.0,-0.1399999999999996,-136328.0,-5.25,0.1188844787967408,0.5945871401909149,0.1038738198869233,115766.30875287236,4.458167954877794,-2.519999999999993,-12.603492133257165,-94.5,0.0,0.0,0.0,-0.7907300045445318,-5.928831837985769,0.677599999999998,3.3889389958313703,0.7047599999999979,3.5247766332675865,0.0,0.0,0.6439999999999981,24.15,-1.2599999999999965,-1226952.0,0.0,0.0,-0.244646482557787,-272656.0,-0.0121892711975753,-0.457097669909077,-3.850147601710061
0.1400000000000005,136688.0,4.88,0.0038442511325421005,0.0108003130041393,3753.3071343208876,0.1441594174703313,0.0,0.0,-0.1400000000000005,-136688.0,-0.1400000000000005,11.48000000000004,32.25272985886534,11208416.0,0.3933259738886017,0.3120150832314276,5.25,0.0,0.0023384564075484,31.5,-1.5600754161571382,-26.25,0.0,0.0,-0.7866519477772034,-0.6240301664628553,144.90000000000052,407.09238297470273,141472080.0,0.0,136688.0,-136688.0,0.0,0.0,0.0,0.0,0.0,0.0,0.0973010236055988,0.2733644276430703,0.2168527641343137,94999.15939001464,3.648788385209944,-54.1800000000002,-152.21715189488884,-2031.75,-0.1400000000000005,0.0,0.0,-0.2573383769398963,-3.434877350146968,0.6972000000000026,1.9587633499652368,0.6776000000000024,1.903697713620832,0.3933259738886017,136688.0,0.6580000000000025,24.675,-0.560000000000002,-546752.0,0.0,0.0,-1.5600754161571382,-683440.0,-0.0262832390251492,-0.985621463443093,-3.595063602588888
-0.1500000000000003,136824.0,4.72,-0.004387263976305,-0.0046089941460193,4001.886708626424,0.1535542391706771,-0.0,0.0,3.000000000000006,-2736480.0,-0.0,-12.810000000000027,-13.457411117584936,11684769.6,-1.7333901907896287,-9.97789214198243,57.75,-0.0,-0.0021658644946316,105.0,62.588596163344334,-362.25,-0.0,0.0,5.672913351675149,32.654919737397044,-152.40000000000032,-160.10222125838752,139013184.0,-0.0,3831072.0,-5472960.0,110.25,31.5,-0.0,7.200000000000014,-6567552.0,-252.0,-0.1259974932107794,-0.1323653447246348,-0.7619329681317081,114929.87340714436,4.409912262377272,6.000000000000012,6.303237057416832,-210.0,2.2500000000000044,-0.0,-0.0,-0.0406934158228641,1.3557505841773934,-0.7245000000000015,-0.7611158746830824,-0.7377000000000015,-0.7749829962093995,-0.0,0.0,-0.6750000000000014,23.625,22.200000000000045,-20249952.0,21.76994649159803,-126.0,91.61519148547504,-13819224.0,0.0294508139343954,-1.030778487703838,-3.531929501325597
0.1299999999999999,136848.0,4.73,0.0046561604584527,-0.022907819347327,4901.432664756435,0.1880372492836671,-0.2599999999999998,-273696.0,-0.2599999999999998,-273696.0,-0.2599999999999998,12.167999999999989,-59.86527919420213,12808972.8,-1.2791726323547463,-2.6473858558939267,10.5,-0.0,0.001862464183381,26.25,3.9710787838408894,-15.75,-0.0,0.0,1.2791726323547463,2.6473858558939267,122.3299999999999,-601.8507235229082,128773968.0,-0.0,136848.0,-273696.0,10.5,0.0,-0.0,0.0,0.0,0.0,0.1081115521203258,-0.5318974565912101,-1.1008192074695762,113806.53603509504,4.3660434510131605,-7.799999999999994,38.37517897064239,-315.0,-0.2599999999999998,-0.0,-0.0,-0.3857216725610751,3.1661696470442475,0.6447999999999995,-3.1723481282397707,0.7103199999999995,-3.4946996315931678,-0.0,0.0,0.5719999999999996,23.1,-1.4299999999999988,-1505328.0,1.3236929279469634,-5.25,1.3236929279469634,-136848.0,-0.0218608007892852,-0.8828400318749803,-3.329343277894174
