Short-Term Treasury Diff,LAG_RollingMean,LAG,Nonfarm Payroll,Long-Term Treasury Bond Rate,Level,Date,Proportion Negative Words_x_Short-Term_Treasury_Diff,Proportion Negative Words_x_LAG_RollingMean,Proportion Negative Words_x_LAG,Proportion Negative Words_x_Nonfarm_Payroll,Proportion Negative Words_x_Level,easing_x_Short-Term_Treasury_Diff,easing_x_LAG_RollingMean,easing_x_LAG,easing_x_Nonfarm_Payroll,easing_x_Level,weaker_x_Short-Term_Treasury_Diff,weaker_x_LAG_RollingMean,weaker_x_LAG,weaker_x_Nonfarm_Payroll,weaker_x_Level,weakness_x_Short-Term_Treasury_Diff,weakness_x_LAG_RollingMean,weakness_x_LAG,weakness_x_Nonfarm_Payroll,weakness_x_Level,contraction_x_Short-Term_Treasury_Diff,contraction_x_LAG_RollingMean,contraction_x_LAG,contraction_x_Nonfarm_Payroll,contraction_x_Level,Consumer Sentiment_x_Short-Term_Treasury_Diff,Consumer Sentiment_x_LAG_RollingMean,Consumer Sentiment_x_LAG,Consumer Sentiment_x_Nonfarm_Payroll,Consumer Sentiment_x_Level,improve_x_Short-Term_Treasury_Diff,improve_x_LAG_RollingMean,improve_x_LAG,improve_x_Nonfarm_Payroll,improve_x_Level,boosted_x_Short-Term_Treasury_Diff,boosted_x_LAG_RollingMean,boosted_x_LAG,boosted_x_Nonfarm_Payroll,boosted_x_Level,persisting_x_Short-Term_Treasury_Diff,persisting_x_LAG_RollingMean,persisting_x_LAG,persisting_x_Nonfarm_Payroll,persisting_x_Level,Proportion Positive Words_x_Short-Term_Treasury_Diff,Proportion Positive Words_x_LAG_RollingMean,Proportion Positive Words_x_LAG,Proportion Positive Words_x_Nonfarm_Payroll,Proportion Positive Words_x_Level,strengthen_x_Short-Term_Treasury_Diff,strengthen_x_LAG_RollingMean,strengthen_x_LAG,strengthen_x_Nonfarm_Payroll,strengthen_x_Level,concerned_x_Short-Term_Treasury_Diff,concerned_x_LAG_RollingMean,concerned_x_LAG,concerned_x_Nonfarm_Payroll,concerned_x_Level,turmoil_x_Short-Term_Treasury_Diff,turmoil_x_LAG_RollingMean,turmoil_x_LAG,turmoil_x_Nonfarm_Payroll,turmoil_x_Level,strong_x_Short-Term_Treasury_Diff,strong_x_LAG_RollingMean,strong_x_LAG,strong_x_Nonfarm_Payroll,strong_x_Level,slowing_x_Short-Term_Treasury_Diff,slowing_x_LAG_RollingMean,slowing_x_LAG,slowing_x_Nonfarm_Payroll,slowing_x_Level,improving_x_Short-Term_Treasury_Diff,improving_x_LAG_RollingMean,improving_x_LAG,improving_x_Nonfarm_Payroll,improving_x_Level,slower_x_Short-Term_Treasury_Diff,slower_x_LAG_RollingMean,slower_x_LAG,slower_x_Nonfarm_Payroll,slower_x_Level,question_x_Short-Term_Treasury_Diff,question_x_LAG_RollingMean,question_x_LAG,question_x_Nonfarm_Payroll,question_x_Level,imbalance_x_Short-Term_Treasury_Diff,imbalance_x_LAG_RollingMean,imbalance_x_LAG,imbalance_x_Nonfarm_Payroll,imbalance_x_Level,diminishing_x_Short-Term_Treasury_Diff,diminishing_x_LAG_RollingMean,diminishing_x_LAG,diminishing_x_Nonfarm_Payroll,diminishing_x_Level,stability_x_Short-Term_Treasury_Diff,stability_x_LAG_RollingMean,stability_x_LAG,stability_x_Nonfarm_Payroll,stability_x_Level,slow_x_Short-Term_Treasury_Diff,slow_x_LAG_RollingMean,slow_x_LAG,slow_x_Nonfarm_Payroll,slow_x_Level,Housing Sales_x_Short-Term_Treasury_Diff,Housing Sales_x_LAG_RollingMean,Housing Sales_x_LAG,Housing Sales_x_Nonfarm_Payroll,Housing Sales_x_Level,slowed_x_Short-Term_Treasury_Diff,slowed_x_LAG_RollingMean,slowed_x_LAG,slowed_x_Nonfarm_Payroll,slowed_x_Level,better_x_Short-Term_Treasury_Diff,better_x_LAG_RollingMean,better_x_LAG,better_x_Nonfarm_Payroll,better_x_Level,gain_x_Short-Term_Treasury_Diff,gain_x_LAG_RollingMean,gain_x_LAG,gain_x_Nonfarm_Payroll,gain_x_Level,stable_x_Short-Term_Treasury_Diff,stable_x_LAG_RollingMean,stable_x_LAG,stable_x_Nonfarm_Payroll,stable_x_Level,despite_x_Short-Term_Treasury_Diff,despite_x_LAG_RollingMean,despite_x_LAG,despite_x_Nonfarm_Payroll,despite_x_Level,unemployment_x_Short-Term_Treasury_Diff,unemployment_x_LAG_RollingMean,unemployment_x_LAG,unemployment_x_Nonfarm_Payroll,unemployment_x_Level,favored_x_Short-Term_Treasury_Diff,favored_x_LAG_RollingMean,favored_x_LAG,favored_x_Nonfarm_Payroll,favored_x_Level,strength_x_Short-Term_Treasury_Diff,strength_x_LAG_RollingMean,strength_x_LAG,strength_x_Nonfarm_Payroll,strength_x_Level,rebounded_x_Short-Term_Treasury_Diff,rebounded_x_LAG_RollingMean,rebounded_x_LAG,rebounded_x_Nonfarm_Payroll,rebounded_x_Level,strengthened_x_Short-Term_Treasury_Diff,strengthened_x_LAG_RollingMean,strengthened_x_LAG,strengthened_x_Nonfarm_Payroll,strengthened_x_Level,difficult_x_Short-Term_Treasury_Diff,difficult_x_LAG_RollingMean,difficult_x_LAG,difficult_x_Nonfarm_Payroll,difficult_x_Level,desirable_x_Short-Term_Treasury_Diff,desirable_x_LAG_RollingMean,desirable_x_LAG,desirable_x_Nonfarm_Payroll,desirable_x_Level,Standardized Sentiment Score_x_Short-Term_Treasury_Diff,Standardized Sentiment Score_x_LAG_RollingMean,Standardized Sentiment Score_x_LAG,Standardized Sentiment Score_x_Nonfarm_Payroll,Standardized Sentiment Score_x_Level,Net Sentiment Score_x_Short-Term_Treasury_Diff,Net Sentiment Score_x_LAG_RollingMean,Net Sentiment Score_x_LAG,Net Sentiment Score_x_Nonfarm_Payroll,Net Sentiment Score_x_Level,desired_x_Short-Term_Treasury_Diff,desired_x_LAG_RollingMean,desired_x_LAG,desired_x_Nonfarm_Payroll,desired_x_Level,Sentiment Label_x_Short-Term_Treasury_Diff,Sentiment Label_x_LAG_RollingMean,Sentiment Label_x_LAG,Sentiment Label_x_Nonfarm_Payroll,Sentiment Label_x_Level,boost_x_Short-Term_Treasury_Diff,boost_x_LAG_RollingMean,boost_x_LAG,boost_x_Nonfarm_Payroll,boost_x_Level,slowly_x_Short-Term_Treasury_Diff,slowly_x_LAG_RollingMean,slowly_x_LAG,slowly_x_Nonfarm_Payroll,slowly_x_Level,problem_x_Short-Term_Treasury_Diff,problem_x_LAG_RollingMean,problem_x_LAG,problem_x_Nonfarm_Payroll,problem_x_Level,deficit_x_Short-Term_Treasury_Diff,deficit_x_LAG_RollingMean,deficit_x_LAG,deficit_x_Nonfarm_Payroll,deficit_x_Level,volatility_x_Short-Term_Treasury_Diff,volatility_x_LAG_RollingMean,volatility_x_LAG,volatility_x_Nonfarm_Payroll,volatility_x_Level,weakened_x_Short-Term_Treasury_Diff,weakened_x_LAG_RollingMean,weakened_x_LAG,weakened_x_Nonfarm_Payroll,weakened_x_Level,strengthening_x_Short-Term_Treasury_Diff,strengthening_x_LAG_RollingMean,strengthening_x_LAG,strengthening_x_Nonfarm_Payroll,strengthening_x_Level,caution_x_Short-Term_Treasury_Diff,caution_x_LAG_RollingMean,caution_x_LAG,caution_x_Nonfarm_Payroll,caution_x_Level,good_x_Short-Term_Treasury_Diff,good_x_LAG_RollingMean,good_x_LAG,good_x_Nonfarm_Payroll,good_x_Level,severe_x_Short-Term_Treasury_Diff,severe_x_LAG_RollingMean,severe_x_LAG,severe_x_Nonfarm_Payroll,severe_x_Level,lagged_x_Short-Term_Treasury_Diff,lagged_x_LAG_RollingMean,lagged_x_LAG,lagged_x_Nonfarm_Payroll,lagged_x_Level,LEI_x_Short-Term_Treasury_Diff,LEI_x_LAG_RollingMean,LEI_x_LAG,LEI_x_Nonfarm_Payroll,LEI_x_Level,Short-Term Treasury Bond Rate_x_Short-Term_Treasury_Diff,Short-Term Treasury Bond Rate_x_LAG_RollingMean,Short-Term Treasury Bond Rate_x_LAG,Short-Term Treasury Bond Rate_x_Nonfarm_Payroll,Short-Term Treasury Bond Rate_x_Level,Treasury Deposits_x_Short-Term_Treasury_Diff,Treasury Deposits_x_LAG_RollingMean,Treasury Deposits_x_LAG,Treasury Deposits_x_Nonfarm_Payroll,Treasury Deposits_x_Level,progress_x_Short-Term_Treasury_Diff,progress_x_LAG_RollingMean,progress_x_LAG,progress_x_Nonfarm_Payroll,progress_x_Level,Unemployment Rate_x_Short-Term_Treasury_Diff,Unemployment Rate_x_LAG_RollingMean,Unemployment Rate_x_LAG,Unemployment Rate_x_Nonfarm_Payroll,Unemployment Rate_x_Level,absence_x_Short-Term_Treasury_Diff,absence_x_LAG_RollingMean,absence_x_LAG,absence_x_Nonfarm_Payroll,absence_x_Level,Bank Reserves_x_Short-Term_Treasury_Diff,Bank Reserves_x_LAG_RollingMean,Bank Reserves_x_LAG,Bank Reserves_x_Nonfarm_Payroll,Bank Reserves_x_Level,decline_x_Short-Term_Treasury_Diff,decline_x_LAG_RollingMean,decline_x_LAG,decline_x_Nonfarm_Payroll,decline_x_Level,difficulty_x_Short-Term_Treasury_Diff,difficulty_x_LAG_RollingMean,difficulty_x_LAG,difficulty_x_Nonfarm_Payroll,difficulty_x_Level,slowdown_x_Short-Term_Treasury_Diff,slowdown_x_LAG_RollingMean,slowdown_x_LAG,slowdown_x_Nonfarm_Payroll,slowdown_x_Level,CEI_x_Short-Term_Treasury_Diff,CEI_x_LAG_RollingMean,CEI_x_LAG,CEI_x_Nonfarm_Payroll,CEI_x_Level,tightening_x_Short-Term_Treasury_Diff,tightening_x_LAG_RollingMean,tightening_x_LAG,tightening_x_Nonfarm_Payroll,tightening_x_Level,CEI_RollingMean_x_Short-Term_Treasury_Diff,CEI_RollingMean_x_LAG_RollingMean,CEI_RollingMean_x_LAG,CEI_RollingMean_x_Nonfarm_Payroll,CEI_RollingMean_x_Level
-0.02,0.3841807257696259,0.4696780880638282,110570.0,6.04,3.75,0,-0.0005248359887535,0.0100815935534672,0.0123251981872419,2901.5557638238024,0.0984067478912838,-0.0,0.0,0.0,0.0,0.0,-0.0,0.0,0.0,0.0,0.0,0.1,-1.9209036288481296,-2.348390440319141,-552850.0,-18.75,0.02,-0.3841807257696259,-0.4696780880638282,-110570.0,-3.75,-1.606,30.84971227930096,37.715150471525405,8878771.0,301.125,-0.02,0.3841807257696259,0.4696780880638282,110570.0,3.75,-0.02,0.3841807257696259,0.4696780880638282,110570.0,3.75,0.06,-1.1525421773088778,-1.4090342641914846,-331710.0,-11.25,-0.0004123711340206,0.0079212520777242,0.0096840842899758,2279.7938144329864,0.0773195876288658,-0.02,0.3841807257696259,0.4696780880638282,110570.0,3.75,0.02,-0.3841807257696259,-0.4696780880638282,-110570.0,-3.75,-0.0,0.0,0.0,0.0,0.0,-0.16,3.073445806157008,3.7574247045106257,884560.0,30.0,0.04,-0.7683614515392518,-0.9393561761276564,-221140.0,-7.5,-0.0,0.0,0.0,0.0,0.0,-0.0,0.0,0.0,0.0,0.0,-0.0,0.0,0.0,0.0,0.0,-0.0,0.0,0.0,0.0,0.0,0.02,-0.3841807257696259,-0.4696780880638282,-110570.0,-3.75,-0.18,3.4576265319266333,4.2271027925744535,995130.0,33.75,0.02,-0.3841807257696259,-0.4696780880638282,-110570.0,-3.75,-12.52,240.49713433178584,294.0184831279565,69216820.0,2347.5,0.02,-0.3841807257696259,-0.4696780880638282,-110570.0,-3.75,-0.0,0.0,0.0,0.0,0.0,-0.2,3.841807257696259,4.696780880638282,1105700.0,37.5,-0.0,0.0,0.0,0.0,0.0,-0.02,0.3841807257696259,0.4696780880638282,110570.0,3.75,0.1,-1.9209036288481296,-2.348390440319141,-552850.0,-18.75,-0.06,1.1525421773088778,1.4090342641914846,331710.0,11.25,-0.06,1.1525421773088778,1.4090342641914846,331710.0,11.25,-0.02,0.3841807257696259,0.4696780880638282,110570.0,3.75,-0.02,0.3841807257696259,0.4696780880638282,110570.0,3.75,0.02,-0.3841807257696259,-0.4696780880638282,-110570.0,-3.75,-0.02,0.3841807257696259,0.4696780880638282,110570.0,3.75,-0.0169333611865468,0.32527354951834,0.3976614353295792,93616.08731982452,3.175005222477544,0.48,-9.220337418471022,-11.272274113531877,-2653680.0,-90.0,-0.0,0.0,0.0,0.0,0.0,-0.0,0.0,0.0,0.0,0.0,-0.0,0.0,0.0,0.0,0.0,-0.0,0.0,0.0,0.0,0.0,-0.0,0.0,0.0,0.0,0.0,0.18,-3.4576265319266333,-4.2271027925744535,-995130.0,-33.75,-0.0,0.0,0.0,0.0,0.0,0.02,-0.3841807257696259,-0.4696780880638282,-110570.0,-3.75,-0.04,0.7683614515392518,0.9393561761276564,221140.0,7.5,0.04,-0.7683614515392518,-0.9393561761276564,-221140.0,-7.5,-0.22,4.225987983465885,5.16645896870211,1216270.0,41.25,-0.0,0.0,0.0,0.0,0.0,-0.0,0.0,0.0,0.0,0.0,0.0170605631645125,-0.3277169769290483,-0.4006486344200207,-94319.32345500746,-3.198855593346097,-0.0586,1.125649526505004,1.3761567980270168,323970.10000000003,10.9875,-0.11904,2.2866436797808136,2.795523980155905,658112.64,22.32,-0.1,1.9209036288481296,2.348390440319141,552850.0,18.75,-0.142,2.727683152964344,3.33471442525318,785047.0,26.625,0.06,-1.1525421773088778,-1.4090342641914846,-331710.0,-11.25,-0.11292,2.169084377695308,2.651802485208374,624278.22,21.1725,0.22,-4.225987983465885,-5.16645896870211,-1216270.0,-41.25,-0.0,0.0,0.0,0.0,0.0,0.04,-0.7683614515392518,-0.9393561761276564,-221140.0,-7.5,0.0022578502071488,-0.0433711265630772,-0.0530231384214095,-12482.524870222416,-0.4233469138404093,0.1,-1.9209036288481296,-2.348390440319141,-552850.0,-18.75,0.0048240868442971,-0.0926660592508899,-0.1132883942841685,-26669.964118697026,-0.9045162833057234
0.02,-0.0940473721457881,-0.0288762470466625,111060.0,5.81,3.25,50,0.0005876180482686,-0.002763196663255,-0.0008484101965441,3263.043022035669,0.0954879328436514,-0.06,0.2821421164373643,0.0866287411399875,-333180.0,-9.75,-0.04,0.1880947442915762,0.057752494093325,-222120.0,-6.5,-0.08,0.3761894885831524,0.11550498818665,-444240.0,-13.0,0.0,-0.0,-0.0,0.0,0.0,1.54,-7.241647655225683,-2.2234710225930128,8551620.0,250.25,0.02,-0.0940473721457881,-0.0288762470466625,111060.0,3.25,0.0,-0.0,-0.0,0.0,0.0,0.0,-0.0,-0.0,0.0,0.0,0.0004267226302903,-0.0020066071006971,-0.0006161074046332,2369.590766002092,0.0693424274221753,0.04,-0.1880947442915762,-0.057752494093325,222120.0,6.5,-0.02,0.0940473721457881,0.0288762470466625,-111060.0,-3.25,0.0,-0.0,-0.0,0.0,0.0,0.04,-0.1880947442915762,-0.057752494093325,222120.0,6.5,0.0,-0.0,-0.0,0.0,0.0,0.0,-0.0,-0.0,0.0,0.0,-0.04,0.1880947442915762,0.057752494093325,-222120.0,-6.5,-0.04,0.1880947442915762,0.057752494093325,-222120.0,-6.5,0.0,-0.0,-0.0,0.0,0.0,0.0,-0.0,-0.0,0.0,0.0,0.22,-1.034521093603669,-0.3176387175132875,1221660.0,35.75,-0.06,0.2821421164373643,0.0866287411399875,-333180.0,-9.75,13.1,-61.6010287554912,-18.913941815563938,72744300.0,2128.75,-0.04,0.1880947442915762,0.057752494093325,-222120.0,-6.5,0.0,-0.0,-0.0,0.0,0.0,0.12,-0.5642842328747286,-0.173257482279975,666360.0,19.5,0.0,-0.0,-0.0,0.0,0.0,0.08,-0.3761894885831524,-0.11550498818665,444240.0,13.0,-0.08,0.3761894885831524,0.11550498818665,-444240.0,-13.0,0.04,-0.1880947442915762,-0.057752494093325,222120.0,6.5,0.08,-0.3761894885831524,-0.11550498818665,444240.0,13.0,0.0,-0.0,-0.0,0.0,0.0,0.02,-0.0940473721457881,-0.0288762470466625,111060.0,3.25,-0.02,0.0940473721457881,0.0288762470466625,-111060.0,-3.25,0.02,-0.0940473721457881,-0.0288762470466625,111060.0,3.25,0.0169417171506162,-0.0796661988826343,-0.0244606604917937,94077.35533737204,2.7530290369751413,-0.46,2.1630895593531263,0.6641536820732376,-2554380.0,-74.75,0.0,-0.0,-0.0,0.0,0.0,0.0,-0.0,-0.0,0.0,0.0,0.0,-0.0,-0.0,0.0,0.0,0.0,-0.0,-0.0,0.0,0.0,0.0,-0.0,-0.0,0.0,0.0,-0.1,0.4702368607289404,0.1443812352333125,-555300.0,-16.25,0.0,-0.0,-0.0,0.0,0.0,0.0,-0.0,-0.0,0.0,0.0,0.0,-0.0,-0.0,0.0,0.0,0.0,-0.0,-0.0,0.0,0.0,0.18,-0.8464263493120928,-0.2598862234199625,999540.0,29.25,0.0,-0.0,-0.0,0.0,0.0,0.0,-0.0,-0.0,0.0,0.0,-0.0028588055677129,0.0134431575559573,0.0041275787915826,-15874.9473175098,-0.4645559047533482,0.059,-0.2774397478300749,-0.0851849287876543,327627.0,9.5875,0.12578,-0.5914639234248613,-0.1816027176764604,698456.34,20.43925,0.14,-0.6583316050205167,-0.2021337293266375,777420.0,22.75,0.138,-0.6489268678059379,-0.1992461046219712,766314.0,22.425,-0.02,0.0940473721457881,0.0288762470466625,-111060.0,-3.25,0.32512,-1.5288340816019312,-0.4694122719905456,1805391.36,52.832,-0.16,0.7523789771663048,0.2310099763733,-888480.0,-26.0,-0.04,0.1880947442915762,0.057752494093325,-222120.0,-6.5,0.0,-0.0,-0.0,0.0,0.0,-0.0010089370568945,0.0047443939430719,0.001456715785471,-5602.627476935536,-0.1639522717453673,-0.06,0.2821421164373643,0.0866287411399875,-333180.0,-9.75,-0.0048746092009513,0.0229222092793579,0.0070380209771303,-27068.70489288309,-0.7921239951546015
0.0599999999999996,0.1804360396228075,0.1005062778512568,111209.0,5.68,3.25,91,0.0019507389162561,0.0058663934064557,0.0032676917922083,3615.662068965511,0.1056650246305416,0.0,0.0,0.0,0.0,0.0,0.0,0.0,0.0,0.0,0.0,-0.0599999999999996,-0.1804360396228075,-0.1005062778512568,-111209.0,-3.25,0.0,0.0,0.0,0.0,0.0,4.637999999999969,13.94770586284302,7.7691352779021505,8596455.7,251.225,0.0,0.0,0.0,0.0,0.0,0.0,0.0,0.0,0.0,0.0,-0.0599999999999996,-0.1804360396228075,-0.1005062778512568,-111209.0,-3.25,0.0014778325123152,0.0044442374291331,0.0024755240850063,2739.1379310344737,0.0800492610837435,0.0,0.0,0.0,0.0,0.0,0.0,0.0,0.0,0.0,0.0,0.0,0.0,0.0,0.0,0.0,0.2399999999999984,0.72174415849123,0.4020251114050272,444836.0,13.0,-0.0599999999999996,-0.1804360396228075,-0.1005062778512568,-111209.0,-3.25,0.0599999999999996,0.1804360396228075,0.1005062778512568,111209.0,3.25,-0.0599999999999996,-0.1804360396228075,-0.1005062778512568,-111209.0,-3.25,0.0,0.0,0.0,0.0,0.0,0.0,0.0,0.0,0.0,0.0,0.0,0.0,0.0,0.0,0.0,0.4199999999999972,1.2630522773596524,0.7035439449587977,778463.0,22.75,-0.1799999999999988,-0.5413081188684224,-0.3015188335537704,-333627.0,-9.75,38.69999999999974,116.38124555671084,64.82654921406063,71729805.0,2096.25,0.0,0.0,0.0,0.0,0.0,0.0599999999999996,0.1804360396228075,0.1005062778512568,111209.0,3.25,0.2399999999999984,0.72174415849123,0.4020251114050272,444836.0,13.0,0.0599999999999996,0.1804360396228075,0.1005062778512568,111209.0,3.25,0.2399999999999984,0.72174415849123,0.4020251114050272,444836.0,13.0,-0.1199999999999992,-0.360872079245615,-0.2010125557025136,-222418.0,-6.5,0.0,0.0,0.0,0.0,0.0,0.1199999999999992,0.360872079245615,0.2010125557025136,222418.0,6.5,0.0599999999999996,0.1804360396228075,0.1005062778512568,111209.0,3.25,0.1799999999999988,0.5413081188684224,0.3015188335537704,333627.0,9.75,-0.0599999999999996,-0.1804360396228075,-0.1005062778512568,-111209.0,-3.25,0.0,0.0,0.0,0.0,0.0,0.0508000835596403,0.1527694315001543,0.0850954552185385,94157.1082097347,2.751671192813871,-1.4399999999999904,-4.33046495094738,-2.4121506684301632,-2669016.0,-78.0,0.0,0.0,0.0,0.0,0.0,0.0,0.0,0.0,0.0,0.0,0.0599999999999996,0.1804360396228075,0.1005062778512568,111209.0,3.25,-0.0599999999999996,-0.1804360396228075,-0.1005062778512568,-111209.0,-3.25,0.0,0.0,0.0,0.0,0.0,-0.299999999999998,-0.9021801981140376,-0.502531389256284,-556045.0,-16.25,0.0,0.0,0.0,0.0,0.0,0.0,0.0,0.0,0.0,0.0,0.1799999999999988,0.5413081188684224,0.3015188335537704,333627.0,9.75,-0.0599999999999996,-0.1804360396228075,-0.1005062778512568,-111209.0,-3.25,0.299999999999998,0.9021801981140376,0.502531389256284,556045.0,16.25,-0.0599999999999996,-0.1804360396228075,-0.1005062778512568,-111209.0,-3.25,0.0,0.0,0.0,0.0,0.0,-0.0129479093094394,-0.0389378246198423,-0.0216891028441233,-23998.73410655762,-0.7013450875946394,0.1805999999999988,0.5431124792646506,0.3025238963322829,334739.09,9.7825,0.3485999999999977,1.0483333902085117,0.583941474315802,646124.2899999999,18.8825,0.1799999999999988,0.5413081188684224,0.3015188335537704,333627.0,9.75,0.4079999999999973,1.2269650694350909,0.6834426893885462,756221.2,22.1,-0.0599999999999996,-0.1804360396228075,-0.1005062778512568,-111209.0,-3.25,0.3396599999999977,1.0214484203047132,0.5689660389159648,629554.149,18.39825,-0.3599999999999976,-1.082616237736845,-0.6030376671075408,-667254.0,-19.5,0.0,0.0,0.0,0.0,0.0,0.0,0.0,0.0,0.0,0.0,-0.0020256371940798,-0.0060916325502072,-0.0033931542442339,-3754.4847786071855,-0.1097220146793277,-0.1799999999999988,-0.5413081188684224,-0.3015188335537704,-333627.0,-9.75,-0.00394199966207,-0.0118546467869727,-0.0066032618887595,-7306.430673652461,-0.2135249816954608
-0.0599999999999996,0.5817030993538502,1.6734792672569565,111455.0,5.36,3.25,126,-0.001608040201005,0.0155900328135035,0.0448503656216269,2987.0686767169154,0.0871021775544387,0.0599999999999996,-0.5817030993538502,-1.6734792672569565,-111455.0,-3.25,-0.0,0.0,0.0,0.0,0.0,0.2399999999999984,-2.326812397415401,-6.693917069027826,-445820.0,-13.0,-0.0,0.0,0.0,0.0,0.0,-4.673999999999969,45.31467143966493,130.3640349193169,8682344.5,253.175,-0.0599999999999996,0.5817030993538502,1.6734792672569565,111455.0,3.25,-0.0599999999999996,0.5817030993538502,1.6734792672569565,111455.0,3.25,0.1799999999999988,-1.7451092980615508,-5.0204378017708695,-334365.0,-9.75,-0.0013567839195979,0.0131540901863935,0.0378424959932476,2520.3391959798923,0.0734924623115575,-0.0599999999999996,0.5817030993538502,1.6734792672569565,111455.0,3.25,0.0599999999999996,-0.5817030993538502,-1.6734792672569565,-111455.0,-3.25,-0.0,0.0,0.0,0.0,0.0,-0.1799999999999988,1.7451092980615508,5.0204378017708695,334365.0,9.75,0.1199999999999992,-1.1634061987077005,-3.346958534513913,-222910.0,-6.5,-0.0599999999999996,0.5817030993538502,1.6734792672569565,111455.0,3.25,-0.0,0.0,0.0,0.0,0.0,-0.0,0.0,0.0,0.0,0.0,-0.0,0.0,0.0,0.0,0.0,-0.0,0.0,0.0,0.0,0.0,-0.4799999999999968,4.653624794830802,13.387834138055652,891640.0,26.0,0.3599999999999976,-3.4902185961231016,-10.04087560354174,-668730.0,-19.5,-43.55999999999971,422.3164501308953,1214.9459480285504,80916330.0,2359.5,-0.0,0.0,0.0,0.0,0.0,-0.1199999999999992,1.1634061987077005,3.346958534513913,222910.0,6.5,-0.5399999999999964,5.235327894184652,15.061313405312609,1003095.0,29.25,-0.0,0.0,0.0,0.0,0.0,-0.2399999999999984,2.326812397415401,6.693917069027826,445820.0,13.0,0.1199999999999992,-1.1634061987077005,-3.346958534513913,-222910.0,-6.5,-0.0,0.0,0.0,0.0,0.0,-0.1199999999999992,1.1634061987077005,3.346958534513913,222910.0,6.5,-0.1199999999999992,1.1634061987077005,3.346958534513913,222910.0,6.5,-0.0599999999999996,0.5817030993538502,1.6734792672569565,111455.0,3.25,0.0599999999999996,-0.5817030993538502,-1.6734792672569565,-111455.0,-3.25,-0.0,0.0,0.0,0.0,0.0,-0.0510256945895129,0.4946967448233809,1.4231740332155989,94784.4798412367,2.763891790265302,0.899999999999994,-8.725546490307753,-25.102189008854342,-1671825.0,-48.75,-0.0,0.0,0.0,0.0,0.0,-0.0,0.0,0.0,0.0,0.0,-0.0599999999999996,0.5817030993538502,1.6734792672569565,111455.0,3.25,0.1799999999999988,-1.7451092980615508,-5.0204378017708695,-334365.0,-9.75,0.1199999999999992,-1.1634061987077005,-3.346958534513913,-222910.0,-6.5,0.1199999999999992,-1.1634061987077005,-3.346958534513913,-222910.0,-6.5,-0.0,0.0,0.0,0.0,0.0,-0.0,0.0,0.0,0.0,0.0,-0.1199999999999992,1.1634061987077005,3.346958534513913,222910.0,6.5,0.0599999999999996,-0.5817030993538502,-1.6734792672569565,-111455.0,-3.25,-0.599999999999996,5.817030993538502,16.734792672569565,1114550.0,32.5,-0.0,0.0,0.0,0.0,0.0,-0.0,0.0,0.0,0.0,0.0,0.0055747938107075,-0.0540479139657877,-0.1554883643575257,-10355.644069540229,-0.301967998079994,-0.1769999999999988,1.7160241430938583,4.936763838408022,328792.25,9.5875,-0.5243399999999966,5.083503385253297,14.624535316558545,974005.245,28.401750000000003,-0.299999999999998,2.908515496769251,8.367396336284783,557275.0,16.25,-0.4019999999999973,3.897410765670797,11.21231109062161,746748.5,21.775,-0.0,0.0,0.0,0.0,0.0,-0.3070199999999979,2.976574759393652,8.563193410553847,570315.235,16.63025,0.7799999999999948,-7.562140291600053,-21.75523047434044,-1448915.0,-42.25,0.1199999999999992,-1.1634061987077005,-3.346958534513913,-222910.0,-6.5,-0.0,0.0,0.0,0.0,0.0,-0.0280118635141487,0.2715764637476247,0.7812878804693312,52034.3707994912,1.5173092736830684,-0.0,0.0,0.0,0.0,0.0,-0.0076531383831283,0.0741975719541621,0.213456140226898,14216.342308193016,0.4145449957527908
0.0,1.171384677178103,1.7401684864260945,111989.0,5.72,3.25,182,0.0,0.0317765689125984,0.047206169677464,3037.965448315248,0.0881639063392347,0.0,0.0,0.0,0.0,0.0,-0.0,-1.171384677178103,-1.7401684864260945,-111989.0,-3.25,-0.0,-1.171384677178103,-1.7401684864260945,-111989.0,-3.25,0.0,0.0,0.0,0.0,0.0,0.0,95.11643578686196,141.30168109779888,9093506.8,263.90000000000003,0.0,1.171384677178103,1.7401684864260945,111989.0,3.25,0.0,2.342769354356206,3.480336972852189,223978.0,6.5,-0.0,-1.171384677178103,-1.7401684864260945,-111989.0,-3.25,0.0,0.0297696277181184,0.0442247273820451,2846.0939463163854,0.0825956596230723,0.0,0.0,0.0,0.0,0.0,-0.0,-1.171384677178103,-1.7401684864260945,-111989.0,-3.25,0.0,0.0,0.0,0.0,0.0,0.0,5.856923385890514,8.700842432130472,559945.0,16.25,0.0,0.0,0.0,0.0,0.0,0.0,5.856923385890514,8.700842432130472,559945.0,16.25,-0.0,-2.342769354356206,-3.480336972852189,-223978.0,-6.5,0.0,0.0,0.0,0.0,0.0,0.0,0.0,0.0,0.0,0.0,0.0,0.0,0.0,0.0,0.0,0.0,10.542462094602929,15.66151637783485,1007901.0,29.25,-0.0,-2.342769354356206,-3.480336972852189,-223978.0,-6.5,0.0,900.7948167499612,1338.1895660616667,86119541.0,2499.25,-0.0,-3.514154031534309,-5.220505459278283,-335967.0,-9.75,0.0,0.0,0.0,0.0,0.0,0.0,9.371077417424823,13.921347891408756,895912.0,26.0,0.0,0.0,0.0,0.0,0.0,0.0,2.342769354356206,3.480336972852189,223978.0,6.5,-0.0,-2.342769354356206,-3.480336972852189,-223978.0,-6.5,0.0,1.171384677178103,1.7401684864260945,111989.0,3.25,0.0,5.856923385890514,8.700842432130472,559945.0,16.25,0.0,1.171384677178103,1.7401684864260945,111989.0,3.25,0.0,4.685538708712412,6.960673945704378,447956.0,13.0,0.0,0.0,0.0,0.0,0.0,0.0,0.0,0.0,0.0,0.0,0.0,1.000583234798676,1.486431782117464,95659.70775015668,2.776112387716733,-0.0,-7.028308063068618,-10.441010918556566,-671934.0,-19.5,0.0,0.0,0.0,0.0,0.0,0.0,0.0,0.0,0.0,0.0,0.0,0.0,0.0,0.0,0.0,0.0,0.0,0.0,0.0,0.0,0.0,0.0,0.0,0.0,0.0,-0.0,-3.514154031534309,-5.220505459278283,-335967.0,-9.75,0.0,0.0,0.0,0.0,0.0,0.0,0.0,0.0,0.0,0.0,0.0,7.028308063068618,10.441010918556566,671934.0,19.5,0.0,0.0,0.0,0.0,0.0,0.0,8.19969274024672,12.18117940498266,783923.0,22.75,0.0,0.0,0.0,0.0,0.0,0.0,0.0,0.0,0.0,0.0,-0.0,-0.0427013781927086,-0.0634356877852654,-4082.420348833164,-0.1184747263901613,0.0,3.455584797675404,5.133497034956979,330367.55000000005,9.5875,0.0,6.6253517341193495,9.84239295922599,633409.784,18.382,0.0,5.856923385890514,8.700842432130472,559945.0,16.25,0.0,7.731138869375479,11.485112010412225,739127.3999999999,21.45,-0.0,-3.514154031534309,-5.220505459278283,-335967.0,-9.75,0.0,5.926035081844023,8.803512372829612,566552.351,16.44175,-0.0,-5.856923385890514,-8.700842432130472,-559945.0,-16.25,0.0,0.0,0.0,0.0,0.0,-0.0,-1.171384677178103,-1.7401684864260945,-111989.0,-3.25,0.0,0.589462370421213,0.8756848718664415,56354.92992799686,1.6354599314753218,-0.0,-2.342769354356206,-3.480336972852189,-223978.0,-6.5,0.0,0.3655978308571332,0.5431194690850388,34952.59608354459,1.0143490634930208
0.0799999999999996,1.7985769044120976,1.9820829595532417,112323.0,5.77,3.25,217,0.0014145383104125,0.0318019491939269,0.0350466535087998,1986.064833005886,0.0574656188605105,-0.0799999999999996,-1.7985769044120976,-1.9820829595532417,-112323.0,-3.25,0.0,0.0,0.0,0.0,0.0,-0.1599999999999992,-3.597153808824195,-3.9641659191064833,-224646.0,-6.5,0.0,0.0,0.0,0.0,0.0,7.0559999999999645,158.634482969147,174.81971703259592,9906888.6,286.65000000000003,0.0799999999999996,1.7985769044120976,1.9820829595532417,112323.0,3.25,0.1599999999999992,3.597153808824195,3.9641659191064833,224646.0,6.5,-0.1599999999999992,-3.597153808824195,-3.9641659191064833,-224646.0,-6.5,0.0014931237721021,0.0335687241491452,0.0369936898148443,2096.4017681728865,0.0606581532416502,0.0799999999999996,1.7985769044120976,1.9820829595532417,112323.0,3.25,0.0,0.0,0.0,0.0,0.0,0.0,0.0,0.0,0.0,0.0,0.7199999999999964,16.187192139708877,17.838746635979174,1010907.0,29.25,-0.0799999999999996,-1.7985769044120976,-1.9820829595532417,-112323.0,-3.25,0.0799999999999996,1.7985769044120976,1.9820829595532417,112323.0,3.25,0.0,0.0,0.0,0.0,0.0,-0.1599999999999992,-3.597153808824195,-3.9641659191064833,-224646.0,-6.5,0.0,0.0,0.0,0.0,0.0,-0.0799999999999996,-1.7985769044120976,-1.9820829595532417,-112323.0,-3.25,0.399999999999998,8.992884522060487,9.910414797766208,561615.0,16.25,0.0,0.0,0.0,0.0,0.0,64.95999999999968,1460.4444463826233,1609.4513631572322,91206276.0,2639.0,0.0,0.0,0.0,0.0,0.0,0.0799999999999996,1.7985769044120976,1.9820829595532417,112323.0,3.25,0.7199999999999964,16.187192139708877,17.838746635979174,1010907.0,29.25,0.3199999999999984,7.19430761764839,7.928331838212967,449292.0,13.0,0.399999999999998,8.992884522060487,9.910414797766208,561615.0,16.25,-0.1599999999999992,-3.597153808824195,-3.9641659191064833,-224646.0,-6.5,0.0799999999999996,1.7985769044120976,1.9820829595532417,112323.0,3.25,0.3199999999999984,7.19430761764839,7.928331838212967,449292.0,13.0,0.0799999999999996,1.7985769044120976,1.9820829595532417,112323.0,3.25,0.399999999999998,8.992884522060487,9.910414797766208,561615.0,16.25,0.0,0.0,0.0,0.0,0.0,0.0,0.0,0.0,0.0,0.0,0.0687361604345098,1.545340883193432,1.7030096537795036,96508.14685606852,2.7924065176519743,0.4799999999999976,10.791461426472583,11.89249775731945,673938.0,19.5,0.0,0.0,0.0,0.0,0.0,0.0799999999999996,1.7985769044120976,1.9820829595532417,112323.0,3.25,0.0,0.0,0.0,0.0,0.0,0.0,0.0,0.0,0.0,0.0,0.0,0.0,0.0,0.0,0.0,-0.2399999999999988,-5.395730713236293,-5.946248878659725,-336969.0,-9.75,0.0,0.0,0.0,0.0,0.0,0.0,0.0,0.0,0.0,0.0,0.1599999999999992,3.597153808824195,3.9641659191064833,224646.0,6.5,0.0,0.0,0.0,0.0,0.0,0.799999999999996,17.985769044120975,19.820829595532416,1123230.0,32.5,0.0,0.0,0.0,0.0,0.0,0.0,0.0,0.0,0.0,0.0,-0.0012993676732415,-0.0292126585928992,-0.0321931815415803,-1824.3609395188855,-0.052786811725438,0.2423999999999987,5.449688020368655,6.005711367446322,340338.69,9.8475,0.4871199999999976,10.951534770965264,12.068903140719687,683934.7470000001,19.789250000000003,0.0799999999999996,1.7985769044120976,1.9820829595532417,112323.0,3.25,0.5199999999999974,11.690749878678634,12.883539237096072,730099.5,21.125,-0.2399999999999988,-5.395730713236293,-5.946248878659725,-336969.0,-9.75,0.4131999999999979,9.289649711288485,10.237458486092493,580148.295,16.78625,-0.4799999999999976,-10.791461426472583,-11.89249775731945,-673938.0,-19.5,-0.0799999999999996,-1.7985769044120976,-1.9820829595532417,-112323.0,-3.25,-0.1599999999999992,-3.597153808824195,-3.9641659191064833,-224646.0,-6.5,0.0464479408225319,1.044252420261328,1.1507959001334802,65214.65071261604,1.88694759591537,-0.4799999999999976,-10.791461426472583,-11.89249775731945,-673938.0,-19.5,0.0413515224703485,0.9296736659680904,1.0245268505007663,58059.08823046236,1.67990560035792
-0.0999999999999996,1.5644536635573882,0.9711095446928284,112598.0,5.75,3.25,262,-0.0028933092224231,0.0452644821282426,0.0280972020164289,3257.8083182640075,0.094032549728752,-0.0,0.0,0.0,0.0,0.0,-0.0,0.0,0.0,0.0,0.0,-0.0,0.0,0.0,0.0,0.0,-0.0,0.0,0.0,0.0,0.0,-9.429999999999962,147.5279804734617,91.57563006453373,10617991.4,306.475,-0.0999999999999996,1.5644536635573882,0.9711095446928284,112598.0,3.25,-0.0,0.0,0.0,0.0,0.0,-0.0,0.0,0.0,0.0,0.0,-0.0018341513820718,0.0286944484920109,0.0178116191354147,2065.2177731852166,0.0596099199173338,-0.1999999999999992,3.1289073271147765,1.9422190893856568,225196.0,6.5,-0.0,0.0,0.0,0.0,0.0,-0.0,0.0,0.0,0.0,0.0,-0.999999999999996,15.644536635573882,9.711095446928285,1125980.0,32.5,0.0999999999999996,-1.5644536635573882,-0.9711095446928284,-112598.0,-3.25,-0.0999999999999996,1.5644536635573882,0.9711095446928284,112598.0,3.25,0.2999999999999988,-4.693360990672165,-2.913328634078485,-337794.0,-9.75,0.2999999999999988,-4.693360990672165,-2.913328634078485,-337794.0,-9.75,0.1999999999999992,-3.1289073271147765,-1.9422190893856568,-225196.0,-6.5,0.2999999999999988,-4.693360990672165,-2.913328634078485,-337794.0,-9.75,-0.8999999999999965,14.080082972016497,8.739985902235455,1013382.0,29.25,0.3999999999999984,-6.257814654229553,-3.8844381787713136,-450392.0,-13.0,-61.89999999999976,968.3968177420234,601.1168081648608,69698162.0,2011.75,-0.0,0.0,0.0,0.0,0.0,-0.0,0.0,0.0,0.0,0.0,-1.299999999999995,20.337897626246047,12.624424081006769,1463774.0,42.25,-0.0999999999999996,1.5644536635573882,0.9711095446928284,112598.0,3.25,-0.0999999999999996,1.5644536635573882,0.9711095446928284,112598.0,3.25,0.3999999999999984,-6.257814654229553,-3.8844381787713136,-450392.0,-13.0,-0.3999999999999984,6.257814654229553,3.8844381787713136,450392.0,13.0,-0.1999999999999992,3.1289073271147765,1.9422190893856568,225196.0,6.5,-0.0,0.0,0.0,0.0,0.0,-0.3999999999999984,6.257814654229553,3.8844381787713136,450392.0,13.0,-0.0,0.0,0.0,0.0,0.0,-0.3999999999999984,6.257814654229553,3.8844381787713136,450392.0,13.0,-0.083956548986839,1.3134613064209617,0.8153100606059072,94533.39502820138,2.728587842072279,4.099999999999984,-64.14260020585291,-39.81549133240596,-4616518.0,-133.25,-0.0999999999999996,1.5644536635573882,0.9711095446928284,112598.0,3.25,-0.0,0.0,0.0,0.0,0.0,-0.0999999999999996,1.5644536635573882,0.9711095446928284,112598.0,3.25,0.0999999999999996,-1.5644536635573882,-0.9711095446928284,-112598.0,-3.25,0.1999999999999992,-3.1289073271147765,-1.9422190893856568,-225196.0,-6.5,0.499999999999998,-7.822268317786941,-4.8555477234641415,-562990.0,-16.25,-0.0,0.0,0.0,0.0,0.0,-0.0,0.0,0.0,0.0,0.0,-0.2999999999999988,4.693360990672165,2.913328634078485,337794.0,9.75,-0.0,0.0,0.0,0.0,0.0,-1.1999999999999953,18.77344396268866,11.65331453631394,1351176.0,39.0,0.1999999999999992,-3.1289073271147765,-1.9422190893856568,-225196.0,-6.5,-0.0,0.0,0.0,0.0,0.0,0.0685666135641615,-1.0726928978817667,-0.665856928794223,-77204.63554097494,-2.22841494083526,-0.2929999999999989,4.583849234223147,2.845350965949988,329912.14,9.5225,-0.7067999999999972,11.05755849402362,6.86380226188891,795842.664,22.971,-0.499999999999998,7.822268317786941,4.8555477234641415,562990.0,16.25,-0.6599999999999974,10.325394179478762,6.409322994972667,743146.7999999999,21.45,0.3999999999999984,-6.257814654229553,-3.8844381787713136,-450392.0,-13.0,-0.8777999999999966,13.732774258706756,8.524399583313649,988385.244,28.5285,0.499999999999998,-7.822268317786941,-4.8555477234641415,-562990.0,-16.25,-0.0,0.0,0.0,0.0,0.0,-0.0,0.0,0.0,0.0,0.0,-0.0084538344418233,0.1322563226361827,0.0820959931570769,9518.848504804337,0.2747496193592611,0.3999999999999984,-6.257814654229553,-3.8844381787713136,-450392.0,-13.0,-0.0389452015051275,0.6092796317267777,0.3782005690161503,43851.51799074371,1.2657190489166508
0.54,2.466523260096173,4.44637727604245,113240.0,6.48,3.5,308,0.0183967935871743,0.0840298505443583,0.1514797869593616,3857.875751502996,0.1192384769539074,-1.08,-4.933046520192346,-8.8927545520849,-226480.0,-7.0,0.0,0.0,0.0,0.0,0.0,-1.08,-4.933046520192346,-8.8927545520849,-226480.0,-7.0,0.0,0.0,0.0,0.0,0.0,49.41,225.68687829879983,406.8435207578842,10361460.0,320.25,0.54,2.466523260096173,4.44637727604245,113240.0,3.5,0.54,2.466523260096173,4.44637727604245,113240.0,3.5,0.0,0.0,0.0,0.0,0.0,0.0129859719438877,0.059315188619547,0.1069269084419023,2723.2064128256434,0.0841683366733464,0.0,0.0,0.0,0.0,0.0,-2.16,-9.866093040384692,-17.7855091041698,-452960.0,-14.0,0.0,0.0,0.0,0.0,0.0,4.32,19.732186080769385,35.5710182083396,905920.0,28.0,-0.54,-2.466523260096173,-4.44637727604245,-113240.0,-3.5,0.54,2.466523260096173,4.44637727604245,113240.0,3.5,-0.54,-2.466523260096173,-4.44637727604245,-113240.0,-3.5,0.0,0.0,0.0,0.0,0.0,0.0,0.0,0.0,0.0,0.0,-0.54,-2.466523260096173,-4.44637727604245,-113240.0,-3.5,3.24,14.79913956057704,26.6782636562547,679440.0,21.0,-1.62,-7.39956978028852,-13.33913182812735,-339720.0,-10.5,403.38000000000005,1842.4928752918413,3321.4438252037103,84590280.0,2614.5,-0.54,-2.466523260096173,-4.44637727604245,-113240.0,-3.5,0.54,2.466523260096173,4.44637727604245,113240.0,3.5,1.62,7.39956978028852,13.33913182812735,339720.0,10.5,0.0,0.0,0.0,0.0,0.0,3.78,17.26566282067321,31.12464093229715,792680.0,24.5,-1.62,-7.39956978028852,-13.33913182812735,-339720.0,-10.5,1.08,4.933046520192346,8.8927545520849,226480.0,7.0,1.62,7.39956978028852,13.33913182812735,339720.0,10.5,0.54,2.466523260096173,4.44637727604245,113240.0,3.5,0.54,2.466523260096173,4.44637727604245,113240.0,3.5,0.0,0.0,0.0,0.0,0.0,1.08,4.933046520192346,8.8927545520849,226480.0,7.0,0.4558470858575308,2.0821434079901056,3.753459488716846,95592.82222686442,2.9545644453728848,-16.200000000000003,-73.99569780288519,-133.3913182812735,-3397200.0,-105.0,0.54,2.466523260096173,4.44637727604245,113240.0,3.5,0.0,0.0,0.0,0.0,0.0,0.0,0.0,0.0,0.0,0.0,-0.54,-2.466523260096173,-4.44637727604245,-113240.0,-3.5,0.0,0.0,0.0,0.0,0.0,-1.62,-7.39956978028852,-13.33913182812735,-339720.0,-10.5,-1.08,-4.933046520192346,-8.8927545520849,-226480.0,-7.0,0.0,0.0,0.0,0.0,0.0,0.54,2.466523260096173,4.44637727604245,113240.0,3.5,-0.54,-2.466523260096173,-4.44637727604245,-113240.0,-3.5,4.32,19.732186080769385,35.5710182083396,905920.0,28.0,-2.7,-12.332616300480865,-22.23188638021225,-566200.0,-17.5,0.0,0.0,0.0,0.0,0.0,-0.4835935166785764,-2.2088789950359544,-3.9819244877797737,-101411.35153459628,-3.1344024229166987,1.8738,8.558835712533721,15.428929147867304,392942.8000000001,12.145,2.6935200000000004,12.303018021359712,22.178529852899743,564841.12,17.458000000000002,0.54,2.466523260096173,4.44637727604245,113240.0,3.5,3.51,16.032401190625126,28.901452294275927,736060.0,22.75,0.0,0.0,0.0,0.0,0.0,2.9500200000000003,13.474616569905391,24.290559059019905,618630.12,19.1205,-5.4,-24.66523260096173,-44.4637727604245,-1132400.0,-35.0,0.0,0.0,0.0,0.0,0.0,-0.54,-2.466523260096173,-4.44637727604245,-113240.0,-3.5,0.5661880073683435,2.5861405365954124,4.6620101665377,118731.72213776152,3.669737084794819,-2.7,-12.332616300480865,-22.23188638021225,-566200.0,-17.5,0.3084541046354274,1.4089059699174455,2.5398209658388606,64683.968164658894,1.999239567081474
0.6599999999999997,2.622166383794242,2.449012330647448,113923.0,7.18,4.25,364,0.0190353058180009,0.0756268773048561,0.0706328767665597,3285.695673794125,0.1225758329189455,-0.6599999999999997,-2.622166383794242,-2.449012330647448,-113923.0,-4.25,-0.6599999999999997,-2.622166383794242,-2.449012330647448,-113923.0,-4.25,-0.6599999999999997,-2.622166383794242,-2.449012330647448,-113923.0,-4.25,0.0,0.0,0.0,0.0,0.0,61.24799999999997,243.33704041610565,227.2683442840832,10572054.4,394.4,0.0,0.0,0.0,0.0,0.0,0.0,0.0,0.0,0.0,0.0,-0.6599999999999997,-2.622166383794242,-2.449012330647448,-113923.0,-4.25,0.0127996021879661,0.0508525554291274,0.0474945205844109,2209.347090999501,0.0824216807558428,0.6599999999999997,2.622166383794242,2.449012330647448,113923.0,4.25,-1.979999999999999,-7.866499151382726,-7.347036991942343,-341769.0,-12.75,0.0,0.0,0.0,0.0,0.0,6.599999999999997,26.221663837942423,24.49012330647448,1139230.0,42.5,-1.3199999999999994,-5.244332767588484,-4.898024661294896,-227846.0,-8.5,0.6599999999999997,2.622166383794242,2.449012330647448,113923.0,4.25,-3.2999999999999985,-13.110831918971211,-12.24506165323724,-569615.0,-21.25,0.0,0.0,0.0,0.0,0.0,-0.6599999999999997,-2.622166383794242,-2.449012330647448,-113923.0,-4.25,-0.6599999999999997,-2.622166383794242,-2.449012330647448,-113923.0,-4.25,3.2999999999999985,13.110831918971211,12.24506165323724,569615.0,21.25,-0.6599999999999997,-2.622166383794242,-2.449012330647448,-113923.0,-4.25,456.0599999999998,1811.9169712018213,1692.2675204773864,78720793.0,2936.75,-0.6599999999999997,-2.622166383794242,-2.449012330647448,-113923.0,-4.25,1.3199999999999994,5.244332767588484,4.898024661294896,227846.0,8.5,2.639999999999999,10.488665535176969,9.796049322589791,455692.0,17.0,0.0,0.0,0.0,0.0,0.0,3.2999999999999985,13.110831918971211,12.24506165323724,569615.0,21.25,-1.3199999999999994,-5.244332767588484,-4.898024661294896,-227846.0,-8.5,0.6599999999999997,2.622166383794242,2.449012330647448,113923.0,4.25,1.979999999999999,7.866499151382726,7.347036991942343,341769.0,12.75,0.0,0.0,0.0,0.0,0.0,0.0,0.0,0.0,0.0,0.0,0.0,0.0,0.0,0.0,0.0,0.0,0.0,0.0,0.0,0.0,0.5549404637560056,2.204767013739675,2.0591758159298053,95788.60977647796,3.573480259034886,-25.079999999999988,-99.6423225841812,-93.06246856460302,-4329074.0,-161.5,0.6599999999999997,2.622166383794242,2.449012330647448,113923.0,4.25,0.0,0.0,0.0,0.0,0.0,0.0,0.0,0.0,0.0,0.0,-0.6599999999999997,-2.622166383794242,-2.449012330647448,-113923.0,-4.25,0.0,0.0,0.0,0.0,0.0,-1.3199999999999994,-5.244332767588484,-4.898024661294896,-227846.0,-8.5,0.0,0.0,0.0,0.0,0.0,0.0,0.0,0.0,0.0,0.0,0.6599999999999997,2.622166383794242,2.449012330647448,113923.0,4.25,0.0,0.0,0.0,0.0,0.0,5.939999999999998,23.599497454148175,22.04111097582703,1025307.0,38.25,-5.279999999999998,-20.977331070353937,-19.592098645179583,-911384.0,-34.0,0.0,0.0,0.0,0.0,0.0,-0.7768796988817536,-3.0865270161514067,-2.882709033319836,-134097.6756601607,-5.002634424617355,2.7257999999999987,10.82954716507022,10.11442092557396,470501.99,17.5525,4.346759999999998,17.26958780366888,16.12919520964409,750296.878,27.9905,1.3199999999999994,5.244332767588484,4.898024661294896,227846.0,8.5,4.025999999999998,15.995214941144877,14.93897521694943,694930.2999999999,25.925,0.0,0.0,0.0,0.0,0.0,4.004219999999998,15.908683450479668,14.858157810038067,691170.841,25.784750000000003,-6.599999999999997,-26.221663837942423,-24.49012330647448,-1139230.0,-42.5,0.0,0.0,0.0,0.0,0.0,-1.3199999999999994,-5.244332767588484,-4.898024661294896,-227846.0,-8.5,0.2479958200523068,0.985282276761584,0.9202194261471596,42806.7087997257,1.5969427806398555,-2.639999999999999,-10.488665535176969,-9.796049322589791,-455692.0,-17.0,0.3319328973098833,1.3187625530324285,1.2316784219082388,57295.1385761119,2.1374466872227345
0.0700000000000002,2.793554251370104,1.4852731474204135,114607.0,7.3,4.25,414,0.0017435207001009,0.0695802809159835,0.0369943496833087,2854.566812521027,0.1058566139347017,0.0,0.0,0.0,0.0,0.0,-0.0700000000000002,-2.793554251370104,-1.4852731474204135,-114607.0,-4.25,-0.0700000000000002,-2.793554251370104,-1.4852731474204135,-114607.0,-4.25,0.0,0.0,0.0,0.0,0.0,6.230000000000018,248.62632837193928,132.1893101204168,10200023.0,378.25,0.0700000000000002,2.793554251370104,1.4852731474204135,114607.0,4.25,0.0,0.0,0.0,0.0,0.0,-0.0700000000000002,-2.793554251370104,-1.4852731474204135,-114607.0,-4.25,0.0014372265230562,0.0573567180523647,0.0304953423065112,2353.0888589700357,0.0872601817569838,0.0700000000000002,2.793554251370104,1.4852731474204135,114607.0,4.25,-0.0700000000000002,-2.793554251370104,-1.4852731474204135,-114607.0,-4.25,0.0,0.0,0.0,0.0,0.0,0.6300000000000018,25.141988262330937,13.36745832678372,1031463.0,38.25,-0.4900000000000014,-19.55487975959073,-10.396912031942897,-802249.0,-29.75,0.0,0.0,0.0,0.0,0.0,-0.2800000000000008,-11.174217005480417,-5.941092589681654,-458428.0,-17.0,-0.2100000000000006,-8.380662754110313,-4.455819442261241,-343821.0,-12.75,0.0,0.0,0.0,0.0,0.0,-0.0700000000000002,-2.793554251370104,-1.4852731474204135,-114607.0,-4.25,0.6300000000000018,25.141988262330937,13.36745832678372,1031463.0,38.25,-0.1400000000000004,-5.587108502740208,-2.970546294840827,-229214.0,-8.5,43.96000000000013,1754.3520698604254,932.7515365800195,71973196.0,2669.0,-0.0700000000000002,-2.793554251370104,-1.4852731474204135,-114607.0,-4.25,0.0,0.0,0.0,0.0,0.0,0.4900000000000014,19.55487975959073,10.396912031942897,802249.0,29.75,0.0,0.0,0.0,0.0,0.0,0.2100000000000006,8.380662754110313,4.455819442261241,343821.0,12.75,-0.4900000000000014,-19.55487975959073,-10.396912031942897,-802249.0,-29.75,0.0700000000000002,2.793554251370104,1.4852731474204135,114607.0,4.25,0.2100000000000006,8.380662754110313,4.455819442261241,343821.0,12.75,0.2800000000000008,11.174217005480417,5.941092589681654,458428.0,17.0,0.0,0.0,0.0,0.0,0.0,-0.2100000000000006,-8.380662754110313,-4.455819442261241,-343821.0,-12.75,0.0,0.0,0.0,0.0,0.0,0.0595884687695844,2.3780517180558127,1.2643593222766212,97560.7948610821,3.617871318153332,-0.9100000000000026,-36.31620526781136,-19.30855091646537,-1489891.0,-55.25,0.0700000000000002,2.793554251370104,1.4852731474204135,114607.0,4.25,0.0,0.0,0.0,0.0,0.0,0.0,0.0,0.0,0.0,0.0,0.0,0.0,0.0,0.0,0.0,-0.0700000000000002,-2.793554251370104,-1.4852731474204135,-114607.0,-4.25,-0.2100000000000006,-8.380662754110313,-4.455819442261241,-343821.0,-12.75,0.0,0.0,0.0,0.0,0.0,0.0,0.0,0.0,0.0,0.0,0.1400000000000004,5.587108502740208,2.970546294840827,229214.0,8.5,-0.0700000000000002,-2.793554251370104,-1.4852731474204135,-114607.0,-4.25,0.9800000000000028,39.10975951918146,20.79382406388579,1604498.0,59.5,0.0,0.0,0.0,0.0,0.0,0.0,0.0,0.0,0.0,0.0,-0.1025942396419611,-4.09432249025547,-2.176863846003133,-167971.68603780292,-6.228935978261907,0.2940000000000008,11.732927855754438,6.238147219165737,481349.4,17.85,0.3833200000000011,15.29750308050269,8.133355755274184,627587.932,23.273,0.2800000000000008,11.174217005480417,5.941092589681654,458428.0,17.0,0.4270000000000012,17.040680933357635,9.060166199264522,699102.7,25.925,-0.0700000000000002,-2.793554251370104,-1.4852731474204135,-114607.0,-4.25,0.5292700000000015,21.12206369460936,11.230150267645746,866543.527,32.13425,-0.9100000000000026,-36.31620526781136,-19.30855091646537,-1489891.0,-55.25,0.0,0.0,0.0,0.0,0.0,-0.0700000000000002,-2.793554251370104,-1.4852731474204135,-114607.0,-4.25,0.0004250622707829,0.0169633501948975,0.0090190510967929,695.9301666803602,0.025807352154681,-0.4200000000000012,-16.761325508220626,-8.911638884522482,-687642.0,-25.5,0.0333741303139747,1.3318920517769122,0.7081385653408031,54641.55646990996,2.0262864833484637
0.1399999999999996,2.3564841015426485,3.135166826560085,114899.0,7.24,4.75,455,0.0042792792792792,0.072028954197732,0.0958303888427308,3512.035070785063,0.1451898326898323,-0.1399999999999996,-2.3564841015426485,-3.135166826560085,-114899.0,-4.75,0.0,0.0,0.0,0.0,0.0,-0.2799999999999992,-4.712968203085297,-6.27033365312017,-229798.0,-9.5,0.0,0.0,0.0,0.0,0.0,12.837999999999964,216.0895921114609,287.4947979955598,10536238.3,435.575,0.2799999999999992,4.712968203085297,6.27033365312017,229798.0,9.5,0.1399999999999996,2.3564841015426485,3.135166826560085,114899.0,4.75,-0.1399999999999996,-2.3564841015426485,-3.135166826560085,-114899.0,-4.75,0.0025225225225225,0.0424591730007684,0.0564894923704519,2070.2522522522504,0.0855855855855855,0.0,0.0,0.0,0.0,0.0,-0.1399999999999996,-2.3564841015426485,-3.135166826560085,-114899.0,-4.75,0.0,0.0,0.0,0.0,0.0,0.9799999999999972,16.49538871079854,21.9461677859206,804293.0,33.25,-0.699999999999998,-11.782420507713242,-15.675834132800423,-574495.0,-23.75,0.2799999999999992,4.712968203085297,6.27033365312017,229798.0,9.5,-0.2799999999999992,-4.712968203085297,-6.27033365312017,-229798.0,-9.5,0.0,0.0,0.0,0.0,0.0,0.0,0.0,0.0,0.0,0.0,-0.1399999999999996,-2.3564841015426485,-3.135166826560085,-114899.0,-4.75,0.699999999999998,11.782420507713242,15.675834132800423,574495.0,23.75,-0.2799999999999992,-4.712968203085297,-6.27033365312017,-229798.0,-9.5,91.83999999999972,1545.8535706119774,2056.669438223416,75373744.0,3116.0,-0.9799999999999972,-16.49538871079854,-21.9461677859206,-804293.0,-33.25,0.1399999999999996,2.3564841015426485,3.135166826560085,114899.0,4.75,0.9799999999999972,16.49538871079854,21.9461677859206,804293.0,33.25,0.0,0.0,0.0,0.0,0.0,0.4199999999999988,7.069452304627946,9.405500479680256,344697.0,14.25,-0.4199999999999988,-7.069452304627946,-9.405500479680256,-344697.0,-14.25,0.1399999999999996,2.3564841015426485,3.135166826560085,114899.0,4.75,0.8399999999999976,14.138904609255892,18.811000959360516,689394.0,28.5,0.0,0.0,0.0,0.0,0.0,0.0,0.0,0.0,0.0,0.0,-0.2799999999999992,-4.712968203085297,-6.27033365312017,-229798.0,-9.5,0.0,0.0,0.0,0.0,0.0,0.1176561520785457,1.9803917987269848,2.634797606695472,96561.24441194904,3.991905159807813,-5.459999999999984,-91.90287996016328,-122.27150623584332,-4481061.0,-185.25,0.0,0.0,0.0,0.0,0.0,0.0,0.0,0.0,0.0,0.0,0.0,0.0,0.0,0.0,0.0,0.0,0.0,0.0,0.0,0.0,0.0,0.0,0.0,0.0,0.0,-0.4199999999999988,-7.069452304627946,-9.405500479680256,-344697.0,-14.25,-0.1399999999999996,-2.3564841015426485,-3.135166826560085,-114899.0,-4.75,0.0,0.0,0.0,0.0,0.0,0.0,0.0,0.0,0.0,0.0,0.0,0.0,0.0,0.0,0.0,1.9599999999999944,32.99077742159708,43.8923355718412,1608586.0,66.5,0.0,0.0,0.0,0.0,0.0,-0.1399999999999996,-2.3564841015426485,-3.135166826560085,-114899.0,-4.75,-0.2142381616753562,-3.606063013797871,-4.797659839055678,-175826.78955954875,-7.268794771128178,0.6075999999999983,10.227141000695095,13.606624027270769,498661.66,20.615,0.713579999999998,12.01099946556288,15.979945314976757,585640.2030000001,24.21075,0.1399999999999996,2.3564841015426485,3.135166826560085,114899.0,4.75,0.8399999999999976,14.138904609255892,18.811000959360516,689394.0,28.5,-0.2799999999999992,-4.712968203085297,-6.27033365312017,-229798.0,-9.5,0.7590799999999978,12.77685679856424,16.99887453360878,622982.3779999999,25.7545,-1.2599999999999965,-21.20835691388384,-28.21650143904077,-1034091.0,-42.75,0.0,0.0,0.0,0.0,0.0,-0.1399999999999996,-2.3564841015426485,-3.135166826560085,-114899.0,-4.75,0.0663664663458935,1.1170823058547412,1.4862138834547305,54467.43297626315,2.2517193938785365,-0.9799999999999972,-16.49538871079854,-21.9461677859206,-804293.0,-33.25,0.0399405882793162,0.6722811520462117,0.8944314814757657,32779.52609075121,1.3551271023339475
0.4500000000000002,2.2118671529060787,2.0151614847377384,115254.0,7.46,4.75,497,0.0098871733966745,0.048598031269314,0.0442761133820048,2532.302850356291,0.1043646080760093,0.0,0.0,0.0,0.0,0.0,0.0,0.0,0.0,0.0,0.0,-1.8000000000000007,-8.847468611624315,-8.060645938950953,-461016.0,-19.0,0.0,0.0,0.0,0.0,0.0,41.17500000000002,202.3858444909062,184.38727585350307,10545741.0,434.625,0.0,0.0,0.0,0.0,0.0,0.4500000000000002,2.2118671529060787,2.0151614847377384,115254.0,4.75,-0.4500000000000002,-2.2118671529060787,-2.0151614847377384,-115254.0,-4.75,0.0100207838479809,0.0492547614216019,0.0448744392385183,2566.523159144884,0.1057749406175768,0.0,0.0,0.0,0.0,0.0,0.0,0.0,0.0,0.0,0.0,0.0,0.0,0.0,0.0,0.0,2.250000000000001,11.059335764530394,10.075807423688692,576270.0,23.75,-1.8000000000000007,-8.847468611624315,-8.060645938950953,-461016.0,-19.0,0.0,0.0,0.0,0.0,0.0,-0.4500000000000002,-2.2118671529060787,-2.0151614847377384,-115254.0,-4.75,0.0,0.0,0.0,0.0,0.0,0.0,0.0,0.0,0.0,0.0,-0.4500000000000002,-2.2118671529060787,-2.0151614847377384,-115254.0,-4.75,2.700000000000001,13.271202917436472,12.09096890842643,691524.0,28.5,-1.8000000000000007,-8.847468611624315,-8.060645938950953,-461016.0,-19.0,304.65000000000015,1497.4340625174152,1364.264325167449,78026958.0,3215.75,-1.3500000000000003,-6.635601458718236,-6.045484454213215,-345762.0,-14.25,0.0,0.0,0.0,0.0,0.0,2.250000000000001,11.059335764530394,10.075807423688692,576270.0,23.75,0.0,0.0,0.0,0.0,0.0,0.9000000000000004,4.423734305812157,4.030322969475477,230508.0,9.5,-0.9000000000000004,-4.423734305812157,-4.030322969475477,-230508.0,-9.5,0.4500000000000002,2.2118671529060787,2.0151614847377384,115254.0,4.75,3.6000000000000014,17.69493722324863,16.121291877901907,922032.0,38.0,0.4500000000000002,2.2118671529060787,2.0151614847377384,115254.0,4.75,0.4500000000000002,2.2118671529060787,2.0151614847377384,115254.0,4.75,-1.3500000000000003,-6.635601458718236,-6.045484454213215,-345762.0,-14.25,0.0,0.0,0.0,0.0,0.0,0.3857008564863173,1.8958201229107248,1.7272211347146316,98785.70336327556,4.071286818466681,0.4500000000000002,2.2118671529060787,2.0151614847377384,115254.0,4.75,0.0,0.0,0.0,0.0,0.0,0.4500000000000002,2.2118671529060787,2.0151614847377384,115254.0,4.75,0.0,0.0,0.0,0.0,0.0,-0.4500000000000002,-2.2118671529060787,-2.0151614847377384,-115254.0,-4.75,0.0,0.0,0.0,0.0,0.0,-0.9000000000000004,-4.423734305812157,-4.030322969475477,-230508.0,-9.5,0.0,0.0,0.0,0.0,0.0,0.0,0.0,0.0,0.0,0.0,0.0,0.0,0.0,0.0,0.0,-0.4500000000000002,-2.2118671529060787,-2.0151614847377384,-115254.0,-4.75,4.950000000000002,24.330538681966864,22.166776332115123,1267794.0,52.25,0.0,0.0,0.0,0.0,0.0,-0.4500000000000002,-2.2118671529060787,-2.0151614847377384,-115254.0,-4.75,-0.5840006622549206,-2.8705152935934564,-2.615234759194329,-149574.24961673023,-6.164451434913049,2.155500000000001,10.594843662420118,9.652623511893768,552066.66,22.7525,2.6608500000000013,13.078770475133645,11.915649859254248,681496.902,28.08675,0.4500000000000002,2.2118671529060787,2.0151614847377384,115254.0,4.75,2.655000000000001,13.050016202145866,11.889452759952658,679998.6000000001,28.025,0.0,0.0,0.0,0.0,0.0,3.3151500000000014,16.294825315459082,14.845694658062918,849076.218,34.99325,-2.250000000000001,-11.059335764530394,-10.075807423688692,-576270.0,-23.75,0.0,0.0,0.0,0.0,0.0,-0.4500000000000002,-2.2118671529060787,-2.0151614847377384,-115254.0,-4.75,0.0954218862882677,0.469023413220796,0.4273122445536469,24439.45351615112,1.0072310219317144,-4.500000000000002,-22.118671529060787,-20.151614847377385,-1152540.0,-47.5,0.1038250713802722,0.5103272556314514,0.4649428555459357,26591.677281915323,1.0959313090139846
0.4400000000000004,2.722795630497512,3.018058580194712,115872.0,7.96,5.5,546,0.0125239616613418,0.0775004274727723,0.0859046589773688,3298.1283764159057,0.1565495207667726,-0.4400000000000004,-2.722795630497512,-3.018058580194712,-115872.0,-5.5,-0.4400000000000004,-2.722795630497512,-3.018058580194712,-115872.0,-5.5,-0.8800000000000008,-5.445591260995024,-6.036117160389424,-231744.0,-11.0,0.0,0.0,0.0,0.0,0.0,40.30400000000003,249.40807975357208,276.4541659458356,10613875.2,503.8,0.4400000000000004,2.722795630497512,3.018058580194712,115872.0,5.5,0.0,0.0,0.0,0.0,0.0,-0.8800000000000008,-5.445591260995024,-6.036117160389424,-231744.0,-11.0,0.009329073482428,0.0577299102603304,0.0639902051566114,2456.76909671797,0.116613418530351,0.0,0.0,0.0,0.0,0.0,-0.4400000000000004,-2.722795630497512,-3.018058580194712,-115872.0,-5.5,0.0,0.0,0.0,0.0,0.0,3.960000000000004,24.505160674477608,27.16252722175241,1042848.0,49.5,-0.8800000000000008,-5.445591260995024,-6.036117160389424,-231744.0,-11.0,0.0,0.0,0.0,0.0,0.0,-0.4400000000000004,-2.722795630497512,-3.018058580194712,-115872.0,-5.5,0.0,0.0,0.0,0.0,0.0,0.0,0.0,0.0,0.0,0.0,-0.8800000000000008,-5.445591260995024,-6.036117160389424,-231744.0,-11.0,3.0800000000000027,19.059569413482585,21.126410061362986,811104.0,38.5,-0.8800000000000008,-5.445591260995024,-6.036117160389424,-231744.0,-11.0,284.24000000000024,1758.9259773013928,1949.665842805784,74853312.0,3553.0,-0.8800000000000008,-5.445591260995024,-6.036117160389424,-231744.0,-11.0,0.0,0.0,0.0,0.0,0.0,3.0800000000000027,19.059569413482585,21.126410061362986,811104.0,38.5,0.0,0.0,0.0,0.0,0.0,2.200000000000002,13.61397815248756,15.09029290097356,579360.0,27.5,-0.8800000000000008,-5.445591260995024,-6.036117160389424,-231744.0,-11.0,0.4400000000000004,2.722795630497512,3.018058580194712,115872.0,5.5,2.6400000000000023,16.336773782985073,18.108351481168278,695232.0,33.0,0.4400000000000004,2.722795630497512,3.018058580194712,115872.0,5.5,0.0,0.0,0.0,0.0,0.0,-0.4400000000000004,-2.722795630497512,-3.018058580194712,-115872.0,-5.5,0.8800000000000008,5.445591260995024,6.036117160389424,231744.0,11.0,0.3723501148945063,2.3041665132954714,2.554032861576933,98056.71025694592,4.654376436181325,-11.00000000000001,-68.06989076243781,-75.4514645048678,-2896800.0,-137.5,0.0,0.0,0.0,0.0,0.0,0.0,0.0,0.0,0.0,0.0,0.4400000000000004,2.722795630497512,3.018058580194712,115872.0,5.5,-0.4400000000000004,-2.722795630497512,-3.018058580194712,-115872.0,-5.5,0.0,0.0,0.0,0.0,0.0,-1.3200000000000012,-8.168386891492537,-9.054175740584135,-347616.0,-16.5,0.0,0.0,0.0,0.0,0.0,0.0,0.0,0.0,0.0,0.0,0.0,0.0,0.0,0.0,0.0,-0.4400000000000004,-2.722795630497512,-3.018058580194712,-115872.0,-5.5,5.720000000000005,35.396343196467654,39.23476154253126,1506336.0,71.5,0.0,0.0,0.0,0.0,0.0,-0.4400000000000004,-2.722795630497512,-3.018058580194712,-115872.0,-5.5,-0.5405454042603086,-3.344987874557905,-3.70772203480146,-142350.17518738733,-6.756817553253852,2.3012000000000024,14.24022114750199,15.784446374418346,606010.56,28.765,2.377760000000002,14.713987587208557,16.309588567372224,626172.288,29.722,0.8800000000000008,5.445591260995024,6.036117160389424,231744.0,11.0,2.464000000000002,15.247655530786066,16.90112804909039,648883.2,30.8,-0.8800000000000008,-5.445591260995024,-6.036117160389424,-231744.0,-11.0,2.4213200000000024,14.98354435462781,16.608376366811502,637643.616,30.2665,0.0,0.0,0.0,0.0,0.0,-0.8800000000000008,-5.445591260995024,-6.036117160389424,-231744.0,-11.0,-0.4400000000000004,-2.722795630497512,-3.018058580194712,-115872.0,-5.5,0.2325647757149608,1.439150807100747,1.5952139018127176,61244.876571918,2.907059696437008,-3.0800000000000027,-19.059569413482585,-21.126410061362986,-811104.0,-38.5,0.1781488328142158,1.1024155990108595,1.2219627577877654,46914.68535420181,2.226860410177696
0.3099999999999996,2.6996475396623545,3.065722554054615,116174.0,7.81,5.5,581,0.0096333126165319,0.0838920925936094,0.0952679476089065,3610.1305158483497,0.1709136109384709,0.0,0.0,0.0,0.0,0.0,0.0,0.0,0.0,0.0,0.0,0.0,0.0,0.0,0.0,0.0,0.0,0.0,0.0,0.0,0.0,29.480999999999963,256.7364810218899,291.5502148905939,11048147.4,523.05,0.0,0.0,0.0,0.0,0.0,0.3099999999999996,2.6996475396623545,3.065722554054615,116174.0,5.5,0.0,0.0,0.0,0.0,0.0,0.0071928734203438,0.0626394291365617,0.0711334008813168,2695.5641185001014,0.1276154961673916,0.0,0.0,0.0,0.0,0.0,0.0,0.0,0.0,0.0,0.0,0.0,0.0,0.0,0.0,0.0,2.1699999999999973,18.89753277763648,21.460057878382305,813218.0,38.5,-1.8599999999999977,-16.197885237974127,-18.39433532432769,-697044.0,-33.0,0.0,0.0,0.0,0.0,0.0,-1.2399999999999984,-10.798590158649418,-12.26289021621846,-464696.0,-22.0,-0.3099999999999996,-2.6996475396623545,-3.065722554054615,-116174.0,-5.5,0.0,0.0,0.0,0.0,0.0,0.0,0.0,0.0,0.0,0.0,1.549999999999998,13.498237698311772,15.328612770273075,580870.0,27.5,-0.3099999999999996,-2.6996475396623545,-3.065722554054615,-116174.0,-5.5,194.98999999999972,1698.078302447621,1928.339486500353,73073446.0,3459.5,-0.6199999999999992,-5.399295079324709,-6.13144510810923,-232348.0,-11.0,0.6199999999999992,5.399295079324709,6.13144510810923,232348.0,11.0,1.8599999999999977,16.197885237974127,18.39433532432769,697044.0,33.0,0.0,0.0,0.0,0.0,0.0,1.549999999999998,13.498237698311772,15.328612770273075,580870.0,27.5,-0.6199999999999992,-5.399295079324709,-6.13144510810923,-232348.0,-11.0,0.6199999999999992,5.399295079324709,6.13144510810923,232348.0,11.0,2.1699999999999973,18.89753277763648,21.460057878382305,813218.0,38.5,0.3099999999999996,2.6996475396623545,3.065722554054615,116174.0,5.5,0.0,0.0,0.0,0.0,0.0,0.0,0.0,0.0,0.0,0.0,0.6199999999999992,5.399295079324709,6.13144510810923,232348.0,11.0,0.2606538541884266,2.269914632784829,2.577717418021689,97681.29308543971,4.624503864633382,-11.779999999999983,-102.58660650716948,-116.49745705407535,-4414612.0,-209.0,0.3099999999999996,2.6996475396623545,3.065722554054615,116174.0,5.5,0.0,0.0,0.0,0.0,0.0,0.0,0.0,0.0,0.0,0.0,0.0,0.0,0.0,0.0,0.0,-0.3099999999999996,-2.6996475396623545,-3.065722554054615,-116174.0,-5.5,-0.9299999999999988,-8.098942618987063,-9.197167662163846,-348522.0,-16.5,0.0,0.0,0.0,0.0,0.0,0.0,0.0,0.0,0.0,0.0,0.3099999999999996,2.6996475396623545,3.065722554054615,116174.0,5.5,0.0,0.0,0.0,0.0,0.0,4.959999999999994,43.19436063459767,49.05156086487384,1858784.0,88.0,0.0,0.0,0.0,0.0,0.0,0.0,0.0,0.0,0.0,0.0,-0.3738112131413321,-3.255350070500641,-3.6967789260835495,-140087.56088864896,-6.632134426701063,1.7173999999999978,14.956047369729443,16.984102949462567,643603.96,30.47,1.8640299999999976,16.23298065598974,18.4341897175304,698554.262,33.0715,0.3099999999999996,2.6996475396623545,3.065722554054615,116174.0,5.5,1.704999999999998,14.84806146814295,16.861474047300383,638957.0,30.25,0.0,0.0,0.0,0.0,0.0,1.8736399999999973,16.31666972971927,18.52922711670609,702155.656,33.242,-1.8599999999999977,-16.197885237974127,-18.39433532432769,-697044.0,-33.0,-0.6199999999999992,-5.399295079324709,-6.13144510810923,-232348.0,-11.0,-0.3099999999999996,-2.6996475396623545,-3.065722554054615,-116174.0,-5.5,0.1702889255078269,1.482967996061134,1.6840599988228129,63816.59881273005,3.0212551299775785,-3.7199999999999953,-32.395770475948254,-36.78867064865538,-1394088.0,-66.0,0.1332921527819973,1.1607801042394137,1.3181830937492365,49951.87921708315,2.3648607751644715
0.2199999999999997,2.233822742686966,0.6176870938115719,116504.0,7.78,6.0,624,0.0064523137084509,0.0655151141131306,0.0181159586496984,3416.9107104062546,0.1759721920486638,0.0,0.0,0.0,0.0,0.0,-0.2199999999999997,-2.233822742686966,-0.6176870938115719,-116504.0,-6.0,-0.2199999999999997,-2.233822742686966,-0.6176870938115719,-116504.0,-6.0,-0.2199999999999997,-2.233822742686966,-0.6176870938115719,-116504.0,-6.0,21.47199999999997,218.02109968624788,60.28626035600942,11370790.4,585.5999999999999,0.0,0.0,0.0,0.0,0.0,0.4399999999999994,4.467645485373932,1.235374187623144,233008.0,12.0,-0.2199999999999997,-2.233822742686966,-0.6176870938115719,-116504.0,-6.0,0.0033456441451227,0.033970799910512,0.0093934600405843,1771.7314794699023,0.0912448403215289,0.0,0.0,0.0,0.0,0.0,-0.4399999999999994,-4.467645485373932,-1.235374187623144,-233008.0,-12.0,0.0,0.0,0.0,0.0,0.0,2.199999999999997,22.33822742686966,6.176870938115719,1165040.0,60.0,-1.979999999999997,-20.104404684182697,-5.559183844304148,-1048536.0,-54.0,0.0,0.0,0.0,0.0,0.0,-1.0999999999999983,-11.16911371343483,-3.08843546905786,-582520.0,-30.0,-0.659999999999999,-6.701468228060898,-1.853061281434716,-349512.0,-18.0,0.0,0.0,0.0,0.0,0.0,-0.2199999999999997,-2.233822742686966,-0.6176870938115719,-116504.0,-6.0,2.639999999999996,26.805872912243597,7.412245125738863,1398048.0,72.0,-0.4399999999999994,-4.467645485373932,-1.235374187623144,-233008.0,-12.0,137.7199999999998,1398.373036922041,386.67212072604406,72931504.0,3756.0,-0.4399999999999994,-4.467645485373932,-1.235374187623144,-233008.0,-12.0,0.0,0.0,0.0,0.0,0.0,1.5399999999999978,15.636759198808765,4.323809656681004,815528.0,42.0,0.2199999999999997,2.233822742686966,0.6176870938115719,116504.0,6.0,1.0999999999999983,11.16911371343483,3.08843546905786,582520.0,30.0,-0.8799999999999988,-8.935290970747864,-2.470748375246288,-466016.0,-24.0,0.0,0.0,0.0,0.0,0.0,1.0999999999999983,11.16911371343483,3.08843546905786,582520.0,30.0,0.0,0.0,0.0,0.0,0.0,0.659999999999999,6.701468228060898,1.853061281434716,349512.0,18.0,-0.4399999999999994,-4.467645485373932,-1.235374187623144,-233008.0,-12.0,0.659999999999999,6.701468228060898,1.853061281434716,349512.0,18.0,0.1824984332567367,1.853041594152902,0.5123951221069046,96644.53394610404,4.977229997911009,-14.29999999999998,-145.1984782746528,-40.14966109775217,-7572760.0,-390.0,0.0,0.0,0.0,0.0,0.0,0.0,0.0,0.0,0.0,0.0,0.2199999999999997,2.233822742686966,0.6176870938115719,116504.0,6.0,-0.659999999999999,-6.701468228060898,-1.853061281434716,-349512.0,-18.0,-1.0999999999999983,-11.16911371343483,-3.08843546905786,-582520.0,-30.0,-1.5399999999999978,-15.636759198808765,-4.323809656681004,-815528.0,-42.0,0.0,0.0,0.0,0.0,0.0,-0.2199999999999997,-2.233822742686966,-0.6176870938115719,-116504.0,-6.0,0.0,0.0,0.0,0.0,0.0,-0.2199999999999997,-2.233822742686966,-0.6176870938115719,-116504.0,-6.0,4.839999999999994,49.14410033911325,13.589116063854584,2563088.0,132.0,0.0,0.0,0.0,0.0,0.0,-0.4399999999999994,-4.467645485373932,-1.235374187623144,-233008.0,-12.0,-0.284278682220187,-2.886491752747889,-0.7981603320598679,-150543.65269718505,-7.753054969641475,1.267199999999998,12.866818997876925,3.5578776603546545,671063.0399999999,34.56,1.485659999999998,15.085004981365085,4.171240944509545,786751.512,40.518,1.0999999999999983,11.16911371343483,3.08843546905786,582520.0,30.0,1.2319999999999982,12.50940735904701,3.459047725344803,652422.3999999999,33.599999999999994,-0.4399999999999994,-4.467645485373932,-1.235374187623144,-233008.0,-12.0,1.302179999999998,13.221996813964152,3.656089908270694,689587.176,35.514,-1.0999999999999983,-11.16911371343483,-3.08843546905786,-582520.0,-30.0,0.0,0.0,0.0,0.0,0.0,0.0,0.0,0.0,0.0,0.0,-0.0437443508914662,-0.4441687540247106,-0.1228196407855612,-23165.417528451784,-1.1930277515854453,-2.639999999999996,-26.805872912243597,-7.412245125738863,-1398048.0,-72.0,0.0644627473883722,0.6545379598737774,0.1809900322428783,34137.12691697697,1.7580749287737918
-0.0499999999999998,0.9665605912775316,-0.7837278740335917,116907.0,7.2,6.0,679,-0.0016993464052287,0.032850425324465,-0.0266365029083311,3973.309803921561,0.2039215686274506,-0.0,0.0,-0.0,0.0,0.0,0.0999999999999996,-1.9331211825550632,1.5674557480671834,-233814.0,-12.0,0.249999999999999,-4.832802956387658,3.9186393701679583,-584535.0,-30.0,-0.0,0.0,-0.0,0.0,0.0,-4.514999999999982,87.28042139236109,-70.77062702523332,10556702.1,541.8,-0.0499999999999998,0.9665605912775316,-0.7837278740335917,116907.0,6.0,-0.0499999999999998,0.9665605912775316,-0.7837278740335917,116907.0,6.0,0.0999999999999996,-1.9331211825550632,1.5674557480671834,-233814.0,-12.0,-0.00109477124183,0.0211632547763381,-0.0171600547582518,2559.728431372548,0.1313725490196078,-0.0,0.0,-0.0,0.0,0.0,0.0499999999999998,-0.9665605912775316,0.7837278740335917,-116907.0,-6.0,-0.0,0.0,-0.0,0.0,0.0,-0.1999999999999992,3.8662423651101263,-3.1349114961343667,467628.0,24.0,0.1499999999999994,-2.899681773832594,2.351183622100775,-350721.0,-18.0,-0.0,0.0,-0.0,0.0,0.0,0.1499999999999994,-2.899681773832594,2.351183622100775,-350721.0,-18.0,0.1499999999999994,-2.899681773832594,2.351183622100775,-350721.0,-18.0,0.0499999999999998,-0.9665605912775316,0.7837278740335917,-116907.0,-6.0,-0.0,0.0,-0.0,0.0,0.0,-0.2999999999999988,5.799363547665189,-4.70236724420155,701442.0,36.0,0.0999999999999996,-1.9331211825550632,1.5674557480671834,-233814.0,-12.0,-30.79999999999988,595.4013242269594,-482.7763704046925,72014712.0,3696.0,0.2999999999999988,-5.799363547665189,4.70236724420155,-701442.0,-36.0,-0.0,0.0,-0.0,0.0,0.0,-0.499999999999998,9.665605912775316,-7.8372787403359165,1169070.0,60.0,-0.0,0.0,-0.0,0.0,0.0,-0.1499999999999994,2.899681773832594,-2.351183622100775,350721.0,18.0,0.0999999999999996,-1.9331211825550632,1.5674557480671834,-233814.0,-12.0,-0.0,0.0,-0.0,0.0,0.0,-0.0499999999999998,0.9665605912775316,-0.7837278740335917,116907.0,6.0,-0.0499999999999998,0.9665605912775316,-0.7837278740335917,116907.0,6.0,-0.0499999999999998,0.9665605912775316,-0.7837278740335917,116907.0,6.0,0.0499999999999998,-0.9665605912775316,0.7837278740335917,-116907.0,-6.0,-0.0,0.0,-0.0,0.0,0.0,-0.042061834134113,0.8131062254177188,-0.6593006368776423,98346.4568623355,5.047420096093587,1.8499999999999928,-35.76274187726867,28.997931339242893,-4325559.0,-222.0,-0.1499999999999994,2.899681773832594,-2.351183622100775,350721.0,18.0,-0.0,0.0,-0.0,0.0,0.0,-0.0,0.0,-0.0,0.0,0.0,0.0499999999999998,-0.9665605912775316,0.7837278740335917,-116907.0,-6.0,0.0499999999999998,-0.9665605912775316,0.7837278740335917,-116907.0,-6.0,0.2999999999999988,-5.799363547665189,4.70236724420155,-701442.0,-36.0,-0.0,0.0,-0.0,0.0,0.0,0.1499999999999994,-2.899681773832594,2.351183622100775,-350721.0,-18.0,-0.0,0.0,-0.0,0.0,0.0,-0.0,0.0,-0.0,0.0,0.0,-0.7999999999999968,15.464969460440503,-12.539645984537469,1870512.0,96.0,-0.0,0.0,-0.0,0.0,0.0,0.1499999999999994,-2.899681773832594,2.351183622100775,-350721.0,-18.0,0.0315785523087956,-0.6104516838255611,0.4949798333206208,-73835.07629528764,-3.789426277055487,-0.2854999999999988,5.519060976194705,-4.475086160731808,667538.97,34.26,-0.261099999999999,5.04737940765127,-4.092626958203416,610488.354,31.332,-0.1499999999999994,2.899681773832594,-2.351183622100775,350721.0,18.0,-0.2699999999999989,5.219427192898671,-4.232130519781395,631297.8,32.400000000000006,0.1999999999999992,-3.8662423651101263,3.1349114961343667,-467628.0,-24.0,-0.2999999999999988,5.799363547665189,-4.70236724420155,701442.0,36.0,0.9499999999999962,-18.3646512342731,14.890829606638242,-2221233.0,-114.0,-0.0,0.0,-0.0,0.0,0.0,0.3499999999999986,-6.765924138942721,5.486095118235141,-818349.0,-42.0,0.0208764235154722,-0.4035665651375026,0.3272287003841207,-48812.00087846656,-2.505170821856684,0.3999999999999984,-7.732484730220253,6.269822992268733,-935256.0,-48.0,0.0011174552394273,-0.0216017639389421,0.0175156163824824,-2612.766793514746,-0.1340946287312862
-0.0199999999999995,-0.142633668173805,-0.2618602242993944,117050.0,6.63,6.0,735,-0.0006375271673508,-0.0045466419219855,-0.0083471503519729,3731.1277469210254,0.191258150205264,0.119999999999997,0.85580200904283,1.5711613457963662,-702300.0,-36.0,0.039999999999999,0.28526733634761,0.5237204485987887,-234100.0,-12.0,0.079999999999998,0.57053467269522,1.0474408971975775,-468200.0,-24.0,0.0199999999999995,0.142633668173805,0.2618602242993944,-117050.0,-6.0,-1.7959999999999552,-12.808503402007688,-23.51504814208561,10511090.0,538.8,-0.0,-0.0,-0.0,0.0,0.0,-0.0199999999999995,-0.142633668173805,-0.2618602242993944,117050.0,6.0,0.0199999999999995,0.142633668173805,0.2618602242993944,-117050.0,-6.0,-0.0004829751267809,-0.0034444256984739,-0.0063235987514946,2826.611929485627,0.144892538034291,-0.0,-0.0,-0.0,0.0,0.0,-0.0,-0.0,-0.0,0.0,0.0,-0.0,-0.0,-0.0,0.0,0.0,-0.119999999999997,-0.85580200904283,-1.5711613457963662,702300.0,36.0,0.079999999999998,0.57053467269522,1.0474408971975775,-468200.0,-24.0,-0.0599999999999985,-0.427901004521415,-0.7855806728981831,351150.0,18.0,0.0599999999999985,0.427901004521415,0.7855806728981831,-351150.0,-18.0,-0.0,-0.0,-0.0,0.0,0.0,0.039999999999999,0.28526733634761,0.5237204485987887,-234100.0,-12.0,-0.0,-0.0,-0.0,0.0,0.0,-0.0999999999999975,-0.7131683408690249,-1.309301121496972,585250.0,30.0,-0.0,-0.0,-0.0,0.0,0.0,-13.479999999999665,-96.13509234914456,-176.49379117779182,78891700.0,4044.0,0.119999999999997,0.85580200904283,1.5711613457963662,-702300.0,-36.0,-0.0199999999999995,-0.142633668173805,-0.2618602242993944,117050.0,6.0,-0.159999999999996,-1.14106934539044,-2.094881794395155,936400.0,48.0,-0.0,-0.0,-0.0,0.0,0.0,-0.079999999999998,-0.57053467269522,-1.0474408971975775,468200.0,24.0,0.0599999999999985,0.427901004521415,0.7855806728981831,-351150.0,-18.0,-0.0,-0.0,-0.0,0.0,0.0,-0.0599999999999985,-0.427901004521415,-0.7855806728981831,351150.0,18.0,-0.0,-0.0,-0.0,0.0,0.0,-0.039999999999999,-0.28526733634761,-0.5237204485987887,234100.0,12.0,-0.0,-0.0,-0.0,0.0,0.0,-0.0199999999999995,-0.142633668173805,-0.2618602242993944,117050.0,6.0,-0.0168665134739916,-0.1202866343049197,-0.2208334500724159,98711.27010653856,5.059954042197619,0.639999999999984,4.56427738156176,8.37952717758062,-3745600.0,-192.0,-0.0,-0.0,-0.0,0.0,0.0,-0.0,-0.0,-0.0,0.0,0.0,-0.0199999999999995,-0.142633668173805,-0.2618602242993944,117050.0,6.0,-0.0,-0.0,-0.0,0.0,0.0,-0.0,-0.0,-0.0,0.0,0.0,0.119999999999997,0.85580200904283,1.5711613457963662,-702300.0,-36.0,-0.0,-0.0,-0.0,0.0,0.0,-0.0,-0.0,-0.0,0.0,0.0,-0.0199999999999995,-0.142633668173805,-0.2618602242993944,117050.0,6.0,0.039999999999999,0.28526733634761,0.5237204485987887,-234100.0,-12.0,-0.2199999999999945,-1.5689703499118548,-2.880462467293338,1287550.0,66.0,0.0199999999999995,0.142633668173805,0.2618602242993944,-117050.0,-6.0,0.0199999999999995,0.142633668173805,0.2618602242993944,-117050.0,-6.0,0.0012972486858363,0.0092515669297244,0.0169848915922603,-7592.147933857355,-0.389174605750911,-0.1137999999999971,-0.8115855719089504,-1.489984676263554,666014.5,34.14,-0.120019999999997,-0.8559446427110038,-1.5714232060206657,702417.05,36.006,-0.0199999999999995,-0.142633668173805,-0.2618602242993944,117050.0,6.0,-0.1119999999999972,-0.7987485417733079,-1.4664172560766084,655480.0,33.599999999999994,-0.0,-0.0,-0.0,0.0,0.0,-0.1116399999999972,-0.7961811357461794,-1.4617037720392194,653373.1,33.492,0.2599999999999935,1.854237686259465,3.404182915892127,-1521650.0,-78.0,0.039999999999999,0.28526733634761,0.5237204485987887,-234100.0,-12.0,0.0199999999999995,0.142633668173805,0.2618602242993944,-117050.0,-6.0,0.0019235168555954,0.0137179132453866,0.0251846277624955,-11257.382397372829,-0.5770550566786583,0.0199999999999995,0.142633668173805,0.2618602242993944,-117050.0,-6.0,0.0047502818112451,0.0338775059798612,0.0621954930289015,-27801.024300313213,-1.4250845433735948
-0.25,-0.6932602914838037,-1.034192776118424,117377.0,6.28,5.75,779,-0.0082652303120356,-0.0229198239012104,-0.0341913659266491,3880.5917533432334,0.1901002971768199,4.5,12.478685246708467,18.61546997013163,-2112786.0,-103.5,-0.0,-0.0,-0.0,0.0,0.0,-0.0,-0.0,-0.0,0.0,0.0,-0.0,-0.0,-0.0,0.0,0.0,-23.6,-65.44377151607108,-97.62779806557924,11080388.8,542.8000000000001,-0.0,-0.0,-0.0,0.0,0.0,-0.0,-0.0,-0.0,0.0,0.0,0.25,0.6932602914838037,1.034192776118424,-117377.0,-5.75,-0.0065007429420505,-0.0180268277874688,-0.0268920855602858,3052.1508172362464,0.1495170876671615,-0.25,-0.6932602914838037,-1.034192776118424,117377.0,5.75,0.25,0.6932602914838037,1.034192776118424,-117377.0,-5.75,-0.0,-0.0,-0.0,0.0,0.0,-0.5,-1.3865205829676075,-2.068385552236848,234754.0,11.5,0.25,0.6932602914838037,1.034192776118424,-117377.0,-5.75,-0.0,-0.0,-0.0,0.0,0.0,1.0,2.773041165935215,4.136771104473696,-469508.0,-23.0,0.25,0.6932602914838037,1.034192776118424,-117377.0,-5.75,0.25,0.6932602914838037,1.034192776118424,-117377.0,-5.75,-0.0,-0.0,-0.0,0.0,0.0,-3.25,-9.012383789289448,-13.444506089539512,1525901.0,74.75,0.25,0.6932602914838037,1.034192776118424,-117377.0,-5.75,-191.25,-530.3441229851098,-791.1574737305943,89793405.0,4398.75,0.75,2.0797808744514112,3.102578328355272,-352131.0,-17.25,-0.5,-1.3865205829676075,-2.068385552236848,234754.0,11.5,-1.5,-4.159561748902823,-6.205156656710544,704262.0,34.5,-0.75,-2.0797808744514112,-3.102578328355272,352131.0,17.25,-0.25,-0.6932602914838037,-1.034192776118424,117377.0,5.75,1.0,2.773041165935215,4.136771104473696,-469508.0,-23.0,-1.0,-2.773041165935215,-4.136771104473696,469508.0,23.0,-1.0,-2.773041165935215,-4.136771104473696,469508.0,23.0,-0.5,-1.3865205829676075,-2.068385552236848,234754.0,11.5,-0.75,-2.0797808744514112,-3.102578328355272,352131.0,17.25,0.25,0.6932602914838037,1.034192776118424,-117377.0,-5.75,-0.25,-0.6932602914838037,-1.034192776118424,117377.0,5.75,-0.2121892625861708,-0.5884095601208887,-0.8777784101460532,99624.55629830791,4.88035303948193,4.75,13.171945538192272,19.64966274625005,-2230163.0,-109.25,-0.25,-0.6932602914838037,-1.034192776118424,117377.0,5.75,-0.0,-0.0,-0.0,0.0,0.0,-0.0,-0.0,-0.0,0.0,0.0,0.25,0.6932602914838037,1.034192776118424,-117377.0,-5.75,0.25,0.6932602914838037,1.034192776118424,-117377.0,-5.75,1.5,4.159561748902823,6.205156656710544,-704262.0,-34.5,-0.0,-0.0,-0.0,0.0,0.0,-0.0,-0.0,-0.0,0.0,0.0,-1.25,-3.4663014574190187,-5.17096388059212,586885.0,28.75,0.25,0.6932602914838037,1.034192776118424,-117377.0,-5.75,-3.25,-9.012383789289448,-13.444506089539512,1525901.0,74.75,-0.0,-0.0,-0.0,0.0,0.0,0.5,1.3865205829676075,2.068385552236848,-234754.0,-11.5,-0.0349005152373426,-0.0967805654655004,-0.144375442965083,16386.071108054275,0.802711850458881,-1.36,-3.7713359856718927,-5.626008702084227,638530.88,31.28,-1.91725,-5.316613175389291,-7.931224400052193,900164.213,44.09675,-1.5,-4.159561748902823,-6.205156656710544,704262.0,34.5,-1.425,-3.951583661457682,-5.894898823875017,669048.9,32.775,-0.0,-0.0,-0.0,0.0,0.0,-1.74425,-4.836877053682499,-7.215562998978244,818939.329,40.11775,3.5,9.705644080773252,14.478698865657936,-1643278.0,-80.5,-0.0,-0.0,-0.0,0.0,0.0,-0.0,-0.0,-0.0,0.0,0.0,0.0659532642746884,0.1828911168615152,0.2728335578972483,-30965.5852030804,-1.5169250783178332,-0.0,-0.0,-0.0,0.0,0.0,0.0647931141823314,0.1796739728967458,0.2680342825183334,-30420.88545351806,-1.4902416261936229
0.0,0.250108988795338,2.0463799668038334,117639.0,6.49,5.75,826,0.0,0.0064434858130324,0.0527202974498613,3030.69966101694,0.1481355932203385,-0.0,-1.750762921567366,-14.324659767626834,-823473.0,-40.25,0.0,0.0,0.0,0.0,0.0,-0.0,-1.000435955181352,-8.185519867215334,-470556.0,-23.0,-0.0,-0.250108988795338,-2.0463799668038334,-117639.0,-5.75,0.0,24.060484722111514,196.8617528065288,11316871.8,553.15,0.0,0.0,0.0,0.0,0.0,0.0,0.0,0.0,0.0,0.0,-0.0,-0.500217977590676,-4.092759933607667,-235278.0,-11.5,0.0,0.0070369647694959,0.0575761143202432,3309.843050847448,0.1617796610169486,0.0,0.250108988795338,2.0463799668038334,117639.0,5.75,0.0,0.0,0.0,0.0,0.0,0.0,0.0,0.0,0.0,0.0,0.0,0.7503269663860139,6.1391399004115,352917.0,17.25,-0.0,-0.250108988795338,-2.0463799668038334,-117639.0,-5.75,0.0,0.250108988795338,2.0463799668038334,117639.0,5.75,-0.0,-0.7503269663860139,-6.1391399004115,-352917.0,-17.25,-0.0,-0.250108988795338,-2.0463799668038334,-117639.0,-5.75,0.0,0.0,0.0,0.0,0.0,0.0,0.0,0.0,0.0,0.0,0.0,1.500653932772028,12.278279800823,705834.0,34.5,-0.0,-0.7503269663860139,-6.1391399004115,-352917.0,-17.25,0.0,175.32640114553195,1434.5123567294872,82464939.0,4030.75,-0.0,-0.250108988795338,-2.0463799668038334,-117639.0,-5.75,0.0,0.250108988795338,2.0463799668038334,117639.0,5.75,0.0,2.000871910362704,16.371039734430667,941112.0,46.0,0.0,0.250108988795338,2.0463799668038334,117639.0,5.75,0.0,0.7503269663860139,6.1391399004115,352917.0,17.25,-0.0,-0.500217977590676,-4.092759933607667,-235278.0,-11.5,0.0,0.250108988795338,2.0463799668038334,117639.0,5.75,0.0,0.250108988795338,2.0463799668038334,117639.0,5.75,0.0,0.250108988795338,2.0463799668038334,117639.0,5.75,0.0,0.0,0.0,0.0,0.0,0.0,0.0,0.0,0.0,0.0,0.0,0.0,0.0,0.0,0.0,0.0,0.2149986398355579,1.7591087452261909,101124.81407979946,4.942813870900356,0.0,1.750762921567366,14.324659767626834,823473.0,40.25,0.0,0.500217977590676,4.092759933607667,235278.0,11.5,0.0,0.250108988795338,2.0463799668038334,117639.0,5.75,0.0,0.0,0.0,0.0,0.0,-0.0,-0.7503269663860139,-6.1391399004115,-352917.0,-17.25,0.0,0.0,0.0,0.0,0.0,-0.0,-1.750762921567366,-14.324659767626834,-823473.0,-40.25,0.0,0.0,0.0,0.0,0.0,-0.0,-0.250108988795338,-2.0463799668038334,-117639.0,-5.75,0.0,1.000435955181352,8.185519867215334,470556.0,23.0,0.0,0.0,0.0,0.0,0.0,0.0,2.50108988795338,20.46379966803833,1176390.0,57.5,0.0,0.0,0.0,0.0,0.0,0.0,0.0,0.0,0.0,0.0,0.0,0.0177608325720724,0.1453182956130668,8353.82443873597,0.4083211394412723,0.0,1.3605928990466387,11.132307019412854,639956.16,31.28,0.0,1.3603427900578433,11.13026063944605,639838.521,31.27425,0.0,0.500217977590676,4.092759933607667,235278.0,11.5,0.0,1.4256212361334266,11.66436581078185,670542.3,32.775,0.0,0.0,0.0,0.0,0.0,0.0,1.3058190305004598,10.684149806682814,614193.219,30.02075,-0.0,-2.000871910362704,-16.371039734430667,-941112.0,-46.0,0.0,0.0,0.0,0.0,0.0,0.0,0.0,0.0,0.0,0.0,0.0,0.1564026398420287,1.279679033006944,73564.12992990109,3.595693155305054,0.0,0.0,0.0,0.0,0.0,0.0,0.0221220600386211,0.1810016533412564,10405.131912363566,0.5085856603345023
-0.2000000000000001,0.7090988525917069,1.115109367089712,117880.0,6.2,5.75,861,-0.0069490403706154,0.0246377827670844,0.0387447000477894,4095.764394440764,0.199784910655195,1.0000000000000004,-3.545494262958534,-5.57554683544856,-589400.0,-28.75,0.2000000000000001,-0.7090988525917069,-1.115109367089712,-117880.0,-5.75,-0.0,0.0,0.0,0.0,0.0,-0.0,0.0,0.0,0.0,0.0,-17.78000000000001,63.038887995402746,99.1332227342754,10479532.0,511.175,-0.2000000000000001,0.7090988525917069,1.115109367089712,117880.0,5.75,-0.0,0.0,0.0,0.0,0.0,-0.0,0.0,0.0,0.0,0.0,-0.0046988749172733,0.0166598340615523,0.0261987971751718,2769.516876240895,0.1350926538716079,-0.2000000000000001,0.7090988525917069,1.115109367089712,117880.0,5.75,-0.0,0.0,0.0,0.0,0.0,-0.0,0.0,0.0,0.0,0.0,-0.8000000000000004,2.836395410366828,4.460437468358848,471520.0,23.0,-0.0,0.0,0.0,0.0,0.0,-0.0,0.0,0.0,0.0,0.0,0.6000000000000003,-2.1272965577751206,-3.3453281012691365,-353640.0,-17.25,-0.0,0.0,0.0,0.0,0.0,-0.0,0.0,0.0,0.0,0.0,-0.0,0.0,0.0,0.0,0.0,-2.400000000000001,8.509186231100482,13.381312405076546,1414560.0,69.0,0.2000000000000001,-0.7090988525917069,-1.115109367089712,-117880.0,-5.75,-135.60000000000005,480.76902205717727,756.0441508868248,79922640.0,3898.5,0.2000000000000001,-0.7090988525917069,-1.115109367089712,-117880.0,-5.75,-0.6000000000000003,2.1272965577751206,3.3453281012691365,353640.0,17.25,-1.4000000000000006,4.963691968141949,7.805765569627985,825160.0,40.25,-0.2000000000000001,0.7090988525917069,1.115109367089712,117880.0,5.75,-0.0,0.0,0.0,0.0,0.0,0.4000000000000002,-1.4181977051834138,-2.230218734179424,-235760.0,-11.5,-0.0,0.0,0.0,0.0,0.0,-0.6000000000000003,2.1272965577751206,3.3453281012691365,353640.0,17.25,-0.0,0.0,0.0,0.0,0.0,-0.2000000000000001,0.7090988525917069,1.115109367089712,117880.0,5.75,0.2000000000000001,-0.7090988525917069,-1.115109367089712,-117880.0,-5.75,-0.4000000000000002,1.4181977051834138,2.230218734179424,235760.0,11.5,-0.1684980154585336,0.5974087471281291,0.9394685768691892,99312.73031125969,4.844317944432839,6.800000000000003,-24.109360988118038,-37.91371848105021,-4007920.0,-195.5,-0.0,0.0,0.0,0.0,0.0,-0.0,0.0,0.0,0.0,0.0,-0.0,0.0,0.0,0.0,0.0,0.8000000000000004,-2.836395410366828,-4.460437468358848,-471520.0,-23.0,-0.0,0.0,0.0,0.0,0.0,1.0000000000000004,-3.545494262958534,-5.57554683544856,-589400.0,-28.75,-0.0,0.0,0.0,0.0,0.0,0.2000000000000001,-0.7090988525917069,-1.115109367089712,-117880.0,-5.75,-0.4000000000000002,1.4181977051834138,2.230218734179424,235760.0,11.5,-0.0,0.0,0.0,0.0,0.0,-2.6000000000000014,9.218285083692187,14.496421772166258,1532440.0,74.75,-0.0,0.0,0.0,0.0,0.0,0.4000000000000002,-1.4181977051834138,-2.230218734179424,-235760.0,-11.5,0.0045934381859462,-0.0162860087355271,-0.0256109297414813,-2707.3724667967376,-0.1320613478459555,-1.0480000000000005,3.715677987580544,5.843173083550092,617691.2000000001,30.130000000000003,-1.3320000000000007,4.722598358260768,7.426628384817483,785080.8,38.295,-1.0000000000000004,3.545494262958534,5.57554683544856,589400.0,28.75,-1.1200000000000006,3.9709535745135582,6.244612455702387,660128.0,32.2,-0.0,0.0,0.0,0.0,0.0,-2.0004000000000013,7.092406723622253,11.1533238896313,1179035.76,57.511500000000005,2.6000000000000014,-9.218285083692187,-14.496421772166258,-1532440.0,-74.75,0.4000000000000002,-1.4181977051834138,-2.230218734179424,-235760.0,-11.5,-0.0,0.0,0.0,0.0,0.0,-0.0645358925691362,0.2288116368587807,0.3598228915866956,38037.45508024888,1.8554069113626657,-0.0,0.0,0.0,0.0,0.0,-0.045613623053332,0.1617228388483418,0.2543208916683488,26884.669427633893,1.3113916627832956
0.1799999999999997,1.1230318099811505,0.2076060960499069,118168.0,5.93,5.75,911,0.0048192771084337,0.0300677860771391,0.0055583961459144,3163.801874163314,0.153949129852744,-1.2599999999999978,-7.861222669868053,-1.4532426723493483,-827176.0,-40.25,-0.1799999999999997,-1.1230318099811505,-0.2076060960499069,-118168.0,-5.75,-0.3599999999999994,-2.246063619962301,-0.4152121920998138,-236336.0,-11.5,-0.1799999999999997,-1.1230318099811505,-0.2076060960499069,-118168.0,-5.75,15.875999999999973,99.05140564033748,18.310857671601788,10422417.6,507.15,0.0,0.0,0.0,0.0,0.0,0.0,0.0,0.0,0.0,0.0,0.0,0.0,0.0,0.0,0.0,0.0047590361445782,0.0296919387511749,0.0054889161940905,3124.254350736274,0.1520247657295848,0.0,0.0,0.0,0.0,0.0,0.0,0.0,0.0,0.0,0.0,0.0,0.0,0.0,0.0,0.0,1.6199999999999972,10.107286289830354,1.868454864449162,1063512.0,51.75,-0.3599999999999994,-2.246063619962301,-0.4152121920998138,-236336.0,-11.5,0.1799999999999997,1.1230318099811505,0.2076060960499069,118168.0,5.75,-0.3599999999999994,-2.246063619962301,-0.4152121920998138,-236336.0,-11.5,-0.3599999999999994,-2.246063619962301,-0.4152121920998138,-236336.0,-11.5,0.0,0.0,0.0,0.0,0.0,0.0,0.0,0.0,0.0,0.0,1.4399999999999975,8.984254479849204,1.6608487683992552,945344.0,46.0,-0.539999999999999,-3.3690954299434512,-0.6228182881497207,-354504.0,-17.25,119.5199999999998,745.6931218274839,137.8504477771382,78463552.0,3818.0,-0.8999999999999985,-5.615159049905753,-1.0380304802495346,-590840.0,-28.75,0.3599999999999994,2.246063619962301,0.4152121920998138,236336.0,11.5,1.2599999999999978,7.861222669868053,1.4532426723493483,827176.0,40.25,0.0,0.0,0.0,0.0,0.0,0.539999999999999,3.3690954299434512,0.6228182881497207,354504.0,17.25,-0.539999999999999,-3.3690954299434512,-0.6228182881497207,-354504.0,-17.25,0.1799999999999997,1.1230318099811505,0.2076060960499069,118168.0,5.75,1.4399999999999975,8.984254479849204,1.6608487683992552,945344.0,46.0,0.0,0.0,0.0,0.0,0.0,0.0,0.0,0.0,0.0,0.0,-0.539999999999999,-3.3690954299434512,-0.6228182881497207,-354504.0,-17.25,0.1799999999999997,1.1230318099811505,0.2076060960499069,118168.0,5.75,0.1541299352412782,0.9616267785905026,0.1777684118881488,101184.5899310633,4.923595153540839,-0.1799999999999997,-1.1230318099811505,-0.2076060960499069,-118168.0,-5.75,0.0,0.0,0.0,0.0,0.0,0.0,0.0,0.0,0.0,0.0,0.0,0.0,0.0,0.0,0.0,-0.7199999999999988,-4.492127239924602,-0.8304243841996276,-472672.0,-23.0,0.0,0.0,0.0,0.0,0.0,-0.8999999999999985,-5.615159049905753,-1.0380304802495346,-590840.0,-28.75,0.0,0.0,0.0,0.0,0.0,-0.3599999999999994,-2.246063619962301,-0.4152121920998138,-236336.0,-11.5,0.1799999999999997,1.1230318099811505,0.2076060960499069,118168.0,5.75,0.0,0.0,0.0,0.0,0.0,1.2599999999999978,7.861222669868053,1.4532426723493483,827176.0,40.25,-0.1799999999999997,-1.1230318099811505,-0.2076060960499069,-118168.0,-5.75,0.0,0.0,0.0,0.0,0.0,0.0100947282318912,0.062981671764048,0.0116429284383762,6627.076920589579,0.3224704851854146,0.9755999999999982,6.086832410097836,1.125225040590495,640470.5599999999,31.165,0.9698399999999984,6.050895392178439,1.1185816455168984,636689.184,30.981,0.8999999999999985,5.615159049905753,1.0380304802495346,590840.0,28.75,1.0079999999999982,6.2889781358944425,1.1625941378794786,661740.7999999999,32.2,-0.3599999999999994,-2.246063619962301,-0.4152121920998138,-236336.0,-11.5,0.8906399999999985,5.556761395786733,1.0272349632549391,584695.2640000001,28.451,-1.799999999999997,-11.230318099811504,-2.076060960499069,-1181680.0,-57.5,-0.1799999999999997,-1.1230318099811505,-0.2076060960499069,-118168.0,-5.75,0.0,0.0,0.0,0.0,0.0,0.014060884624372,0.0877267817202484,0.0162173631326336,9230.8145238489,0.4491671477229976,0.0,0.0,0.0,0.0,0.0,0.0615680057153812,0.384126827197081,0.0710105183786038,40418.71166319549,1.966755738130239
-0.1600000000000001,0.5691306670721262,0.3846765380767611,118325.0,5.71,5.5,945,-0.0050539999740696,0.0179774148539047,0.0121509700841571,3737.590918323682,0.1737312491086436,1.2800000000000007,-4.55304533657701,-3.077412304614089,-946600.0,-44.0,-0.0,0.0,0.0,0.0,0.0,-0.0,0.0,0.0,0.0,0.0,0.3200000000000002,-1.1382613341442525,-0.7693530761535222,-236650.0,-11.0,-14.560000000000008,51.79089070356349,35.00556496498526,10767575.0,500.5,-0.0,0.0,0.0,0.0,0.0,-0.1600000000000001,0.5691306670721262,0.3846765380767611,118325.0,5.5,0.1600000000000001,-0.5691306670721262,-0.3846765380767611,-118325.0,-5.5,-0.0032803633707738,0.0116684712090469,0.0078867426568944,2425.9312240426266,0.1127624908703524,-0.0,0.0,0.0,0.0,0.0,-0.0,0.0,0.0,0.0,0.0,-0.0,0.0,0.0,0.0,0.0,-1.4400000000000008,5.122176003649136,3.46208884269085,1064925.0,49.5,0.3200000000000002,-1.1382613341442525,-0.7693530761535222,-236650.0,-11.0,-0.0,0.0,0.0,0.0,0.0,0.3200000000000002,-1.1382613341442525,-0.7693530761535222,-236650.0,-11.0,-0.0,0.0,0.0,0.0,0.0,-0.0,0.0,0.0,0.0,0.0,-0.0,0.0,0.0,0.0,0.0,-0.9600000000000004,3.414784002432757,2.3080592284605665,709950.0,33.0,0.4800000000000002,-1.7073920012163786,-1.1540296142302833,-354975.0,-16.5,-113.44000000000004,403.5136429541375,272.7356654964236,83892425.0,3899.5,0.9600000000000004,-3.414784002432757,-2.3080592284605665,-709950.0,-33.0,-0.3200000000000002,1.1382613341442525,0.7693530761535222,236650.0,11.0,-1.4400000000000008,5.122176003649136,3.46208884269085,1064925.0,49.5,-0.3200000000000002,1.1382613341442525,0.7693530761535222,236650.0,11.0,-0.9600000000000004,3.414784002432757,2.3080592284605665,709950.0,33.0,0.3200000000000002,-1.1382613341442525,-0.7693530761535222,-236650.0,-11.0,-0.3200000000000002,1.1382613341442525,0.7693530761535222,236650.0,11.0,-0.6400000000000003,2.276522668288505,1.5387061523070444,473300.0,22.0,-0.0,0.0,0.0,0.0,0.0,-0.1600000000000001,0.5691306670721262,0.3846765380767611,118325.0,5.5,-0.0,0.0,0.0,0.0,0.0,-0.0,0.0,0.0,0.0,0.0,0.0343931481094631,-0.1223387207890573,-0.0826889821769348,-25434.807812826388,-1.182264466262794,410.4000000000002,-1459.8201610400038,-986.6953201668922,-303503625.0,-14107.5,-0.0,0.0,0.0,0.0,0.0,-0.0,0.0,0.0,0.0,0.0,-0.1600000000000001,0.5691306670721262,0.3846765380767611,118325.0,5.5,0.4800000000000002,-1.7073920012163786,-1.1540296142302833,-354975.0,-16.5,-0.0,0.0,0.0,0.0,0.0,0.3200000000000002,-1.1382613341442525,-0.7693530761535222,-236650.0,-11.0,-0.0,0.0,0.0,0.0,0.0,-0.0,0.0,0.0,0.0,0.0,-0.3200000000000002,1.1382613341442525,0.7693530761535222,236650.0,11.0,-0.0,0.0,0.0,0.0,0.0,-1.1200000000000006,3.983914669504884,2.692735766537328,828275.0,38.5,-0.0,0.0,0.0,0.0,0.0,-0.0,0.0,0.0,0.0,0.0,-0.0009356718551966,0.0033282471694291,0.0022495688127056,691.9585766633783,0.0321637200223839,-0.8416000000000005,2.993627308799384,2.0233985902837635,622389.5,28.93,-1.0921600000000005,3.8848859334343335,2.625802048911971,807686.45,37.543,-0.3200000000000002,1.1382613341442525,0.7693530761535222,236650.0,11.0,-0.8960000000000005,3.1871317356039066,2.154188613229862,662620.0,30.8,-0.0,0.0,0.0,0.0,0.0,-0.8894400000000005,3.1637973782539497,2.138416875168715,657768.675,30.5745,1.4400000000000008,-5.122176003649136,-3.46208884269085,-1064925.0,-49.5,0.1600000000000001,-0.5691306670721262,-0.3846765380767611,-118325.0,-5.5,-0.0,0.0,0.0,0.0,0.0,-0.0184894005020283,0.0657680302592694,0.0444527411014687,13673.489465015666,0.6355731422572252,-0.0,0.0,0.0,0.0,0.0,-0.0275388928892967,0.0979576780032081,0.0662097873695088,20365.87188203775,0.9466494430695764
-0.29,-0.6158478102080363,-2.4398260647507755,118318.0,5.65,5.25,987,-0.0090138725297735,-0.019141978134329,-0.075835452215457,3677.5978275094776,0.1631821751079696,180.96,384.2890335698146,1522.451464404484,-73830432.0,-3276.0,49.01,104.07827992515811,412.33060494288105,-19995742.0,-887.25,105.85,224.78445072593323,890.5365136340331,-43186070.0,-1916.25,13.34,28.328999269569668,112.23199897853569,-5442628.0,-241.5,-25.897,-54.99520945157764,-217.87646758224423,10565797.4,468.825,-0.0,-0.0,-0.0,0.0,0.0,-24.07,-51.11536824726701,-202.5055633743144,9820394.0,435.75,-0.0,-0.0,-0.0,0.0,0.0,-0.0058258081402957,-0.0123717627099769,-0.0490136501687271,2376.8895432535005,0.1054672163329407,-0.0,-0.0,-0.0,0.0,0.0,-0.0,-0.0,-0.0,0.0,0.0,-0.0,-0.0,-0.0,0.0,0.0,-65.83,-139.79745291722423,-553.840516698426,26858186.0,1191.75,41.76,88.68208466995722,351.33495332411167,-17037792.0,-756.0,-35.09,-74.51758503517239,-295.21895383484383,14316478.0,635.25,26.1,55.42630291872327,219.5843458275698,-10648620.0,-472.5,39.44,83.75530218829293,331.81634480610546,-16091248.0,-714.0,13.05,27.713151459361637,109.7921729137849,-5324310.0,-236.25,-0.0,-0.0,-0.0,0.0,0.0,-267.09,-567.1958332016014,-2247.0798056354643,108970878.0,4835.25,32.48,68.97495474330006,273.26051925208685,-13251616.0,-588.0,-207.06,-439.7153364885379,-1742.0358102320538,84479052.0,3748.5,41.76,88.68208466995722,351.33495332411167,-17037792.0,-756.0,-15.659999999999998,-33.255781751233954,-131.75060749654187,6389172.0,283.5,-41.18,-87.45038904954114,-346.4553011946101,16801156.0,745.5,-17.98,-38.18256423289824,-151.26921601454808,7335716.0,325.5,-26.68,-56.657998539139335,-224.4639979570713,10885256.0,483.0,65.53999999999999,139.1816051070162,551.4006906336753,-26739868.0,-1186.5,-80.33,-170.58984342762605,-675.8318199359649,32774086.0,1454.25,-49.88,-105.92582335578224,-419.6500831371334,20350696.0,903.0,-34.51,-73.28588941475631,-290.3393017053423,14079842.0,624.75,-37.7,-80.06021532704472,-317.1773884176008,15381340.0,682.5,15.659999999999998,33.255781751233954,131.75060749654187,-6389172.0,-283.5,-0.0,-0.0,-0.0,0.0,0.0,-0.2280864842281178,-0.4843674546549523,-1.918935687024581,93057.71255483602,4.129151869646961,48.72,103.46243211495008,409.8907788781303,-19877424.0,-882.0,-19.14,-40.6459554737304,-161.02852027355118,7808988.0,346.5,-0.0,-0.0,-0.0,0.0,0.0,-0.0,-0.0,-0.0,0.0,0.0,62.63999999999999,133.02312700493582,527.0024299861675,-25556688.0,-1134.0,-0.0,-0.0,-0.0,0.0,0.0,35.379999999999995,75.13343284538043,297.6587798995946,-14434796.0,-640.5,14.21,30.176542700193774,119.551477172788,-5797582.0,-257.25,17.689999999999998,37.56671642269021,148.8293899497973,-7217398.0,-320.25,-36.25,-76.98097627600453,-304.97825809384693,14789750.0,656.25,-0.0,-0.0,-0.0,0.0,0.0,-149.35,-317.1616222571387,-1256.5104233466493,60933770.0,2703.75,73.66,156.4253437928412,619.715820446697,-30052772.0,-1333.5,-0.0,-0.0,-0.0,0.0,0.0,0.0262761699433882,0.0558004197251374,0.2210664976196535,-10720.496121937273,-0.4756892834578904,-1.4412999999999998,-3.06076361673394,-12.125935541811351,588040.46,26.0925,-1.8183,-3.861365770004387,-15.29770942598736,741853.86,32.9175,-88.16,-187.21773430324305,-741.7071236842357,35968672.0,1596.0,-1.624,-3.448747737165003,-13.663025962604342,662580.7999999999,29.4,22.62,48.03612919622682,190.30643305056049,-9228804.0,-409.5,-2.09322,-4.445189494081606,-17.610664535371097,854019.324,37.8945,258.39,548.7203988953603,2173.885023692941,-105421338.0,-4677.75,-0.0,-0.0,-0.0,0.0,0.0,-0.0,-0.0,-0.0,0.0,0.0,0.2165491617013587,0.4598666449523025,1.821869962134157,-88350.56453165988,-3.92028654804184,-0.0,-0.0,-0.0,0.0,0.0,0.053461158613685,0.1135308188393876,0.4497790628877384,-21811.784016737874,-0.9678313197305044
-0.0299999999999993,-0.2717365280656734,1.2399399424769952,118990.0,6.27,5.25,1043,-0.0006450662739322,-0.0058429356550203,0.0266614479531135,2558.547864506626,0.1128865979381442,0.299999999999993,2.717365280656734,-12.399399424769951,-1189900.0,-52.5,0.1799999999999958,1.6304191683940403,-7.439639654861971,-713940.0,-31.5,0.0299999999999993,0.2717365280656734,-1.2399399424769952,-118990.0,-5.25,0.2399999999999944,2.173892224525387,-9.919519539815962,-951920.0,-42.0,-2.8109999999999347,-25.4617126797536,116.18237261009446,11149363.0,491.925,-0.0,-0.0,0.0,0.0,0.0,-0.0,-0.0,0.0,0.0,0.0,0.4799999999999888,4.347784449050774,-19.839039079631924,-1903840.0,-84.0,-0.0005955817378497,-0.0053947104540872,0.0246161861923267,2362.275699558169,0.1042268041237111,-0.0,-0.0,0.0,0.0,0.0,-0.0,-0.0,0.0,0.0,0.0,-0.0,-0.0,0.0,0.0,0.0,-1.199999999999972,-10.869461122626936,49.59759769907981,4759600.0,210.0,0.3899999999999909,3.5325748648537543,-16.11921925220094,-1546870.0,-68.25,-0.0,-0.0,0.0,0.0,0.0,0.0599999999999986,0.5434730561313468,-2.4798798849539905,-237980.0,-10.5,-0.0,-0.0,0.0,0.0,0.0,-0.0,-0.0,0.0,0.0,0.0,0.1799999999999958,1.6304191683940403,-7.439639654861971,-713940.0,-31.5,-1.0799999999999748,-9.782515010364245,44.63783792917183,4283640.0,189.0,0.0899999999999979,0.8152095841970202,-3.7198198274309857,-356970.0,-15.75,-21.629999999999495,-195.9220367353505,893.9966985259135,85791790.0,3785.25,0.6299999999999853,5.706467089379141,-26.0387387920169,-2498790.0,-110.25,-0.5699999999999867,-5.162994033247794,23.55885890706291,2260810.0,99.75,-0.7499999999999826,-6.793413201641835,30.99849856192488,2974750.0,131.25,-0.0599999999999986,-0.5434730561313468,2.4798798849539905,237980.0,10.5,-0.1499999999999965,-1.358682640328367,6.199699712384977,594950.0,26.25,0.6299999999999853,5.706467089379141,-26.0387387920169,-2498790.0,-110.25,-0.2099999999999951,-1.9021556964597135,8.679579597338966,832930.0,36.75,-0.1199999999999972,-1.0869461122626936,4.959759769907981,475960.0,21.0,-0.1499999999999965,-1.358682640328367,6.199699712384977,594950.0,26.25,-0.9599999999999776,-8.695568898101548,39.67807815926385,3807680.0,168.0,0.2099999999999951,1.9021556964597135,-8.679579597338966,-832930.0,-36.75,-0.0,-0.0,0.0,0.0,0.0,-0.0253499059954036,-0.2296165147327447,1.0477453660579583,100546.17714643828,4.436233549195739,0.8399999999999804,7.608622785838855,-34.718318389355865,-3331720.0,-147.0,-0.0,-0.0,0.0,0.0,0.0,-0.0,-0.0,0.0,0.0,0.0,-0.0,-0.0,0.0,0.0,0.0,0.2699999999999937,2.4456287525910607,-11.159459482292958,-1070910.0,-47.25,-0.0,-0.0,0.0,0.0,0.0,0.3299999999999923,2.989101808722407,-13.639339367246947,-1308890.0,-57.75,0.2699999999999937,2.4456287525910607,-11.159459482292958,-1070910.0,-47.25,-0.0,-0.0,0.0,0.0,0.0,-0.2099999999999951,-1.9021556964597135,8.679579597338966,832930.0,36.75,-0.0,-0.0,0.0,0.0,0.0,-1.109999999999974,-10.054251538429916,45.87777787164882,4402630.0,194.25,0.8699999999999798,7.880359313904528,-35.95825833183286,-3450710.0,-152.25,0.1199999999999972,1.0869461122626936,-4.959759769907981,-475960.0,-21.0,-0.010616505531587,-0.0961630784447851,0.4387943086047693,42108.59977345249,1.8578884680277803,-0.1481999999999965,-1.3423784486444266,6.125303315836357,587810.6000000001,25.935,-0.1657499999999961,-1.5013443175628456,6.850668182185399,657419.75,29.00625,-0.6599999999999846,-5.978203617444814,27.27867873449389,2617780.0,115.5,-0.1649999999999961,-1.4945509043612035,6.819669683623474,654445.0,28.875,0.1499999999999965,1.358682640328367,-6.199699712384977,-594950.0,-26.25,-0.2170499999999949,-1.966013780555147,8.970965483821061,860892.65,37.98375,1.4399999999999664,13.043353347152324,-59.51711723889577,-5711520.0,-252.0,-0.0,-0.0,0.0,0.0,0.0,0.0899999999999979,0.8152095841970202,-3.7198198274309857,-356970.0,-15.75,-0.0141233412919908,-0.1279275909124083,0.5837364996391512,56017.87934446775,2.47158472609846,0.2099999999999951,1.9021556964597135,-8.679579597338966,-832930.0,-36.75,0.0016038445104201,0.0145274379606252,-0.0662890289997464,-6361.381943163078,-0.2806727893235243
0.0699999999999994,0.3217012796554912,2.1649899612402552,119489.0,6.74,5.25,1099,0.0018152578148557,0.0083424394563389,0.0561430706603662,3098.619157704281,0.1361443361141818,-0.909999999999992,-4.1821166355213855,-28.14486949612332,-1553357.0,-68.25,0.0,0.0,0.0,0.0,0.0,-0.909999999999992,-4.1821166355213855,-28.14486949612332,-1553357.0,-68.25,-0.5599999999999952,-2.57361023724393,-17.319919689922042,-955912.0,-42.0,6.257999999999947,28.76009440120092,193.5501025348788,10682316.6,469.35,0.0,0.0,0.0,0.0,0.0,0.349999999999997,1.608506398277456,10.824949806201277,597445.0,26.25,-0.5599999999999952,-2.57361023724393,-17.319919689922042,-955912.0,-42.0,0.0011714745200522,0.0053837836026373,0.036231865368027,1999.6902703789265,0.0878605890039197,0.0,0.0,0.0,0.0,0.0,0.0,0.0,0.0,0.0,0.0,0.0,0.0,0.0,0.0,0.0,1.609999999999986,7.399129432076299,49.79476910852587,2748247.0,120.75,-0.2799999999999976,-1.286805118621965,-8.659959844961021,-477956.0,-21.0,0.699999999999994,3.217012796554912,21.649899612402557,1194890.0,52.5,0.0,0.0,0.0,0.0,0.0,-1.889999999999984,-8.685934550698263,-58.45472895348689,-3226203.0,-141.75,0.0,0.0,0.0,0.0,0.0,0.0,0.0,0.0,0.0,0.0,4.199999999999964,19.302076779329475,129.89939767441533,7169340.0,315.0,-0.6299999999999946,-2.895311516899421,-19.484909651162297,-1075401.0,-47.25,52.21999999999955,239.98915462299647,1615.0825110852304,89138794.0,3916.5,-1.469999999999987,-6.755726872765315,-45.46478918604536,-2509269.0,-110.25,0.9799999999999915,4.503817915176877,30.30985945736357,1672846.0,73.5,1.8199999999999843,8.364233271042771,56.28973899224663,3106714.0,136.5,0.0,0.0,0.0,0.0,0.0,1.1899999999999895,5.46892175414335,36.804829341084336,2031313.0,89.25,-1.049999999999991,-4.825519194832369,-32.47484941860383,-1792335.0,-78.75,0.0,0.0,0.0,0.0,0.0,1.609999999999986,7.399129432076299,49.79476910852587,2748247.0,120.75,0.4199999999999964,1.9302076779329476,12.98993976744153,716934.0,31.5,0.0,0.0,0.0,0.0,0.0,-1.1899999999999895,-5.46892175414335,-36.804829341084336,-2031313.0,-89.25,0.0,0.0,0.0,0.0,0.0,0.0546166701483178,0.2510036096747983,1.6892077512497083,93229.87570503449,4.096250261123878,-12.809999999999889,-58.871334176954896,-396.19316290696673,-21866487.0,-960.75,0.0,0.0,0.0,0.0,0.0,0.0,0.0,0.0,0.0,0.0,0.0,0.0,0.0,0.0,0.0,0.0,0.0,0.0,0.0,0.0,0.0,0.0,0.0,0.0,0.0,-0.8399999999999928,-3.860415355865895,-25.97987953488306,-1433868.0,-63.0,0.0,0.0,0.0,0.0,0.0,0.0,0.0,0.0,0.0,0.0,0.4199999999999964,1.9302076779329476,12.98993976744153,716934.0,31.5,0.0,0.0,0.0,0.0,0.0,2.2399999999999807,10.29444094897572,69.27967875968817,3823648.0,168.0,0.0,0.0,0.0,0.0,0.0,0.0,0.0,0.0,0.0,0.0,0.0128592956529406,0.059097883814562,0.3977177999605319,21950.633975346296,0.9644471739705583,0.3506999999999969,1.611723411074011,10.84659970581368,598639.89,26.3025,0.4370799999999962,2.008702790168887,13.518197317984152,746089.316,32.781,0.909999999999992,4.1821166355213855,28.14486949612332,1553357.0,68.25,0.3919999999999966,1.8015271660707508,12.123943782945428,669138.3999999999,29.4,0.0,0.0,0.0,0.0,0.0,0.3971099999999966,1.8250113594856017,12.281988050115968,677861.097,29.78325,-1.3299999999999883,-6.112324313454334,-41.13480926356485,-2270291.0,-99.75,0.0,0.0,0.0,0.0,0.0,-0.8399999999999928,-3.860415355865895,-25.97987953488306,-1433868.0,-63.0,0.0485533502544996,0.2231382129776278,1.5016787983653523,82879.87526514228,3.641501269087506,-0.909999999999992,-4.1821166355213855,-28.14486949612332,-1553357.0,-68.25,0.0097457753206404,0.0447889770269281,0.3014215104812833,16635.899246971705,0.7309331490480416
