Short-Term Treasury Diff,LAG_RollingMean,LAG,Nonfarm Payroll,Long-Term Treasury Bond Rate,Level,Date,Proportion Negative Words_x_Short-Term_Treasury_Diff,Proportion Negative Words_x_LAG_RollingMean,Proportion Negative Words_x_LAG,Proportion Negative Words_x_Nonfarm_Payroll,Proportion Negative Words_x_Level,easing_x_Short-Term_Treasury_Diff,easing_x_LAG_RollingMean,easing_x_LAG,easing_x_Nonfarm_Payroll,easing_x_Level,weaker_x_Short-Term_Treasury_Diff,weaker_x_LAG_RollingMean,weaker_x_LAG,weaker_x_Nonfarm_Payroll,weaker_x_Level,weakness_x_Short-Term_Treasury_Diff,weakness_x_LAG_RollingMean,weakness_x_LAG,weakness_x_Nonfarm_Payroll,weakness_x_Level,contraction_x_Short-Term_Treasury_Diff,contraction_x_LAG_RollingMean,contraction_x_LAG,contraction_x_Nonfarm_Payroll,contraction_x_Level,Consumer Sentiment_x_Short-Term_Treasury_Diff,Consumer Sentiment_x_LAG_RollingMean,Consumer Sentiment_x_LAG,Consumer Sentiment_x_Nonfarm_Payroll,Consumer Sentiment_x_Level,improve_x_Short-Term_Treasury_Diff,improve_x_LAG_RollingMean,improve_x_LAG,improve_x_Nonfarm_Payroll,improve_x_Level,boosted_x_Short-Term_Treasury_Diff,boosted_x_LAG_RollingMean,boosted_x_LAG,boosted_x_Nonfarm_Payroll,boosted_x_Level,persisting_x_Short-Term_Treasury_Diff,persisting_x_LAG_RollingMean,persisting_x_LAG,persisting_x_Nonfarm_Payroll,persisting_x_Level,Proportion Positive Words_x_Short-Term_Treasury_Diff,Proportion Positive Words_x_LAG_RollingMean,Proportion Positive Words_x_LAG,Proportion Positive Words_x_Nonfarm_Payroll,Proportion Positive Words_x_Level,strengthen_x_Short-Term_Treasury_Diff,strengthen_x_LAG_RollingMean,strengthen_x_LAG,strengthen_x_Nonfarm_Payroll,strengthen_x_Level,concerned_x_Short-Term_Treasury_Diff,concerned_x_LAG_RollingMean,concerned_x_LAG,concerned_x_Nonfarm_Payroll,concerned_x_Level,turmoil_x_Short-Term_Treasury_Diff,turmoil_x_LAG_RollingMean,turmoil_x_LAG,turmoil_x_Nonfarm_Payroll,turmoil_x_Level,strong_x_Short-Term_Treasury_Diff,strong_x_LAG_RollingMean,strong_x_LAG,strong_x_Nonfarm_Payroll,strong_x_Level,slowing_x_Short-Term_Treasury_Diff,slowing_x_LAG_RollingMean,slowing_x_LAG,slowing_x_Nonfarm_Payroll,slowing_x_Level,improving_x_Short-Term_Treasury_Diff,improving_x_LAG_RollingMean,improving_x_LAG,improving_x_Nonfarm_Payroll,improving_x_Level,slower_x_Short-Term_Treasury_Diff,slower_x_LAG_RollingMean,slower_x_LAG,slower_x_Nonfarm_Payroll,slower_x_Level,question_x_Short-Term_Treasury_Diff,question_x_LAG_RollingMean,question_x_LAG,question_x_Nonfarm_Payroll,question_x_Level,imbalance_x_Short-Term_Treasury_Diff,imbalance_x_LAG_RollingMean,imbalance_x_LAG,imbalance_x_Nonfarm_Payroll,imbalance_x_Level,diminishing_x_Short-Term_Treasury_Diff,diminishing_x_LAG_RollingMean,diminishing_x_LAG,diminishing_x_Nonfarm_Payroll,diminishing_x_Level,stability_x_Short-Term_Treasury_Diff,stability_x_LAG_RollingMean,stability_x_LAG,stability_x_Nonfarm_Payroll,stability_x_Level,slow_x_Short-Term_Treasury_Diff,slow_x_LAG_RollingMean,slow_x_LAG,slow_x_Nonfarm_Payroll,slow_x_Level,Housing Sales_x_Short-Term_Treasury_Diff,Housing Sales_x_LAG_RollingMean,Housing Sales_x_LAG,Housing Sales_x_Nonfarm_Payroll,Housing Sales_x_Level,slowed_x_Short-Term_Treasury_Diff,slowed_x_LAG_RollingMean,slowed_x_LAG,slowed_x_Nonfarm_Payroll,slowed_x_Level,better_x_Short-Term_Treasury_Diff,better_x_LAG_RollingMean,better_x_LAG,better_x_Nonfarm_Payroll,better_x_Level,gain_x_Short-Term_Treasury_Diff,gain_x_LAG_RollingMean,gain_x_LAG,gain_x_Nonfarm_Payroll,gain_x_Level,stable_x_Short-Term_Treasury_Diff,stable_x_LAG_RollingMean,stable_x_LAG,stable_x_Nonfarm_Payroll,stable_x_Level,despite_x_Short-Term_Treasury_Diff,despite_x_LAG_RollingMean,despite_x_LAG,despite_x_Nonfarm_Payroll,despite_x_Level,unemployment_x_Short-Term_Treasury_Diff,unemployment_x_LAG_RollingMean,unemployment_x_LAG,unemployment_x_Nonfarm_Payroll,unemployment_x_Level,favored_x_Short-Term_Treasury_Diff,favored_x_LAG_RollingMean,favored_x_LAG,favored_x_Nonfarm_Payroll,favored_x_Level,strength_x_Short-Term_Treasury_Diff,strength_x_LAG_RollingMean,strength_x_LAG,strength_x_Nonfarm_Payroll,strength_x_Level,rebounded_x_Short-Term_Treasury_Diff,rebounded_x_LAG_RollingMean,rebounded_x_LAG,rebounded_x_Nonfarm_Payroll,rebounded_x_Level,strengthened_x_Short-Term_Treasury_Diff,strengthened_x_LAG_RollingMean,strengthened_x_LAG,strengthened_x_Nonfarm_Payroll,strengthened_x_Level,difficult_x_Short-Term_Treasury_Diff,difficult_x_LAG_RollingMean,difficult_x_LAG,difficult_x_Nonfarm_Payroll,difficult_x_Level,desirable_x_Short-Term_Treasury_Diff,desirable_x_LAG_RollingMean,desirable_x_LAG,desirable_x_Nonfarm_Payroll,desirable_x_Level,Standardized Sentiment Score_x_Short-Term_Treasury_Diff,Standardized Sentiment Score_x_LAG_RollingMean,Standardized Sentiment Score_x_LAG,Standardized Sentiment Score_x_Nonfarm_Payroll,Standardized Sentiment Score_x_Level,Net Sentiment Score_x_Short-Term_Treasury_Diff,Net Sentiment Score_x_LAG_RollingMean,Net Sentiment Score_x_LAG,Net Sentiment Score_x_Nonfarm_Payroll,Net Sentiment Score_x_Level,desired_x_Short-Term_Treasury_Diff,desired_x_LAG_RollingMean,desired_x_LAG,desired_x_Nonfarm_Payroll,desired_x_Level,Sentiment Label_x_Short-Term_Treasury_Diff,Sentiment Label_x_LAG_RollingMean,Sentiment Label_x_LAG,Sentiment Label_x_Nonfarm_Payroll,Sentiment Label_x_Level,boost_x_Short-Term_Treasury_Diff,boost_x_LAG_RollingMean,boost_x_LAG,boost_x_Nonfarm_Payroll,boost_x_Level,slowly_x_Short-Term_Treasury_Diff,slowly_x_LAG_RollingMean,slowly_x_LAG,slowly_x_Nonfarm_Payroll,slowly_x_Level,problem_x_Short-Term_Treasury_Diff,problem_x_LAG_RollingMean,problem_x_LAG,problem_x_Nonfarm_Payroll,problem_x_Level,deficit_x_Short-Term_Treasury_Diff,deficit_x_LAG_RollingMean,deficit_x_LAG,deficit_x_Nonfarm_Payroll,deficit_x_Level,volatility_x_Short-Term_Treasury_Diff,volatility_x_LAG_RollingMean,volatility_x_LAG,volatility_x_Nonfarm_Payroll,volatility_x_Level,weakened_x_Short-Term_Treasury_Diff,weakened_x_LAG_RollingMean,weakened_x_LAG,weakened_x_Nonfarm_Payroll,weakened_x_Level,strengthening_x_Short-Term_Treasury_Diff,strengthening_x_LAG_RollingMean,strengthening_x_LAG,strengthening_x_Nonfarm_Payroll,strengthening_x_Level,caution_x_Short-Term_Treasury_Diff,caution_x_LAG_RollingMean,caution_x_LAG,caution_x_Nonfarm_Payroll,caution_x_Level,good_x_Short-Term_Treasury_Diff,good_x_LAG_RollingMean,good_x_LAG,good_x_Nonfarm_Payroll,good_x_Level,severe_x_Short-Term_Treasury_Diff,severe_x_LAG_RollingMean,severe_x_LAG,severe_x_Nonfarm_Payroll,severe_x_Level,lagged_x_Short-Term_Treasury_Diff,lagged_x_LAG_RollingMean,lagged_x_LAG,lagged_x_Nonfarm_Payroll,lagged_x_Level,LEI_x_Short-Term_Treasury_Diff,LEI_x_LAG_RollingMean,LEI_x_LAG,LEI_x_Nonfarm_Payroll,LEI_x_Level,Short-Term Treasury Bond Rate_x_Short-Term_Treasury_Diff,Short-Term Treasury Bond Rate_x_LAG_RollingMean,Short-Term Treasury Bond Rate_x_LAG,Short-Term Treasury Bond Rate_x_Nonfarm_Payroll,Short-Term Treasury Bond Rate_x_Level,Treasury Deposits_x_Short-Term_Treasury_Diff,Treasury Deposits_x_LAG_RollingMean,Treasury Deposits_x_LAG,Treasury Deposits_x_Nonfarm_Payroll,Treasury Deposits_x_Level,progress_x_Short-Term_Treasury_Diff,progress_x_LAG_RollingMean,progress_x_LAG,progress_x_Nonfarm_Payroll,progress_x_Level,Unemployment Rate_x_Short-Term_Treasury_Diff,Unemployment Rate_x_LAG_RollingMean,Unemployment Rate_x_LAG,Unemployment Rate_x_Nonfarm_Payroll,Unemployment Rate_x_Level,absence_x_Short-Term_Treasury_Diff,absence_x_LAG_RollingMean,absence_x_LAG,absence_x_Nonfarm_Payroll,absence_x_Level,Bank Reserves_x_Short-Term_Treasury_Diff,Bank Reserves_x_LAG_RollingMean,Bank Reserves_x_LAG,Bank Reserves_x_Nonfarm_Payroll,Bank Reserves_x_Level,decline_x_Short-Term_Treasury_Diff,decline_x_LAG_RollingMean,decline_x_LAG,decline_x_Nonfarm_Payroll,decline_x_Level,difficulty_x_Short-Term_Treasury_Diff,difficulty_x_LAG_RollingMean,difficulty_x_LAG,difficulty_x_Nonfarm_Payroll,difficulty_x_Level,slowdown_x_Short-Term_Treasury_Diff,slowdown_x_LAG_RollingMean,slowdown_x_LAG,slowdown_x_Nonfarm_Payroll,slowdown_x_Level,CEI_x_Short-Term_Treasury_Diff,CEI_x_LAG_RollingMean,CEI_x_LAG,CEI_x_Nonfarm_Payroll,CEI_x_Level,tightening_x_Short-Term_Treasury_Diff,tightening_x_LAG_RollingMean,tightening_x_LAG,tightening_x_Nonfarm_Payroll,tightening_x_Level,CEI_RollingMean_x_Short-Term_Treasury_Diff,CEI_RollingMean_x_LAG_RollingMean,CEI_RollingMean_x_LAG,CEI_RollingMean_x_Nonfarm_Payroll,CEI_RollingMean_x_Level
0.1999999999999999,0.9131199343970212,0.9108264038049682,146588.0,2.19,1.25,8793,0.0053630363036303,0.0244854767886989,0.0244239753495556,3930.783828382836,0.0335189768976897,-0.3999999999999998,-1.8262398687940424,-1.8216528076099363,-293176.0,-2.5,-0.1999999999999999,-0.9131199343970212,-0.9108264038049682,-146588.0,-1.25,-0.1999999999999999,-0.9131199343970212,-0.9108264038049682,-146588.0,-1.25,0.0,0.0,0.0,0.0,0.0,18.99999999999999,86.74639376771701,86.52850836147198,13925860.0,118.75,0.0,0.0,0.0,0.0,0.0,0.0,0.0,0.0,0.0,0.0,0.0,0.0,0.0,0.0,0.0,0.003052805280528,0.0139378867874132,0.0139028782759008,2237.523102310222,0.0190800330033002,1.5999999999999992,7.30495947517617,7.286611230439745,1172704.0,10.0,-0.1999999999999999,-0.9131199343970212,-0.9108264038049682,-146588.0,-1.25,0.0,0.0,0.0,0.0,0.0,0.3999999999999998,1.8262398687940424,1.8216528076099363,293176.0,2.5,-0.7999999999999996,-3.652479737588085,-3.6433056152198726,-586352.0,-5.0,0.1999999999999999,0.9131199343970212,0.9108264038049682,146588.0,1.25,-0.5999999999999996,-2.739359803191064,-2.7324792114149044,-439764.0,-3.75,0.0,0.0,0.0,0.0,0.0,-0.3999999999999998,-1.8262398687940424,-1.8216528076099363,-293176.0,-2.5,0.0,0.0,0.0,0.0,0.0,1.3999999999999992,6.391839540779149,6.375784826634777,1026116.0,8.75,-0.3999999999999998,-1.8262398687940424,-1.8216528076099363,-293176.0,-2.5,123.79999999999994,565.2212393917562,563.8015439552753,90737972.0,773.75,-0.9999999999999996,-4.565599671985106,-4.55413201902484,-732940.0,-6.25,0.0,0.0,0.0,0.0,0.0,1.9999999999999991,9.131199343970213,9.10826403804968,1465880.0,12.5,0.3999999999999998,1.8262398687940424,1.8216528076099363,293176.0,2.5,0.3999999999999998,1.8262398687940424,1.8216528076099363,293176.0,2.5,-4.1999999999999975,-19.17551862233745,-19.12735447990433,-3078348.0,-26.25,0.0,0.0,0.0,0.0,0.0,0.1999999999999999,0.9131199343970212,0.9108264038049682,146588.0,1.25,0.0,0.0,0.0,0.0,0.0,0.7999999999999996,3.652479737588085,3.6433056152198726,586352.0,5.0,-0.1999999999999999,-0.9131199343970212,-0.9108264038049682,-146588.0,-1.25,0.0,0.0,0.0,0.0,0.0,0.1666597033632754,0.7609014870085059,0.7589902913678751,122151.56298307916,1.041623146020472,-11.199999999999994,-51.13471632623319,-51.006278613078216,-8208928.0,-70.0,0.0,0.0,0.0,0.0,0.0,0.0,0.0,0.0,0.0,0.0,0.0,0.0,0.0,0.0,0.0,0.0,0.0,0.0,0.0,0.0,0.0,0.0,0.0,0.0,0.0,-0.3999999999999998,-1.8262398687940424,-1.8216528076099363,-293176.0,-2.5,-0.7999999999999996,-3.652479737588085,-3.6433056152198726,-586352.0,-5.0,0.0,0.0,0.0,0.0,0.0,0.7999999999999996,3.652479737588085,3.6433056152198726,586352.0,5.0,0.0,0.0,0.0,0.0,0.0,0.1999999999999999,0.9131199343970212,0.9108264038049682,146588.0,1.25,0.0,0.0,0.0,0.0,0.0,0.0,0.0,0.0,0.0,0.0,-0.076435142538244,-0.3489722617007419,-0.3480957300121449,-56022.37337198061,-0.4777196408640254,0.1979999999999999,0.903988735053051,0.9017181397669184,145122.12,1.2375,36.336399999999976,165.8974559211196,165.48076269609422,26632401.016,227.1025,0.1999999999999999,0.9131199343970212,0.9108264038049682,146588.0,1.25,0.8599999999999995,3.926415717907191,3.916553536361363,630328.4,5.375,-0.1999999999999999,-0.9131199343970212,-0.9108264038049682,-146588.0,-1.25,30.488799999999983,139.19965527921948,138.85002030164455,22346461.072,190.555,-1.3999999999999992,-6.391839540779149,-6.375784826634777,-1026116.0,-8.75,0.0,0.0,0.0,0.0,0.0,-0.1999999999999999,-0.9131199343970212,-0.9108264038049682,-146588.0,-1.25,0.0312668464407542,0.1427519038539161,0.1423933465097716,22916.7224302864,0.1954177902547138,-0.5999999999999996,-2.739359803191064,-2.7324792114149044,-439764.0,-3.75,0.0328698551275808,0.1500705997886813,0.149693659697224,24091.631617209143,0.2054365945473806
0.1499999999999999,0.8352103118170144,0.2577698190955925,146772.0,2.32,1.25,8835,0.0035778821828695,0.0199218939573266,0.0061484669534907,3500.886158294168,0.029815684857246,-0.5999999999999996,-3.3408412472680578,-1.03107927638237,-587088.0,-5.0,-0.1499999999999999,-0.8352103118170144,-0.2577698190955925,-146772.0,-1.25,-0.5999999999999996,-3.3408412472680578,-1.03107927638237,-587088.0,-5.0,0.0,0.0,0.0,0.0,0.0,14.009999999999993,78.00864312370915,24.07570110352834,13708504.8,116.75,0.0,0.0,0.0,0.0,0.0,0.2999999999999998,1.6704206236340289,0.515539638191185,293544.0,2.5,0.0,0.0,0.0,0.0,0.0,0.0019244669316949,0.0107155641740165,0.0033071299522564,1883.0524033248892,0.0160372244307913,1.1999999999999993,6.681682494536116,2.06215855276474,1174176.0,10.0,0.0,0.0,0.0,0.0,0.0,0.0,0.0,0.0,0.0,0.0,0.2999999999999998,1.6704206236340289,0.515539638191185,293544.0,2.5,-0.2999999999999998,-1.6704206236340289,-0.515539638191185,-293544.0,-2.5,0.0,0.0,0.0,0.0,0.0,-0.4499999999999997,-2.5056309354510438,-0.7733094572867775,-440316.0,-3.75,0.0,0.0,0.0,0.0,0.0,-0.2999999999999998,-1.6704206236340289,-0.515539638191185,-293544.0,-2.5,0.0,0.0,0.0,0.0,0.0,1.9499999999999988,10.857734053621188,3.3510076482427023,1908036.0,16.25,-0.2999999999999998,-1.6704206236340289,-0.515539638191185,-293544.0,-2.5,85.79999999999995,477.74029835933226,147.4443365226789,83953584.0,715.0,-0.4499999999999997,-2.5056309354510438,-0.7733094572867775,-440316.0,-3.75,0.1499999999999999,0.8352103118170144,0.2577698190955925,146772.0,1.25,1.4999999999999991,8.352103118170145,2.5776981909559247,1467720.0,12.5,0.4499999999999997,2.5056309354510438,0.7733094572867775,440316.0,3.75,0.4499999999999997,2.5056309354510438,0.7733094572867775,440316.0,3.75,-2.2499999999999987,-12.528154677255216,-3.866547286433888,-2201580.0,-18.75,0.0,0.0,0.0,0.0,0.0,0.1499999999999999,0.8352103118170144,0.2577698190955925,146772.0,1.25,0.1499999999999999,0.8352103118170144,0.2577698190955925,146772.0,1.25,0.1499999999999999,0.8352103118170144,0.2577698190955925,146772.0,1.25,-0.1499999999999999,-0.8352103118170144,-0.2577698190955925,-146772.0,-1.25,0.1499999999999999,0.8352103118170144,0.2577698190955925,146772.0,1.25,0.1246814288698557,0.6942347672278881,0.2142607290957515,121998.28452057656,1.0390119072487989,-9.149999999999997,-50.94782902083788,-15.723958964831144,-8953092.0,-76.25,0.0,0.0,0.0,0.0,0.0,0.0,0.0,0.0,0.0,0.0,0.0,0.0,0.0,0.0,0.0,-0.1499999999999999,-0.8352103118170144,-0.2577698190955925,-146772.0,-1.25,-0.1499999999999999,-0.8352103118170144,-0.2577698190955925,-146772.0,-1.25,-0.1499999999999999,-0.8352103118170144,-0.2577698190955925,-146772.0,-1.25,-0.5999999999999996,-3.3408412472680578,-1.03107927638237,-587088.0,-5.0,-0.1499999999999999,-0.8352103118170144,-0.2577698190955925,-146772.0,-1.25,0.2999999999999998,1.6704206236340289,0.515539638191185,293544.0,2.5,-0.1499999999999999,-0.8352103118170144,-0.2577698190955925,-146772.0,-1.25,1.0499999999999994,5.846472182719101,1.8043887336691475,1027404.0,8.75,0.0,0.0,0.0,0.0,0.0,0.0,0.0,0.0,0.0,0.0,-0.0953770578565853,-0.5310660148839208,-0.1639021796637458,-93324.54357151168,-0.794808815471545,0.1709999999999998,0.9521397554713964,0.2938575937689754,167320.08,1.4249999999999998,26.994149999999987,150.30528292490175,46.38851441426193,26413235.892,224.95125,0.1499999999999999,0.8352103118170144,0.2577698190955925,146772.0,1.25,0.6449999999999996,3.591404340813162,1.1084102221110477,631119.6,5.375,-0.2999999999999998,-1.6704206236340289,-0.515539638191185,-293544.0,-2.5,27.059999999999985,150.6719402517894,46.501675364844886,26477668.8,225.5,-1.3499999999999992,-7.51689280635313,-2.3199283718603323,-1320948.0,-11.25,-0.1499999999999999,-0.8352103118170144,-0.2577698190955925,-146772.0,-1.25,0.0,0.0,0.0,0.0,0.0,-0.0167003917654049,-0.0929889294256678,-0.0286990464279597,-16340.99933461344,-0.1391699313783746,-0.5999999999999996,-3.3408412472680578,-1.03107927638237,-587088.0,-5.0,0.0159211819060069,0.0886502353614097,0.0273600011979961,15578.558071389663,0.1326765158833911
-0.1099999999999998,1.0868203836890884,2.0918649281667028,146999.0,2.2,1.25,8891,-0.002960244648318,0.0292477656772597,0.0562948359873606,3955.936391437297,0.0336391437308867,0.1099999999999998,-1.0868203836890884,-2.0918649281667028,-146999.0,-1.25,-0.0,0.0,0.0,0.0,0.0,-0.0,0.0,0.0,0.0,0.0,-0.0,0.0,0.0,0.0,0.0,-10.46099999999998,103.3566184888323,198.93635466865345,13979604.9,118.875,-0.0,0.0,0.0,0.0,0.0,-0.0,0.0,0.0,0.0,0.0,-0.0,0.0,0.0,0.0,0.0,-0.0015922528032619,0.0157317527506472,0.0302797981447165,2127.814271151872,0.0180937818552496,-0.7699999999999987,7.607742685823618,14.64305449716692,1028993.0,8.75,-0.0,0.0,0.0,0.0,0.0,-0.0,0.0,0.0,0.0,0.0,-0.4399999999999992,4.347281534756354,8.367459712666811,587996.0,5.0,0.2199999999999996,-2.173640767378177,-4.1837298563334056,-293998.0,-2.5,-0.2199999999999996,2.173640767378177,4.1837298563334056,293998.0,2.5,0.3299999999999994,-3.260461151067265,-6.275594784500108,-440997.0,-3.75,-0.0,0.0,0.0,0.0,0.0,0.1099999999999998,-1.0868203836890884,-2.0918649281667028,-146999.0,-1.25,0.1099999999999998,-1.0868203836890884,-2.0918649281667028,-146999.0,-1.25,-0.7699999999999987,7.607742685823618,14.64305449716692,1028993.0,8.75,0.2199999999999996,-2.173640767378177,-4.1837298563334056,-293998.0,-2.5,-70.06999999999988,692.3045844099493,1332.5179592421896,93638363.0,796.25,0.2199999999999996,-2.173640767378177,-4.1837298563334056,-293998.0,-2.5,-0.0,0.0,0.0,0.0,0.0,-1.099999999999998,10.868203836890885,20.91864928166703,1469990.0,12.5,-0.3299999999999994,3.260461151067265,6.275594784500108,440997.0,3.75,-0.549999999999999,5.434101918445442,10.459324640833517,734995.0,6.25,1.8699999999999968,-18.4759465227145,-35.561703778833945,-2498983.0,-21.25,-0.0,0.0,0.0,0.0,0.0,-0.2199999999999996,2.173640767378177,4.1837298563334056,293998.0,2.5,-0.0,0.0,0.0,0.0,0.0,-0.2199999999999996,2.173640767378177,4.1837298563334056,293998.0,2.5,0.1099999999999998,-1.0868203836890884,-2.0918649281667028,-146999.0,-1.25,-0.0,0.0,0.0,0.0,0.0,-0.0914330478378941,0.9033754557549368,1.738778054977086,122186.96908293296,1.0390119072487989,6.709999999999988,-66.2960434050344,-127.60376061816886,-8966939.0,-76.25,-0.0,0.0,0.0,0.0,0.0,-0.0,0.0,0.0,0.0,0.0,-0.4399999999999992,4.347281534756354,8.367459712666811,587996.0,5.0,-0.0,0.0,0.0,0.0,0.0,-0.0,0.0,0.0,0.0,0.0,0.1099999999999998,-1.0868203836890884,-2.0918649281667028,-146999.0,-1.25,0.1099999999999998,-1.0868203836890884,-2.0918649281667028,-146999.0,-1.25,-0.0,0.0,0.0,0.0,0.0,-0.4399999999999992,4.347281534756354,8.367459712666811,587996.0,5.0,-0.0,0.0,0.0,0.0,0.0,-0.4399999999999992,4.347281534756354,8.367459712666811,587996.0,5.0,0.3299999999999994,-3.260461151067265,-6.275594784500108,-440997.0,-3.75,-0.0,0.0,0.0,0.0,0.0,0.0969637133434183,-0.9580194558164812,-1.843954465890064,-129577.89907062896,-1.1018603789024837,-0.1132999999999998,1.119424995199761,2.154620876011704,151408.97,1.2875,-11.00626999999998,108.74398713077912,209.3057291175758,14708278.943,125.07125,-0.0,0.0,0.0,0.0,0.0,-0.4729999999999991,4.67332764986308,8.995019191116821,632095.7,5.375,0.2199999999999996,-2.173640767378177,-4.1837298563334056,-293998.0,-2.5,-7.725519999999986,76.32956918725206,146.91585763500387,10324033.768,87.78999999999999,0.9899999999999982,-9.781383453201796,-18.82678435350033,-1322991.0,-11.25,-0.0,0.0,0.0,0.0,0.0,0.1099999999999998,-1.0868203836890884,-2.0918649281667028,-146999.0,-1.25,-0.0393341086604772,0.3886282824222565,0.7480149307959146,52564.31489983183,0.4469785075054238,0.2199999999999996,-2.173640767378177,-4.1837298563334056,-293998.0,-2.5,-0.0147613067471983,0.1458444460249317,0.2807150898034076,19726.339368467427,0.1677421221272544
0.05,1.8042515790948408,3.063119990022228,147147.0,2.36,1.25,8933,0.0010094767202307,0.0364269993307157,0.0618429664240168,2970.82941903584,0.0252369180057683,0.0,0.0,0.0,0.0,0.0,-0.05,-1.8042515790948408,-3.063119990022228,-147147.0,-1.25,-0.05,-1.8042515790948408,-3.063119990022228,-147147.0,-1.25,0.0,0.0,0.0,0.0,0.0,5.035,181.6881340148505,308.4561829952384,14817702.9,125.875,0.0,0.0,0.0,0.0,0.0,0.15,5.412754737284524,9.189359970066684,441441.0,3.75,0.0,0.0,0.0,0.0,0.0,0.0008137618459002,0.0293646219094544,0.049853003545891,2394.8522867737847,0.0203440461475071,0.4,14.43401263275873,24.504959920177825,1177176.0,10.0,-0.05,-1.8042515790948408,-3.063119990022228,-147147.0,-1.25,0.0,0.0,0.0,0.0,0.0,0.15,5.412754737284524,9.189359970066684,441441.0,3.75,0.0,0.0,0.0,0.0,0.0,0.0,0.0,0.0,0.0,0.0,0.0,0.0,0.0,0.0,0.0,-0.15,-5.412754737284524,-9.189359970066684,-441441.0,-3.75,-0.05,-1.8042515790948408,-3.063119990022228,-147147.0,-1.25,0.0,0.0,0.0,0.0,0.0,0.4,14.43401263275873,24.504959920177825,1177176.0,10.0,0.0,0.0,0.0,0.0,0.0,31.3,1129.4614885133706,1917.5131137539147,92114022.0,782.5,-0.15,-5.412754737284524,-9.189359970066684,-441441.0,-3.75,0.05,1.8042515790948408,3.063119990022228,147147.0,1.25,0.2,7.217006316379365,12.252479960088912,588588.0,5.0,0.2,7.217006316379365,12.252479960088912,588588.0,5.0,0.45,16.238264211853572,27.56807991020005,1324323.0,11.25,-0.6000000000000001,-21.65101894913809,-36.75743988026674,-1765764.0,-15.0,0.0,0.0,0.0,0.0,0.0,0.05,1.8042515790948408,3.063119990022228,147147.0,1.25,0.05,1.8042515790948408,3.063119990022228,147147.0,1.25,0.05,1.8042515790948408,3.063119990022228,147147.0,1.25,-0.05,-1.8042515790948408,-3.063119990022228,-147147.0,-1.25,0.0,0.0,0.0,0.0,0.0,0.0424378525172341,1.531371248352275,2.599844687583103,124892.05368706914,1.0609463129308545,-0.95,-34.28078000280198,-58.19927981042233,-2795793.0,-23.75,0.0,0.0,0.0,0.0,0.0,0.0,0.0,0.0,0.0,0.0,0.0,0.0,0.0,0.0,0.0,-0.05,-1.8042515790948408,-3.063119990022228,-147147.0,-1.25,0.0,0.0,0.0,0.0,0.0,-0.1,-3.6085031581896825,-6.126239980044456,-294294.0,-2.5,-0.15,-5.412754737284524,-9.189359970066684,-441441.0,-3.75,-0.05,-1.8042515790948408,-3.063119990022228,-147147.0,-1.25,0.25,9.021257895474209,15.31559995011114,735735.0,6.25,0.0,0.0,0.0,0.0,0.0,0.3,10.825509474569047,18.37871994013337,882882.0,7.5,0.0,0.0,0.0,0.0,0.0,0.0,0.0,0.0,0.0,0.0,-0.0405651413722641,-1.463794407542261,-2.4851179087092,-119380.77715009105,-1.0141285343066035,0.054,1.9485917054224289,3.3081695892240064,158918.76,1.35,8.818800000000001,318.22667651443174,540.2608513601605,25953199.272,220.47,0.0,0.0,0.0,0.0,0.0,0.21,7.577856632198333,12.86510395809336,618017.4,5.25,0.0,0.0,0.0,0.0,0.0,9.8166,354.23232102684835,601.3884738810441,28889664.804,245.415,-0.55,-19.846767370043253,-33.69431989024451,-1618617.0,-13.75,-0.05,-1.8042515790948408,-3.063119990022228,-147147.0,-1.25,-0.05,-1.8042515790948408,-3.063119990022228,-147147.0,-1.25,0.0332510377479148,1.19986474726435,2.037038368292432,97855.80902984846,0.8312759436978706,-0.25,-9.021257895474209,-15.31559995011114,-735735.0,-6.25,0.0151877935976656,0.5480520116310935,0.9304406834668224,44696.765290314,0.37969483994164
0.1799999999999999,2.429563722122112,2.133706248177404,147521.0,2.4,1.5,8975,0.0027009394572024,0.0364561362270408,0.0320167299765657,2213.584942588714,0.0225078288100207,0.0,0.0,0.0,0.0,0.0,0.0,0.0,0.0,0.0,0.0,0.0,0.0,0.0,0.0,0.0,0.0,0.0,0.0,0.0,0.0,17.261999999999993,232.9951609515105,204.62242920021305,14147263.9,143.85000000000002,0.0,0.0,0.0,0.0,0.0,0.3599999999999998,4.859127444244224,4.267412496354808,295042.0,3.0,0.0,0.0,0.0,0.0,0.0,0.002794885177453,0.0377241757479815,0.0331303553670551,2290.579201461372,0.0232907098121085,0.8999999999999996,12.14781861061056,10.66853124088702,737605.0,7.5,-0.1799999999999999,-2.429563722122112,-2.133706248177404,-147521.0,-1.5,0.0,0.0,0.0,0.0,0.0,2.5199999999999987,34.013892109709566,29.871887474483657,2065294.0,21.0,0.0,0.0,0.0,0.0,0.0,0.1799999999999999,2.429563722122112,2.133706248177404,147521.0,1.5,0.0,0.0,0.0,0.0,0.0,0.0,0.0,0.0,0.0,0.0,0.0,0.0,0.0,0.0,0.0,0.0,0.0,0.0,0.0,0.0,1.4399999999999993,19.43650977697689,17.069649985419233,1180168.0,12.0,-0.1799999999999999,-2.429563722122112,-2.133706248177404,-147521.0,-1.5,113.39999999999996,1530.6251449369304,1344.2349363517646,92938230.0,945.0,-0.3599999999999998,-4.859127444244224,-4.267412496354808,-295042.0,-3.0,0.5399999999999997,7.288691166366336,6.401118744532212,442563.0,4.5,1.6199999999999992,21.86607349909901,19.20335623359664,1327689.0,13.5,0.8999999999999996,12.14781861061056,10.66853124088702,737605.0,7.5,0.5399999999999997,7.288691166366336,6.401118744532212,442563.0,4.5,-2.5199999999999987,-34.013892109709566,-29.871887474483657,-2065294.0,-21.0,0.0,0.0,0.0,0.0,0.0,0.3599999999999998,4.859127444244224,4.267412496354808,295042.0,3.0,0.0,0.0,0.0,0.0,0.0,0.1799999999999999,2.429563722122112,2.133706248177404,147521.0,1.5,0.0,0.0,0.0,0.0,0.0,0.0,0.0,0.0,0.0,0.0,0.1545059536243993,2.085455887654012,1.8315017701610516,126627.0710256946,1.2875496135366618,0.7199999999999996,9.718254888488447,8.534824992709616,590084.0,6.0,0.0,0.0,0.0,0.0,0.0,0.1799999999999999,2.429563722122112,2.133706248177404,147521.0,1.5,0.8999999999999996,12.14781861061056,10.66853124088702,737605.0,7.5,0.0,0.0,0.0,0.0,0.0,0.0,0.0,0.0,0.0,0.0,-0.1799999999999999,-2.429563722122112,-2.133706248177404,-147521.0,-1.5,-0.3599999999999998,-4.859127444244224,-4.267412496354808,-295042.0,-3.0,0.0,0.0,0.0,0.0,0.0,0.3599999999999998,4.859127444244224,4.267412496354808,295042.0,3.0,0.0,0.0,0.0,0.0,0.0,0.3599999999999998,4.859127444244224,4.267412496354808,295042.0,3.0,0.0,0.0,0.0,0.0,0.0,0.0,0.0,0.0,0.0,0.0,-0.2110613262495821,-2.848816341105357,-2.5019048364852394,-172977.65505369232,-1.758844385413185,0.2267999999999999,3.0612502898738607,2.688469872703529,185876.46,1.89,24.735959999999988,333.87550582146486,293.2181800370352,20272630.862,206.133,0.0,0.0,0.0,0.0,0.0,0.7379999999999995,9.961211260700658,8.748195617527356,604836.1,6.15,-0.3599999999999998,-4.859127444244224,-4.267412496354808,-295042.0,-3.0,22.96547999999999,309.97831705067176,272.23104537996227,18821614.306,191.379,-0.8999999999999996,-12.14781861061056,-10.66853124088702,-737605.0,-7.5,-0.1799999999999999,-2.429563722122112,-2.133706248177404,-147521.0,-1.5,-0.1799999999999999,-2.429563722122112,-2.133706248177404,-147521.0,-1.5,0.0511214418674385,0.690015558798351,0.6059896662688421,41897.14569848002,0.4260120155619879,-0.7199999999999996,-9.718254888488447,-8.534824992709616,-590084.0,-6.0,0.0783966942802376,1.0581653575420191,0.9293084245677604,64250.88187174967,0.6533057856686472
0.1299999999999999,2.183614411759895,1.3540169970800509,147670.0,2.58,1.5,9024,0.0027734783518092,0.0465862099978057,0.0288872063798713,3150.4580631666995,0.0320016732901066,-0.2599999999999998,-4.36722882351979,-2.7080339941601017,-295340.0,-3.0,0.0,0.0,0.0,0.0,0.0,-0.1299999999999999,-2.183614411759895,-1.3540169970800509,-147670.0,-1.5,0.0,0.0,0.0,0.0,0.0,12.44099999999999,208.97189920542195,129.57942662056087,14132019.0,143.55,0.1299999999999999,2.183614411759895,1.3540169970800509,147670.0,1.5,0.0,0.0,0.0,0.0,0.0,0.0,0.0,0.0,0.0,0.0,0.0022568500313741,0.0379083865668418,0.023506256171856,2563.608031792507,0.0260405772850867,0.6499999999999995,10.918072058799474,6.770084985400255,738350.0,7.5,-0.1299999999999999,-2.183614411759895,-1.3540169970800509,-147670.0,-1.5,0.0,0.0,0.0,0.0,0.0,1.299999999999999,21.83614411759895,13.540169970800507,1476700.0,15.0,0.0,0.0,0.0,0.0,0.0,0.1299999999999999,2.183614411759895,1.3540169970800509,147670.0,1.5,-0.1299999999999999,-2.183614411759895,-1.3540169970800509,-147670.0,-1.5,0.0,0.0,0.0,0.0,0.0,-0.1299999999999999,-2.183614411759895,-1.3540169970800509,-147670.0,-1.5,0.0,0.0,0.0,0.0,0.0,1.299999999999999,21.83614411759895,13.540169970800507,1476700.0,15.0,0.0,0.0,0.0,0.0,0.0,76.69999999999993,1288.3325029383382,798.87002827723,87125300.0,885.0,-0.2599999999999998,-4.36722882351979,-2.7080339941601017,-295340.0,-3.0,0.2599999999999998,4.36722882351979,2.7080339941601017,295340.0,3.0,2.0799999999999983,34.93783058815832,21.664271953280814,2362720.0,24.0,0.7799999999999994,13.10168647055937,8.124101982480305,886020.0,9.0,0.3899999999999997,6.550843235279685,4.062050991240152,443010.0,4.5,-2.209999999999998,-37.12144499991822,-23.018288950360866,-2510390.0,-25.5,0.0,0.0,0.0,0.0,0.0,0.5199999999999996,8.73445764703958,5.416067988320203,590680.0,6.0,0.1299999999999999,2.183614411759895,1.3540169970800509,147670.0,1.5,0.3899999999999997,6.550843235279685,4.062050991240152,443010.0,4.5,-0.1299999999999999,-2.183614411759895,-1.3540169970800509,-147670.0,-1.5,0.0,0.0,0.0,0.0,0.0,0.1103384165448087,1.8533581272154696,1.14923147255823,125335.9536243994,1.2731355755170253,-2.469999999999998,-41.488673823438006,-25.72632294452097,-2805730.0,-28.5,0.1299999999999999,2.183614411759895,1.3540169970800509,147670.0,1.5,0.0,0.0,0.0,0.0,0.0,0.7799999999999994,13.10168647055937,8.124101982480305,886020.0,9.0,-0.1299999999999999,-2.183614411759895,-1.3540169970800509,-147670.0,-1.5,0.0,0.0,0.0,0.0,0.0,-0.1299999999999999,-2.183614411759895,-1.3540169970800509,-147670.0,-1.5,-0.1299999999999999,-2.183614411759895,-1.3540169970800509,-147670.0,-1.5,0.0,0.0,0.0,0.0,0.0,0.6499999999999995,10.918072058799474,6.770084985400255,738350.0,7.5,0.0,0.0,0.0,0.0,0.0,0.7799999999999994,13.10168647055937,8.124101982480305,886020.0,9.0,0.0,0.0,0.0,0.0,0.0,0.0,0.0,0.0,0.0,0.0,-0.1884724450627983,-3.1657780558365536,-1.963037646894349,-214090.19971094967,-2.174682058416906,0.1806999999999998,3.035224032346254,1.8820836259412703,205261.3,2.085,30.805059999999973,517.4336382394482,320.850575662083,34992178.54,355.443,0.1299999999999999,2.183614411759895,1.3540169970800509,147670.0,1.5,0.5199999999999996,8.73445764703958,5.416067988320203,590680.0,6.0,-0.2599999999999998,-4.36722882351979,-2.7080339941601017,-295340.0,-3.0,34.98533999999997,587.6499432639994,364.39034622018914,39740655.06,403.677,-0.7799999999999994,-13.10168647055937,-8.124101982480305,-886020.0,-9.0,-0.2599999999999998,-4.36722882351979,-2.7080339941601017,-295340.0,-3.0,0.0,0.0,0.0,0.0,0.0,-0.0036397247559042,-0.0611365802448601,-0.0379096091091339,-4134.447343879866,-0.0419968241065876,-0.2599999999999998,-4.36722882351979,-2.7080339941601017,-295340.0,-3.0,0.0399113382457932,0.6703921029702935,0.4156971566231942,45336.21014427922,0.4605154412976151
0.3600000000000001,1.7920945371313486,1.8885603661365888,148281.0,2.84,1.75,9073,0.0063024240092343,0.0313737212156507,0.0330625227622988,2595.915929203536,0.0306367833782223,0.0,0.0,0.0,0.0,0.0,-0.3600000000000001,-1.7920945371313486,-1.8885603661365888,-148281.0,-1.75,-0.3600000000000001,-1.7920945371313486,-1.8885603661365888,-148281.0,-1.75,0.0,0.0,0.0,0.0,0.0,36.50400000000001,181.71838606511875,191.5000211262501,15035693.4,177.45000000000002,0.0,0.0,0.0,0.0,0.0,0.7200000000000002,3.584189074262697,3.7771207322731777,296562.0,3.5,0.0,0.0,0.0,0.0,0.0,0.0056791073489803,0.028270825710806,0.0297926029286648,2339.176991150434,0.0276067718353211,1.8000000000000005,8.960472685656743,9.442801830682944,741405.0,8.75,0.0,0.0,0.0,0.0,0.0,0.0,0.0,0.0,0.0,0.0,7.200000000000002,35.84189074262697,37.771207322731776,2965620.0,35.0,-1.4400000000000004,-7.168378148525394,-7.554241464546355,-593124.0,-7.0,0.0,0.0,0.0,0.0,0.0,0.0,0.0,0.0,0.0,0.0,0.0,0.0,0.0,0.0,0.0,0.0,0.0,0.0,0.0,0.0,0.0,0.0,0.0,0.0,0.0,2.1600000000000006,10.752567222788093,11.331362196819532,889686.0,10.5,0.0,0.0,0.0,0.0,0.0,244.44000000000003,1216.8321907121856,1282.332488606744,100682799.0,1188.25,-1.0800000000000003,-5.3762836113940455,-5.665681098409767,-444843.0,-5.25,0.0,0.0,0.0,0.0,0.0,3.960000000000001,19.713039908444834,20.77416402750248,1631091.0,19.25,0.3600000000000001,1.7920945371313486,1.8885603661365888,148281.0,1.75,1.4400000000000004,7.168378148525394,7.554241464546355,593124.0,7.0,-6.120000000000002,-30.465607131232925,-32.10552622432201,-2520777.0,-29.75,0.0,0.0,0.0,0.0,0.0,0.0,0.0,0.0,0.0,0.0,0.0,0.0,0.0,0.0,0.0,1.0800000000000003,5.3762836113940455,5.665681098409767,444843.0,5.25,0.0,0.0,0.0,0.0,0.0,0.0,0.0,0.0,0.0,0.0,0.3070566116565699,1.5285402120550022,1.6108192970410888,126474.059536244,1.4926363066638813,-3.240000000000001,-16.12885083418214,-16.9970432952293,-1334529.0,-15.75,0.0,0.0,0.0,0.0,0.0,0.0,0.0,0.0,0.0,0.0,1.0800000000000003,5.3762836113940455,5.665681098409767,444843.0,5.25,0.0,0.0,0.0,0.0,0.0,0.0,0.0,0.0,0.0,0.0,-0.7200000000000002,-3.584189074262697,-3.7771207322731777,-296562.0,-3.5,-5.400000000000001,-26.88141805697023,-28.328405492048837,-2224215.0,-26.25,0.0,0.0,0.0,0.0,0.0,1.4400000000000004,7.168378148525394,7.554241464546355,593124.0,7.0,0.0,0.0,0.0,0.0,0.0,1.4400000000000004,7.168378148525394,7.554241464546355,593124.0,7.0,0.0,0.0,0.0,0.0,0.0,0.0,0.0,0.0,0.0,0.0,-0.401821207437912,-2.0002821965361237,-2.10795446288997,-165506.80683361393,-1.9532975361565164,0.6300000000000001,3.13616543997986,3.3049806407390303,259491.75,3.0625,97.22808000000002,484.00530839936033,510.0586065654376,40047435.918,472.6365,0.3600000000000001,1.7920945371313486,1.8885603661365888,148281.0,1.75,1.4400000000000004,7.168378148525394,7.554241464546355,593124.0,7.0,-0.7200000000000002,-3.584189074262697,-3.7771207322731777,-296562.0,-3.5,89.97444000000003,447.8963955707008,472.0060037481515,37059722.049,437.37575,-2.880000000000001,-14.336756297050789,-15.10848292909271,-1186248.0,-14.0,0.0,0.0,0.0,0.0,0.0,-0.3600000000000001,-1.7920945371313486,-1.8885603661365888,-148281.0,-1.75,0.0821834203305059,0.4091123850474142,0.4311343066381597,33850.66597229932,0.3995027377177373,-0.7200000000000002,-3.584189074262697,-3.7771207322731777,-296562.0,-3.5,0.058115688759934,0.2893022454119542,0.3048749623409475,23937.367902810503,0.2825068203607905
0.03,1.7873654835950283,2.119519087568443,148426.0,2.87,1.75,9115,0.0005349182763744,0.0318698154578607,0.037792316568828,2646.5260029717647,0.0312035661218424,-0.03,-1.7873654835950283,-2.119519087568443,-148426.0,-1.75,-0.06,-3.5747309671900567,-4.239038175136886,-296852.0,-3.5,0.0,0.0,0.0,0.0,0.0,0.0,0.0,0.0,0.0,0.0,2.964,176.5917097791888,209.40848585176215,14664488.8,172.9,0.0,0.0,0.0,0.0,0.0,0.06,3.5747309671900567,4.239038175136886,296852.0,3.5,0.0,0.0,0.0,0.0,0.0,0.0004266610061558,0.0254199718532936,0.0301438715489461,2110.919549989379,0.0248885586924219,0.12,7.149461934380113,8.478076350273772,593704.0,7.0,0.0,0.0,0.0,0.0,0.0,0.0,0.0,0.0,0.0,0.0,0.75,44.684137089875705,52.98797718921108,3710650.0,43.75,0.0,0.0,0.0,0.0,0.0,0.0,0.0,0.0,0.0,0.0,-0.09,-5.362096450785085,-6.358557262705329,-445278.0,-5.25,0.0,0.0,0.0,0.0,0.0,-0.03,-1.7873654835950283,-2.119519087568443,-148426.0,-1.75,0.0,0.0,0.0,0.0,0.0,0.3,17.873654835950283,21.195190875684432,1484260.0,17.5,0.0,0.0,0.0,0.0,0.0,19.26,1147.4886404680085,1360.7312542189404,95289492.0,1123.5,-0.09,-5.362096450785085,-6.358557262705329,-445278.0,-5.25,0.0,0.0,0.0,0.0,0.0,0.3299999999999999,19.66102031954531,23.314709963252877,1632686.0,19.25,0.15,8.936827417975142,10.597595437842216,742130.0,8.75,0.0,0.0,0.0,0.0,0.0,-0.42,-25.0231167703304,-29.6732672259582,-2077964.0,-24.5,0.0,0.0,0.0,0.0,0.0,0.03,1.7873654835950283,2.119519087568443,148426.0,1.75,0.0,0.0,0.0,0.0,0.0,0.09,5.362096450785085,6.358557262705329,445278.0,5.25,-0.03,-1.7873654835950283,-2.119519087568443,-148426.0,-1.75,0.03,1.7873654835950283,2.119519087568443,148426.0,1.75,0.0254877794025485,1.5185325719199874,1.80072783144785,126101.6381867558,1.4867871318153332,-0.51,-30.38521322111548,-36.03182448866353,-2523242.0,-29.75,0.0,0.0,0.0,0.0,0.0,0.0,0.0,0.0,0.0,0.0,0.0,0.0,0.0,0.0,0.0,0.0,0.0,0.0,0.0,0.0,0.0,0.0,0.0,0.0,0.0,-0.06,-3.5747309671900567,-4.239038175136886,-296852.0,-3.5,-0.09,-5.362096450785085,-6.358557262705329,-445278.0,-5.25,-0.03,-1.7873654835950283,-2.119519087568443,-148426.0,-1.75,0.06,3.5747309671900567,4.239038175136886,296852.0,3.5,0.0,0.0,0.0,0.0,0.0,0.09,5.362096450785085,6.358557262705329,445278.0,5.25,-0.03,-1.7873654835950283,-2.119519087568443,-148426.0,-1.75,0.0,0.0,0.0,0.0,0.0,-0.0317021691169987,-1.888778761160528,-2.239778418693388,-156847.53844532184,-1.8492931984915932,0.0533999999999999,3.1815105607991505,3.772743975871829,264198.28,3.115,9.24633,550.8857030643073,653.2590974985575,45746525.886,539.36925,0.0,0.0,0.0,0.0,0.0,0.12,7.149461934380113,8.478076350273772,593704.0,7.0,0.0,0.0,0.0,0.0,0.0,10.78797,642.7348405352885,762.1769443705246,53373841.174,629.2982499999999,-0.3,-17.873654835950283,-21.195190875684432,-1484260.0,-17.5,0.0,0.0,0.0,0.0,0.0,0.0,0.0,0.0,0.0,0.0,0.0094203495122306,0.5612535853854137,0.6655536867579679,46607.49322341178,0.5495203882134574,-0.06,-3.5747309671900567,-4.239038175136886,-296852.0,-3.5,0.0051430104636581,0.3064146461503546,0.3633569615095892,25445.21570263081,0.300008943713392
0.1099999999999998,1.9127813310924653,1.7302645395723637,148966.0,2.91,2.0,9157,0.0024358737774497,0.0423572171491225,0.0383155092726855,3298.7488466506625,0.0442886141354492,0.0,0.0,0.0,0.0,0.0,0.0,0.0,0.0,0.0,0.0,0.0,0.0,0.0,0.0,0.0,0.0,0.0,0.0,0.0,0.0,10.801999999999982,187.8351267132801,169.91197778600613,14628461.2,196.4,0.0,0.0,0.0,0.0,0.0,0.1099999999999998,1.9127813310924653,1.7302645395723637,148966.0,2.0,0.0,0.0,0.0,0.0,0.0,0.0017863074367964,0.0310619592426899,0.0280980401333027,2419.0824875438234,0.0324783170326628,0.549999999999999,9.563906655462326,8.651322697861819,744830.0,10.0,-0.2199999999999996,-3.8255626621849306,-3.4605290791447274,-297932.0,-4.0,0.0,0.0,0.0,0.0,0.0,2.529999999999996,43.9939706151267,39.79608441016437,3426218.0,46.0,-0.2199999999999996,-3.8255626621849306,-3.4605290791447274,-297932.0,-4.0,0.0,0.0,0.0,0.0,0.0,0.0,0.0,0.0,0.0,0.0,0.0,0.0,0.0,0.0,0.0,-0.2199999999999996,-3.8255626621849306,-3.4605290791447274,-297932.0,-4.0,0.0,0.0,0.0,0.0,0.0,0.549999999999999,9.563906655462326,8.651322697861819,744830.0,10.0,-0.1099999999999998,-1.9127813310924653,-1.7302645395723637,-148966.0,-2.0,69.95999999999988,1216.528926574808,1100.4482471680233,94742376.0,1272.0,-0.3299999999999994,-5.738343993277396,-5.190793618717091,-446898.0,-6.0,0.0,0.0,0.0,0.0,0.0,0.9899999999999982,17.215031979832187,15.572380856151272,1340694.0,18.0,0.3299999999999994,5.738343993277396,5.190793618717091,446898.0,6.0,0.3299999999999994,5.738343993277396,5.190793618717091,446898.0,6.0,-1.649999999999997,-28.69171996638698,-25.953968093585456,-2234490.0,-30.0,0.1099999999999998,1.9127813310924653,1.7302645395723637,148966.0,2.0,0.0,0.0,0.0,0.0,0.0,0.0,0.0,0.0,0.0,0.0,0.2199999999999996,3.8255626621849306,3.4605290791447274,297932.0,4.0,0.0,0.0,0.0,0.0,0.0,0.0,0.0,0.0,0.0,0.0,0.0927658241069561,1.6130976046835768,1.4591765085133972,125626.85230833507,1.6866513473992062,-3.519999999999994,-61.20900259495889,-55.36846526631564,-4766912.0,-64.0,0.0,0.0,0.0,0.0,0.0,0.0,0.0,0.0,0.0,0.0,0.0,0.0,0.0,0.0,0.0,-0.1099999999999998,-1.9127813310924653,-1.7302645395723637,-148966.0,-2.0,0.0,0.0,0.0,0.0,0.0,-0.1099999999999998,-1.9127813310924653,-1.7302645395723637,-148966.0,-2.0,-0.1099999999999998,-1.9127813310924653,-1.7302645395723637,-148966.0,-2.0,0.0,0.0,0.0,0.0,0.0,0.0,0.0,0.0,0.0,0.0,0.0,0.0,0.0,0.0,0.0,0.2199999999999996,3.8255626621849306,3.4605290791447274,297932.0,4.0,0.0,0.0,0.0,0.0,0.0,0.0,0.0,0.0,0.0,0.0,-0.1042975407503748,-1.813621716601572,-1.6405666938634311,-141243.5223220033,-1.8963189227340909,0.2078999999999996,3.6151567157647593,3.270199979791767,281545.74,3.78,35.80433999999994,622.5988465826109,563.190726043567,48487539.204,650.988,0.1099999999999998,1.9127813310924653,1.7302645395723637,148966.0,2.0,0.4399999999999992,7.651125324369861,6.921058158289455,595864.0,8.0,-0.1099999999999998,-1.9127813310924653,-1.7302645395723637,-148966.0,-2.0,32.34758999999995,562.4896932530302,508.8171628875055,43806282.654,588.138,-0.6599999999999988,-11.476687986554792,-10.381587237434182,-893796.0,-12.0,-0.1099999999999998,-1.9127813310924653,-1.7302645395723637,-148966.0,-2.0,0.0,0.0,0.0,0.0,0.0,0.0254270622827357,0.4421491821722036,0.3999594928483242,34434.25236372746,0.462310223322469,0.0,0.0,0.0,0.0,0.0,0.0283599814947083,0.4931494832109638,0.4460933665747489,38406.11821218847,0.5156360271765164
0.07,1.7019483710771193,1.2560614860905492,149022.0,2.89,2.0,9206,0.001355896126011,0.0329666457573472,0.024329841471741,2886.547892720295,0.0387398893146018,-0.14,-3.4038967421542385,-2.5121229721810985,-298044.0,-4.0,0.0,0.0,0.0,0.0,0.0,-0.21,-5.105845113231358,-3.768184458271648,-447066.0,-6.0,0.0,0.0,0.0,0.0,0.0,6.853000000000001,166.62074552845,122.96841948826476,14589253.8,195.8,0.0,0.0,0.0,0.0,0.0,0.14,3.4038967421542385,2.5121229721810985,298044.0,4.0,0.0,0.0,0.0,0.0,0.0,0.0011472967220093,0.0278948541023707,0.020586788937627,2442.4636015325573,0.0327799063431246,0.35,8.509741855385597,6.280307430452746,745110.0,10.0,-0.07,-1.7019483710771193,-1.2560614860905492,-149022.0,-2.0,0.0,0.0,0.0,0.0,0.0,1.7500000000000002,42.54870927692798,31.40153715226373,3725550.0,50.0,0.0,0.0,0.0,0.0,0.0,0.0,0.0,0.0,0.0,0.0,-0.14,-3.4038967421542385,-2.5121229721810985,-298044.0,-4.0,0.0,0.0,0.0,0.0,0.0,-0.14,-3.4038967421542385,-2.5121229721810985,-298044.0,-4.0,0.0,0.0,0.0,0.0,0.0,0.56,13.615586968616954,10.048491888724394,1192176.0,16.0,-0.14,-3.4038967421542385,-2.5121229721810985,-298044.0,-4.0,43.96,1068.8235770364308,788.806613264865,93585816.0,1256.0,-0.21,-5.105845113231358,-3.768184458271648,-447066.0,-6.0,0.0,0.0,0.0,0.0,0.0,0.56,13.615586968616954,10.048491888724394,1192176.0,16.0,0.14,3.4038967421542385,2.5121229721810985,298044.0,4.0,0.14,3.4038967421542385,2.5121229721810985,298044.0,4.0,-0.91,-22.12532882400255,-16.32879931917714,-1937286.0,-26.0,0.0,0.0,0.0,0.0,0.0,0.14,3.4038967421542385,2.5121229721810985,298044.0,4.0,0.0,0.0,0.0,0.0,0.0,0.07,1.7019483710771193,1.2560614860905492,149022.0,2.0,-0.07,-1.7019483710771193,-1.2560614860905492,-149022.0,-2.0,0.07,1.7019483710771193,1.2560614860905492,149022.0,2.0,0.0595592228953415,1.4480960341335087,1.0687149431474423,126794.77877585126,1.7016920827240445,-0.98,-23.82727719507967,-17.584860805267688,-2086308.0,-28.0,0.0,0.0,0.0,0.0,0.0,0.0,0.0,0.0,0.0,0.0,0.07,1.7019483710771193,1.2560614860905492,149022.0,2.0,0.0,0.0,0.0,0.0,0.0,0.0,0.0,0.0,0.0,0.0,-0.07,-1.7019483710771193,-1.2560614860905492,-149022.0,-2.0,-0.07,-1.7019483710771193,-1.2560614860905492,-149022.0,-2.0,0.0,0.0,0.0,0.0,0.0,0.14,3.4038967421542385,2.5121229721810985,298044.0,4.0,0.0,0.0,0.0,0.0,0.0,0.42,10.211690226462716,7.536368916543296,894132.0,12.0,-0.07,-1.7019483710771193,-1.2560614860905492,-149022.0,-2.0,0.0,0.0,0.0,0.0,0.0,-0.0643974546533365,-1.5657306149822674,-1.15553089417598,-137094.82124785017,-1.8399272758096143,0.1372,3.3358188073111537,2.4618805127374763,292083.12,3.92,23.377270000000003,568.3843799532858,419.47554995628593,49767536.142000005,667.922,0.0,0.0,0.0,0.0,0.0,0.266,6.467403810093053,4.773033647144087,566283.6,7.6,0.0,0.0,0.0,0.0,0.0,24.422020000000003,593.7859593916119,438.2222676361874,51991689.492000006,697.772,-0.77,-18.721432081848317,-13.816676346996042,-1639242.0,-22.0,0.0,0.0,0.0,0.0,0.0,-0.14,-3.4038967421542385,-2.5121229721810985,-298044.0,-4.0,0.006964423449468,0.1693298449330495,0.1249677723957532,14826.461589809,0.198983527127659,-0.14,-3.4038967421542385,-2.5121229721810985,-298044.0,-4.0,0.0150420322647642,0.3657251758672145,0.2699102485757399,32022.76760228144,0.4297723504218362
0.1800000000000001,1.2823485750258747,0.8607196994147094,149361.0,3.0,2.25,9262,0.0046462093862815,0.0331003332542779,0.0222171330354337,3855.347111913351,0.0580776173285197,-0.1800000000000001,-1.2823485750258747,-0.8607196994147094,-149361.0,-2.25,0.0,0.0,0.0,0.0,0.0,-0.1800000000000001,-1.2823485750258747,-0.8607196994147094,-149361.0,-2.25,0.0,0.0,0.0,0.0,0.0,18.018000000000008,128.36309236009006,86.15804191141241,14951036.1,225.225,0.0,0.0,0.0,0.0,0.0,0.3600000000000002,2.564697150051749,1.7214393988294188,298722.0,4.5,0.0,0.0,0.0,0.0,0.0,0.0024368231046931,0.017360314643852,0.0116523425011016,2022.0351985559544,0.0304602888086642,1.0800000000000003,7.694091450155248,5.1643181964882565,896166.0,13.5,0.0,0.0,0.0,0.0,0.0,0.0,0.0,0.0,0.0,0.0,3.6000000000000023,25.64697150051749,17.214393988294187,2987220.0,45.0,-0.1800000000000001,-1.2823485750258747,-0.8607196994147094,-149361.0,-2.25,0.0,0.0,0.0,0.0,0.0,-0.3600000000000002,-2.564697150051749,-1.7214393988294188,-298722.0,-4.5,0.0,0.0,0.0,0.0,0.0,-0.3600000000000002,-2.564697150051749,-1.7214393988294188,-298722.0,-4.5,0.0,0.0,0.0,0.0,0.0,1.0800000000000003,7.694091450155248,5.1643181964882565,896166.0,13.5,-0.3600000000000002,-2.564697150051749,-1.7214393988294188,-298722.0,-4.5,107.10000000000008,762.9974021403955,512.1282211517521,88869795.0,1338.75,-0.3600000000000002,-2.564697150051749,-1.7214393988294188,-298722.0,-4.5,0.0,0.0,0.0,0.0,0.0,1.8000000000000012,12.823485750258747,8.607196994147094,1493610.0,22.5,0.3600000000000002,2.564697150051749,1.7214393988294188,298722.0,4.5,0.5400000000000003,3.847045725077624,2.5821590982441283,448083.0,6.75,-2.340000000000001,-16.67053147533637,-11.189356092391222,-1941693.0,-29.25,0.0,0.0,0.0,0.0,0.0,0.5400000000000003,3.847045725077624,2.5821590982441283,448083.0,6.75,0.0,0.0,0.0,0.0,0.0,0.0,0.0,0.0,0.0,0.0,0.0,0.0,0.0,0.0,0.0,0.1800000000000001,1.2823485750258747,0.8607196994147094,149361.0,2.25,0.1490912889074578,1.0621500104402744,0.7129211631876589,123713.46668059328,1.8636411113432207,-12.240000000000007,-87.19970310175948,-58.52893956020024,-10156548.0,-153.0,0.0,0.0,0.0,0.0,0.0,0.0,0.0,0.0,0.0,0.0,0.0,0.0,0.0,0.0,0.0,-0.1800000000000001,-1.2823485750258747,-0.8607196994147094,-149361.0,-2.25,0.0,0.0,0.0,0.0,0.0,-0.1800000000000001,-1.2823485750258747,-0.8607196994147094,-149361.0,-2.25,-0.3600000000000002,-2.564697150051749,-1.7214393988294188,-298722.0,-4.5,0.0,0.0,0.0,0.0,0.0,0.5400000000000003,3.847045725077624,2.5821590982441283,448083.0,6.75,-0.1800000000000001,-1.2823485750258747,-0.8607196994147094,-149361.0,-2.25,0.7200000000000004,5.129394300103499,3.442878797658837,597444.0,9.0,0.0,0.0,0.0,0.0,0.0,0.0,0.0,0.0,0.0,0.0,-0.1167076730773806,-0.8314439903631368,-0.5580699627252954,-96842.08199172578,-1.4588459134672571,0.3852000000000002,2.744225950555372,1.8419401567474785,319632.54000000004,4.815,59.99976000000003,427.4478152105249,286.9054188453039,49786800.852,749.997,0.0,0.0,0.0,0.0,0.0,0.6660000000000004,4.744689727595737,3.184662887834425,552635.7000000001,8.325000000000001,-0.3600000000000002,-2.564697150051749,-1.7214393988294188,-298722.0,-4.5,60.45804000000003,430.7126746825408,289.09681120001375,50167073.958,755.7255,-0.5400000000000003,-3.847045725077624,-2.5821590982441283,-448083.0,-6.75,-0.1800000000000001,-1.2823485750258747,-0.8607196994147094,-149361.0,-2.25,0.0,0.0,0.0,0.0,0.0,0.0113326184573384,0.0807353729448882,0.0541900441787884,9403.617918925149,0.1416577307167305,-0.3600000000000002,-2.564697150051749,-1.7214393988294188,-298722.0,-4.5,0.0236163519992833,0.1682466407421692,0.1129281077449729,19596.45528313866,0.2952043999910417
0.1399999999999996,0.5677147749360466,-0.4136368606971206,149622.0,3.12,2.25,9305,0.0032361034672536,0.0131227410827264,-0.0095612262791849,3458.5162355531,0.0520088057237202,0.0,0.0,-0.0,0.0,0.0,0.0,0.0,-0.0,0.0,0.0,-0.5599999999999984,-2.2708590997441864,1.6545474427884823,-598488.0,-9.0,0.0,0.0,-0.0,0.0,0.0,13.64999999999996,55.35219055626455,-40.329593917969255,14588145.0,219.375,0.0,0.0,-0.0,0.0,0.0,0.0,0.0,-0.0,0.0,0.0,0.0,0.0,-0.0,0.0,0.0,0.0024399192808658,0.0098941301814207,-0.0072088610835124,2607.6114474408323,0.0392129884424875,0.699999999999998,2.838573874680233,-2.068184303485603,748110.0,11.25,0.0,0.0,-0.0,0.0,0.0,0.0,0.0,-0.0,0.0,0.0,2.9399999999999915,11.922010273656978,-8.686374074639533,3142062.0,47.25,-0.9799999999999972,-3.9740034245523264,2.895458024879844,-1047354.0,-15.75,0.1399999999999996,0.5677147749360466,-0.4136368606971206,149622.0,2.25,-0.1399999999999996,-0.5677147749360466,0.4136368606971206,-149622.0,-2.25,0.0,0.0,-0.0,0.0,0.0,0.0,0.0,-0.0,0.0,0.0,0.0,0.0,-0.0,0.0,0.0,0.9799999999999972,3.9740034245523264,-2.895458024879844,1047354.0,15.75,-0.2799999999999992,-1.1354295498720932,0.8272737213942412,-299244.0,-4.5,87.49999999999974,354.82173433502913,-258.5230379357004,93513750.0,1406.25,-0.2799999999999992,-1.1354295498720932,0.8272737213942412,-299244.0,-4.5,0.1399999999999996,0.5677147749360466,-0.4136368606971206,149622.0,2.25,1.2599999999999965,5.109432974424419,-3.722731746274085,1346598.0,20.25,0.5599999999999984,2.2708590997441864,-1.6545474427884823,598488.0,9.0,0.2799999999999992,1.1354295498720932,-0.8272737213942412,299244.0,4.5,-1.6799999999999953,-6.81257729923256,4.963642328365447,-1795464.0,-27.0,0.1399999999999996,0.5677147749360466,-0.4136368606971206,149622.0,2.25,0.2799999999999992,1.1354295498720932,-0.8272737213942412,299244.0,4.5,0.0,0.0,-0.0,0.0,0.0,0.0,0.0,-0.0,0.0,0.0,0.0,0.0,-0.0,0.0,0.0,0.0,0.0,-0.0,0.0,0.0,0.1181240860664295,0.4790056352552104,-0.3490034009516753,126242.58575308126,1.8984228117819093,-4.339999999999987,-17.599158023017445,12.822742681610736,-4638282.0,-69.75,0.0,0.0,-0.0,0.0,0.0,0.0,0.0,-0.0,0.0,0.0,0.0,0.0,-0.0,0.0,0.0,0.0,0.0,-0.0,0.0,0.0,0.0,0.0,-0.0,0.0,0.0,-0.2799999999999992,-1.1354295498720932,0.8272737213942412,-299244.0,-4.5,-0.699999999999998,-2.838573874680233,2.068184303485603,-748110.0,-11.25,0.0,0.0,-0.0,0.0,0.0,0.0,0.0,-0.0,0.0,0.0,0.0,0.0,-0.0,0.0,0.0,0.8399999999999976,3.40628864961628,-2.4818211641827235,897732.0,13.5,0.0,0.0,-0.0,0.0,0.0,0.0,0.0,-0.0,0.0,0.0,-0.0286498351581878,-0.116178105134182,0.0846473419594488,-30618.89740027422,-0.4604437793280199,0.319199999999999,1.2943896868541862,-0.9430920423894348,341138.16,5.13,46.61565999999986,189.0314208956805,-137.72825186945954,49819487.718,749.18025,0.1399999999999996,0.5677147749360466,-0.4136368606971206,149622.0,2.25,0.5319999999999985,2.157316144756977,-1.5718200706490582,568563.6,8.549999999999999,-0.2799999999999992,-1.1354295498720932,0.8272737213942412,-299244.0,-4.5,52.271519999999846,211.96653008832183,-154.4387674047625,55864066.896,840.078,-2.9399999999999915,-11.922010273656978,8.686374074639533,-3142062.0,-47.25,-0.2799999999999992,-1.1354295498720932,0.8272737213942412,-299244.0,-4.5,-0.5599999999999984,-2.2708590997441864,1.6545474427884823,-598488.0,-9.0,-0.0255142237716507,-0.1034628700442191,0.0753830244573535,-27267.779922585298,-0.4100500249015313,-1.2599999999999965,-5.109432974424419,3.722731746274085,-1346598.0,-20.25,-0.0009237060241875,-0.0037457254116334,0.0027291347146567,-987.1910196498789,-0.0148452753887277
0.0900000000000003,-0.1197853037683027,-0.8064387500224989,149805.0,2.83,2.5,9346,0.0019337142857142,-0.0025736728123932,-0.0173269125719119,3218.6674285714157,0.0537142857142854,-0.0900000000000003,0.1197853037683027,0.8064387500224989,-149805.0,-2.5,-0.0900000000000003,0.1197853037683027,0.8064387500224989,-149805.0,-2.5,-0.1800000000000006,0.2395706075366054,1.6128775000449975,-299610.0,-5.0,-0.0900000000000003,0.1197853037683027,0.8064387500224989,-149805.0,-2.5,8.84700000000003,-11.774895360424155,-79.27292912721164,14725831.5,245.75,0.0900000000000003,-0.1197853037683027,-0.8064387500224989,149805.0,2.5,0.0900000000000003,-0.1197853037683027,-0.8064387500224989,149805.0,2.5,0.0,-0.0,-0.0,0.0,0.0,0.0011417142857142,-0.0015195621392321,-0.0102302515717139,1900.383428571416,0.0317142857142855,0.4500000000000015,-0.5989265188415135,-4.032193750112494,749025.0,12.5,-0.1800000000000006,0.2395706075366054,1.6128775000449975,-299610.0,-5.0,0.0,-0.0,-0.0,0.0,0.0,1.800000000000006,-2.395706075366054,-16.128775000449977,2996100.0,50.0,-0.4500000000000015,0.5989265188415135,4.032193750112494,-749025.0,-12.5,0.0,-0.0,-0.0,0.0,0.0,0.0,-0.0,-0.0,0.0,0.0,0.0,-0.0,-0.0,0.0,0.0,0.0,-0.0,-0.0,0.0,0.0,0.0,-0.0,-0.0,0.0,0.0,1.4400000000000048,-1.9165648602928431,-12.903020000359982,2396880.0,40.0,-0.3600000000000012,0.4791412150732108,3.2257550000899955,-599220.0,-10.0,49.14000000000016,-65.40277585749327,-440.3155575122844,81793530.0,1365.0,-0.4500000000000015,0.5989265188415135,4.032193750112494,-749025.0,-12.5,0.0900000000000003,-0.1197853037683027,-0.8064387500224989,149805.0,2.5,0.8100000000000027,-1.0780677339147242,-7.25794875020249,1348245.0,22.5,0.2700000000000009,-0.359355911304908,-2.4193162500674967,449415.0,7.5,0.1800000000000006,-0.2395706075366054,-1.6128775000449975,299610.0,5.0,-1.0800000000000036,1.4374236452196325,9.677265000269989,-1797660.0,-30.0,0.0,-0.0,-0.0,0.0,0.0,0.0,-0.0,-0.0,0.0,0.0,0.0900000000000003,-0.1197853037683027,-0.8064387500224989,149805.0,2.5,0.0900000000000003,-0.1197853037683027,-0.8064387500224989,149805.0,2.5,-0.0900000000000003,0.1197853037683027,0.8064387500224989,-149805.0,-2.5,0.0900000000000003,-0.1197853037683027,-0.8064387500224989,149805.0,2.5,0.0742072279089202,-0.098765948187485,-0.6649287124167126,123517.93085439732,2.0613118863588884,-6.930000000000023,9.223468390159308,62.09578375173241,-11534985.0,-192.5,0.0,-0.0,-0.0,0.0,0.0,0.0,-0.0,-0.0,0.0,0.0,0.0,-0.0,-0.0,0.0,0.0,0.0,-0.0,-0.0,0.0,0.0,0.0,-0.0,-0.0,0.0,0.0,-0.0900000000000003,0.1197853037683027,0.8064387500224989,-149805.0,-2.5,-0.6300000000000021,0.8384971263781189,5.645071250157492,-1048635.0,-17.5,0.0,-0.0,-0.0,0.0,0.0,0.0,-0.0,-0.0,0.0,0.0,0.0,-0.0,-0.0,0.0,0.0,0.3600000000000012,-0.4791412150732108,-3.2257550000899955,599220.0,10.0,0.0,-0.0,-0.0,0.0,0.0,-0.0900000000000003,0.1197853037683027,0.8064387500224989,-149805.0,-2.5,0.0034003236783369,-0.0045256533857793,-0.0304683641869995,5659.83876259187,0.09445343550936,0.2133000000000007,-0.2838911699308774,-1.9112598375533223,355037.85000000003,5.925000000000001,31.439880000000105,-41.84483973598872,-281.7148614228596,52331680.26,873.3299999999999,0.0,-0.0,-0.0,0.0,0.0,0.3510000000000011,-0.4671626846963805,-3.145111125087745,584239.5,9.75,0.0,-0.0,-0.0,0.0,0.0,30.1470300000001,-40.12412384735705,-270.1303687787864,50179731.435,837.4175,-0.5400000000000018,0.7187118226098161,4.8386325001349935,-898830.0,-15.0,-0.1800000000000006,0.2395706075366054,1.6128775000449975,-299610.0,-5.0,-0.1800000000000006,0.2395706075366054,1.6128775000449975,-299610.0,-5.0,-0.020397327004162,0.0271477779028327,0.1827688321448508,-33951.35079842766,-0.566592416782278,-0.2700000000000009,0.359355911304908,2.4193162500674967,-449415.0,-7.5,-0.0103776729238513,0.013812141151018,0.0929884175650332,-17273.636581750532,-0.2882686923292035
-0.0300000000000002,-0.8637697737841101,-1.3712337106327128,150114.0,2.71,2.5,9388,-0.000787230486378,-0.0226661966378246,-0.0359825660319798,3939.1439077385817,0.0656025405315057,0.0600000000000004,1.7275395475682205,2.7424674212654256,-300228.0,-5.0,0.0600000000000004,1.7275395475682205,2.7424674212654256,-300228.0,-5.0,0.0600000000000004,1.7275395475682205,2.7424674212654256,-300228.0,-5.0,-0.0,-0.0,-0.0,0.0,0.0,-2.7360000000000184,-78.77580336911085,-125.0565144097034,13690396.8,228.0,-0.0,-0.0,-0.0,0.0,0.0,-0.0,-0.0,-0.0,0.0,0.0,-0.0,-0.0,-0.0,0.0,0.0,-0.0004613070366037,-0.0132821024884067,-0.0210853253181027,2308.288149757634,0.038442253050309,-0.1800000000000012,-5.182618642704661,-8.227402263796277,900684.0,15.0,0.0600000000000004,1.7275395475682205,2.7424674212654256,-300228.0,-5.0,-0.0,-0.0,-0.0,0.0,0.0,-0.5400000000000036,-15.547855928113982,-24.68220679138883,2702052.0,45.0,0.0600000000000004,1.7275395475682205,2.7424674212654256,-300228.0,-5.0,-0.0,-0.0,-0.0,0.0,0.0,0.150000000000001,4.318848868920551,6.856168553163564,-750570.0,-12.5,0.0300000000000002,0.8637697737841101,1.3712337106327128,-150114.0,-2.5,-0.0,-0.0,-0.0,0.0,0.0,-0.0,-0.0,-0.0,0.0,0.0,-0.3600000000000024,-10.365237285409322,-16.454804527592554,1801368.0,30.0,0.1200000000000008,3.4550790951364405,5.484934842530851,-600456.0,-10.0,-17.730000000000118,-510.4879363064091,-810.3991229839332,88717374.0,1477.5,0.0900000000000006,2.5913093213523304,4.1137011318981385,-450342.0,-7.5,-0.0,-0.0,-0.0,0.0,0.0,-0.300000000000002,-8.637697737841101,-13.712337106327128,1501140.0,25.0,-0.150000000000001,-4.318848868920551,-6.856168553163564,750570.0,12.5,-0.1200000000000008,-3.4550790951364405,-5.484934842530851,600456.0,10.0,0.450000000000003,12.956546606761652,20.568505659490693,-2251710.0,-37.5,-0.0,-0.0,-0.0,0.0,0.0,-0.0,-0.0,-0.0,0.0,0.0,-0.0300000000000002,-0.8637697737841101,-1.3712337106327128,150114.0,2.5,-0.0,-0.0,-0.0,0.0,0.0,0.0300000000000002,0.8637697737841101,1.3712337106327128,-150114.0,-2.5,-0.0300000000000002,-0.8637697737841101,-1.3712337106327128,150114.0,2.5,-0.0248861499895552,-0.7165301382278466,-1.137490926451327,124525.31731773552,2.0738458324629203,1.950000000000013,56.14503529596716,89.13019119112633,-9757410.0,-162.5,-0.0,-0.0,-0.0,0.0,0.0,-0.0,-0.0,-0.0,0.0,0.0,-0.0,-0.0,-0.0,0.0,0.0,0.0300000000000002,0.8637697737841101,1.3712337106327128,-150114.0,-2.5,-0.0,-0.0,-0.0,0.0,0.0,-0.0,-0.0,-0.0,0.0,0.0,0.2400000000000016,6.910158190272881,10.969869685061704,-1200912.0,-20.0,0.0300000000000002,0.8637697737841101,1.3712337106327128,-150114.0,-2.5,-0.0300000000000002,-0.8637697737841101,-1.3712337106327128,150114.0,2.5,-0.0,-0.0,-0.0,0.0,0.0,-0.2100000000000014,-6.046388416488771,-9.59863597442899,1050798.0,17.5,-0.0,-0.0,-0.0,0.0,0.0,-0.0,-0.0,-0.0,0.0,0.0,-0.0183792915315931,-0.5291825496185429,-0.8400768041888884,91966.298965785,1.5316076276327493,-0.0702000000000004,-2.0212212706548174,-3.208686882880548,351266.75999999995,5.85,-11.284080000000076,-324.89490763206004,-515.7703629825461,56463279.504,940.34,-0.0300000000000002,-0.8637697737841101,-1.3712337106327128,150114.0,2.5,-0.1200000000000008,-3.4550790951364405,-5.484934842530851,600456.0,10.0,-0.0,-0.0,-0.0,0.0,0.0,-11.688780000000078,-336.54716188040766,-534.2683057389813,58488317.364,974.065,0.5100000000000035,14.684086154329872,23.31097308075612,-2551938.0,-42.5,-0.0,-0.0,-0.0,0.0,0.0,0.0900000000000006,2.5913093213523304,4.1137011318981385,-450342.0,-7.5,0.0067099567987874,0.1931952622063238,0.3066972986462132,-33575.28182977222,-0.5591630665656138,0.2100000000000014,6.046388416488771,9.59863597442899,-1050798.0,-17.5,0.0063254664885095,0.1821248919286267,0.2891230961507242,-31651.36921520372,-0.5271222073757897
0.06,-1.1090453024312803,-1.1494634466386315,150320.0,2.57,2.5,9437,0.0013889794587544,-0.0256740190650866,-0.0266096852661697,3479.85653733289,0.05787414411477,-0.12,2.2180906048625606,2.298926893277263,-300640.0,-5.0,-0.06,1.1090453024312803,1.1494634466386315,-150320.0,-2.5,-0.36,6.654271814587682,6.896780679831789,-901920.0,-15.0,0.0,-0.0,-0.0,0.0,0.0,5.904,-109.130057759238,-113.10720314924134,14791488.0,246.0,0.18,-3.327135907293841,-3.4483903399158944,450960.0,7.5,0.0,-0.0,-0.0,0.0,0.0,0.0,-0.0,-0.0,0.0,0.0,0.000948809911966,-0.0175378862627704,-0.0181770385268905,2377.0850994457005,0.0395337463319202,0.0,-0.0,-0.0,0.0,0.0,0.0,-0.0,-0.0,0.0,0.0,0.0,-0.0,-0.0,0.0,0.0,1.38,-25.508041955919445,-26.437659272688524,3457360.0,57.5,-0.42,7.763317117018962,8.046244126470421,-1052240.0,-17.5,0.0,-0.0,-0.0,0.0,0.0,-0.36,6.654271814587682,6.896780679831789,-901920.0,-15.0,0.0,-0.0,-0.0,0.0,0.0,0.0,-0.0,-0.0,0.0,0.0,0.0,-0.0,-0.0,0.0,0.0,0.42,-7.763317117018962,-8.046244126470421,1052240.0,17.5,-0.12,2.2180906048625606,2.298926893277263,-300640.0,-5.0,42.3,-781.8769382140526,-810.3717298802352,105975600.0,1762.5,-0.54,9.981407721881522,10.345171019747683,-1352880.0,-22.5,0.0,-0.0,-0.0,0.0,0.0,0.72,-13.308543629175364,-13.793561359663578,1803840.0,30.0,0.18,-3.327135907293841,-3.4483903399158944,450960.0,7.5,0.06,-1.1090453024312803,-1.1494634466386315,150320.0,2.5,-1.02,18.853770141331765,19.540878592856732,-2555440.0,-42.5,0.0,-0.0,-0.0,0.0,0.0,0.06,-1.1090453024312803,-1.1494634466386315,150320.0,2.5,0.24,-4.436181209725121,-4.597853786554526,601280.0,10.0,0.06,-1.1090453024312803,-1.1494634466386315,150320.0,2.5,-0.06,1.1090453024312803,1.1494634466386315,-150320.0,-2.5,0.0,-0.0,-0.0,0.0,0.0,0.0502736578232713,-0.929262734082278,-0.963128866611145,125952.27073323586,2.0947357426363067,-2.7,49.907038609407614,51.72585509873842,-6764400.0,-112.5,0.0,-0.0,-0.0,0.0,0.0,0.0,-0.0,-0.0,0.0,0.0,0.06,-1.1090453024312803,-1.1494634466386315,150320.0,2.5,0.0,-0.0,-0.0,0.0,0.0,0.0,-0.0,-0.0,0.0,0.0,-0.12,2.2180906048625606,2.298926893277263,-300640.0,-5.0,-0.6,11.090453024312804,11.494634466386316,-1503200.0,-25.0,0.0,-0.0,-0.0,0.0,0.0,0.06,-1.1090453024312803,-1.1494634466386315,150320.0,2.5,0.0,-0.0,-0.0,0.0,0.0,0.36,-6.654271814587682,-6.896780679831789,901920.0,15.0,-0.06,1.1090453024312803,1.1494634466386315,-150320.0,-2.5,0.0,-0.0,-0.0,0.0,0.0,0.0801452332504567,-1.4814115741446376,-1.5354002673954503,200790.5243701442,3.339384718769029,0.144,-2.6617087258350725,-2.7587122719327155,360768.0,6.0,16.20762,-299.58308040985446,-310.50111245015364,40605490.64,675.3175,0.12,-2.2180906048625606,-2.298926893277263,300640.0,5.0,0.2279999999999999,-4.214372149238865,-4.367961097226799,571216.0,9.5,-0.06,1.1090453024312803,1.1494634466386315,-150320.0,-2.5,14.75832,-272.7940911296269,-282.7358228965975,36974511.04,614.9300000000001,-1.08,19.962815443763045,20.690342039495366,-2705760.0,-45.0,0.0,-0.0,-0.0,0.0,0.0,-0.12,2.2180906048625606,2.298926893277263,-300640.0,-5.0,0.0033160764311378,-0.061294649807608,-0.0635284773975467,8307.87681881061,0.138169851297409,-0.12,2.2180906048625606,2.298926893277263,-300640.0,-5.0,-0.0079006850564038,0.1460369607965617,0.1513591445956716,-19793.849627977117,-0.3291952106834938
-0.0299999999999998,-1.430668799296538,-1.771309240618271,150563.0,2.53,2.5,9479,-0.0008002207505518,-0.0381616953454741,-0.0472479469995674,4016.121228844727,0.0666850625459894,0.0899999999999994,4.2920063978896135,5.313927721854814,-451689.0,-7.5,0.0299999999999998,1.430668799296538,1.771309240618271,-150563.0,-2.5,-0.0,-0.0,-0.0,0.0,0.0,-0.0,-0.0,-0.0,0.0,0.0,-2.915999999999981,-139.0610072916235,-172.17125818809595,14634723.6,243.0,-0.1199999999999992,-5.722675197186152,-7.085236962473084,602252.0,10.0,-0.0,-0.0,-0.0,0.0,0.0,-0.0,-0.0,-0.0,0.0,0.0,-0.0004194260485651,-0.020001992043145,-0.0247644411859801,2105.0014716703386,0.03495217071376,-0.0,-0.0,-0.0,0.0,0.0,0.0299999999999998,1.430668799296538,1.771309240618271,-150563.0,-2.5,-0.0,-0.0,-0.0,0.0,0.0,-0.6899999999999954,-32.905382383820374,-40.74011253422024,3462949.0,57.5,0.0899999999999994,4.2920063978896135,5.313927721854814,-451689.0,-7.5,-0.0,-0.0,-0.0,0.0,0.0,0.1799999999999988,8.584012795779227,10.627855443709628,-903378.0,-15.0,0.0299999999999998,1.430668799296538,1.771309240618271,-150563.0,-2.5,-0.0,-0.0,-0.0,0.0,0.0,-0.0,-0.0,-0.0,0.0,0.0,-0.4199999999999972,-20.02936319015153,-24.7983293686558,2107882.0,35.0,0.1199999999999992,5.722675197186152,7.085236962473084,-602252.0,-10.0,-20.849999999999863,-994.3148155110938,-1231.0599222296985,104641285.0,1737.5,0.2399999999999984,11.445350394372303,14.170473924946169,-1204504.0,-20.0,-0.0,-0.0,-0.0,0.0,0.0,-0.3299999999999978,-15.737356792261917,-19.484401646800983,1656193.0,27.5,-0.0899999999999994,-4.2920063978896135,-5.313927721854814,451689.0,7.5,-0.0599999999999996,-2.861337598593076,-3.542618481236542,301126.0,5.0,0.4199999999999972,20.02936319015153,24.7983293686558,-2107882.0,-35.0,-0.0,-0.0,-0.0,0.0,0.0,-0.0899999999999994,-4.2920063978896135,-5.313927721854814,451689.0,7.5,-0.0299999999999998,-1.430668799296538,-1.771309240618271,150563.0,2.5,-0.0299999999999998,-1.430668799296538,-1.771309240618271,150563.0,2.5,0.0299999999999998,1.430668799296538,1.771309240618271,-150563.0,-2.5,-0.0299999999999998,-1.430668799296538,-1.771309240618271,150563.0,2.5,-0.0248360142051387,-1.1844036874059285,-1.4664087153896403,124646.16022561103,2.0696678504282437,2.069999999999986,98.71614715146112,122.2203376026607,-10388847.0,-172.5,-0.0599999999999996,-2.861337598593076,-3.542618481236542,301126.0,5.0,-0.0,-0.0,-0.0,0.0,0.0,-0.0299999999999998,-1.430668799296538,-1.771309240618271,150563.0,2.5,0.0299999999999998,1.430668799296538,1.771309240618271,-150563.0,-2.5,0.0299999999999998,1.430668799296538,1.771309240618271,-150563.0,-2.5,0.0299999999999998,1.430668799296538,1.771309240618271,-150563.0,-2.5,0.0899999999999994,4.2920063978896135,5.313927721854814,-451689.0,-7.5,-0.0,-0.0,-0.0,0.0,0.0,-0.0,-0.0,-0.0,0.0,0.0,-0.0,-0.0,-0.0,0.0,0.0,-0.0899999999999994,-4.2920063978896135,-5.313927721854814,451689.0,7.5,0.0299999999999998,1.430668799296538,1.771309240618271,-150563.0,-2.5,-0.0,-0.0,-0.0,0.0,0.0,-0.0404746558156811,-1.9301942412587176,-2.38977106190535,203132.85345254792,3.372887984640116,-0.0710999999999995,-3.390685054332795,-4.198002900265303,356834.31,5.925000000000001,-9.275039999999938,-442.317011340912,-547.6321353034697,46549261.584,772.9200000000001,-0.0299999999999998,-1.430668799296538,-1.771309240618271,150563.0,2.5,-0.1079999999999992,-5.150407677467537,-6.376713266225776,542026.8,9.0,0.0299999999999998,1.430668799296538,1.771309240618271,-150563.0,-2.5,-11.358059999999924,-541.6540687512678,-670.6212211165587,57003452.926,946.505,0.449999999999997,21.46003198944807,26.569638609274065,-2258445.0,-37.5,0.0299999999999998,1.430668799296538,1.771309240618271,-150563.0,-2.5,0.0299999999999998,1.430668799296538,1.771309240618271,-150563.0,-2.5,0.0037304285836857,0.1779002594227738,0.2202580873916382,-18722.150628182728,-0.3108690486404815,0.0599999999999996,2.861337598593076,3.542618481236542,-301126.0,-5.0,0.0029274490556347,0.1396070008475578,0.1728472521228347,-14692.183738784435,-0.2439540879695615
-0.2200000000000002,-1.397566776904256,-1.2719276434558675,150797.0,2.07,2.5,9528,-0.0071422332217207,-0.0453715811980853,-0.0412927448668886,4895.578832435571,0.0811617411559177,0.4400000000000004,2.795133553808512,2.543855286911735,-301594.0,-5.0,0.8800000000000008,5.590267107617024,5.08771057382347,-603188.0,-10.0,0.8800000000000008,5.590267107617024,5.08771057382347,-603188.0,-10.0,-0.0,-0.0,-0.0,0.0,0.0,-21.60400000000002,-137.24105749199794,-124.9032945873662,14808265.4,245.5,-0.0,-0.0,-0.0,0.0,0.0,-0.2200000000000002,-1.397566776904256,-1.2719276434558675,150797.0,2.5,-0.0,-0.0,-0.0,0.0,0.0,-0.0031387392633571,-0.0199390805265128,-0.0181465874302918,2151.420294074824,0.035667491629058,-0.2200000000000002,-1.397566776904256,-1.2719276434558675,150797.0,2.5,0.2200000000000002,1.397566776904256,1.2719276434558675,-150797.0,-2.5,-0.0,-0.0,-0.0,0.0,0.0,-4.180000000000003,-26.553768761180866,-24.166625225661484,2865143.0,47.5,0.6600000000000006,4.192700330712768,3.8157829303676025,-452391.0,-7.5,-0.0,-0.0,-0.0,0.0,0.0,1.100000000000001,6.98783388452128,6.359638217279338,-753985.0,-12.5,0.2200000000000002,1.397566776904256,1.2719276434558675,-150797.0,-2.5,0.2200000000000002,1.397566776904256,1.2719276434558675,-150797.0,-2.5,-0.0,-0.0,-0.0,0.0,0.0,-1.7600000000000016,-11.180534215234047,-10.17542114764694,1206376.0,20.0,1.100000000000001,6.98783388452128,6.359638217279338,-753985.0,-12.5,-167.86000000000016,-1066.3434507779473,-970.4807919568268,115058111.0,1907.5,1.100000000000001,6.98783388452128,6.359638217279338,-753985.0,-12.5,-0.6600000000000006,-4.192700330712768,-3.8157829303676025,452391.0,7.5,-1.5400000000000014,-9.782967438329791,-8.903493504191072,1055579.0,17.5,-0.8800000000000008,-5.590267107617024,-5.08771057382347,603188.0,10.0,-0.2200000000000002,-1.397566776904256,-1.2719276434558675,150797.0,2.5,3.0800000000000027,19.565934876659583,17.806987008382144,-2111158.0,-35.0,-0.2200000000000002,-1.397566776904256,-1.2719276434558675,150797.0,2.5,-0.2200000000000002,-1.397566776904256,-1.2719276434558675,150797.0,2.5,-0.6600000000000006,-4.192700330712768,-3.8157829303676025,452391.0,7.5,-0.2200000000000002,-1.397566776904256,-1.2719276434558675,150797.0,2.5,0.2200000000000002,1.397566776904256,1.2719276434558675,-150797.0,-2.5,-0.0,-0.0,-0.0,0.0,0.0,-0.1769834969709632,-1.1243011610316045,-1.023228191967526,121311.72905786506,2.0111761019427616,27.500000000000025,174.695847113032,158.99095543198345,-18849625.0,-312.5,-0.2200000000000002,-1.397566776904256,-1.2719276434558675,150797.0,2.5,-0.0,-0.0,-0.0,0.0,0.0,-0.0,-0.0,-0.0,0.0,0.0,-0.0,-0.0,-0.0,0.0,0.0,-0.0,-0.0,-0.0,0.0,0.0,0.2200000000000002,1.397566776904256,1.2719276434558675,-150797.0,-2.5,0.4400000000000004,2.795133553808512,2.543855286911735,-301594.0,-5.0,-0.0,-0.0,-0.0,0.0,0.0,-0.0,-0.0,-0.0,0.0,0.0,-0.0,-0.0,-0.0,0.0,0.0,-1.3200000000000012,-8.385400661425535,-7.631565860735205,904782.0,15.0,0.2200000000000002,1.397566776904256,1.2719276434558675,-150797.0,-2.5,-0.0,-0.0,-0.0,0.0,0.0,-0.2827392505109053,-1.7961226501856844,-1.6346539482491529,193801.04890587705,3.212946028533012,-0.4730000000000004,-3.00476857034415,-2.734644433430115,324213.55,5.375,-47.18428000000004,-299.74173690976335,-272.79540940255373,32342035.778,536.185,-0.2200000000000002,-1.397566776904256,-1.2719276434558675,150797.0,2.5,-0.7920000000000007,-5.031240396855321,-4.578939516441123,542869.2000000001,9.0,0.4400000000000004,2.795133553808512,2.543855286911735,-301594.0,-5.0,-41.26320000000004,-262.1276246761622,-238.5627488065825,28283485.32,468.9,3.0800000000000027,19.565934876659583,17.806987008382144,-2111158.0,-35.0,-0.0,-0.0,-0.0,0.0,0.0,-0.0,-0.0,-0.0,0.0,0.0,-0.0009208865100617,-0.0058500017807346,-0.005324095493787,631.2132866262874,0.01046461943252,-0.0,-0.0,-0.0,0.0,0.0,0.0047588809520428,0.0302311541537161,0.0275134192491765,-3261.9316860236427,-0.0540781926368502
-0.0699999999999998,-1.5703949519976916,-1.6679479719189385,150879.0,2.06,2.25,9570,-0.0017249103942652,-0.0386970082257495,-0.0411008684836656,3717.896505376344,0.0554435483870967,0.349999999999999,7.851974759988458,8.339739859594692,-754395.0,-11.25,0.2799999999999992,6.281579807990767,6.671791887675754,-603516.0,-9.0,0.5599999999999984,12.563159615981531,13.343583775351508,-1207032.0,-18.0,-0.0,-0.0,-0.0,0.0,0.0,-6.88799999999998,-154.52686327657287,-164.12608043682357,14846493.6,221.4,-0.0699999999999998,-1.5703949519976916,-1.6679479719189385,150879.0,2.25,-0.0699999999999998,-1.5703949519976916,-1.6679479719189385,150879.0,2.25,-0.0,-0.0,-0.0,0.0,0.0,-0.0011394862604539,-0.0255634781612526,-0.0271514828164819,2456.0649641576924,0.0366263440860213,-0.0,-0.0,-0.0,0.0,0.0,0.1399999999999996,3.1407899039953837,3.335895943837877,-301758.0,-4.5,-0.0,-0.0,-0.0,0.0,0.0,-1.4699999999999958,-32.978293991951524,-35.02690741029771,3168459.0,47.25,0.2799999999999992,6.281579807990767,6.671791887675754,-603516.0,-9.0,-0.0,-0.0,-0.0,0.0,0.0,0.6299999999999982,14.133554567979225,15.011531747270446,-1357911.0,-20.25,-0.0,-0.0,-0.0,0.0,0.0,0.0699999999999998,1.5703949519976916,1.6679479719189385,-150879.0,-2.25,-0.0,-0.0,-0.0,0.0,0.0,-0.5599999999999984,-12.563159615981531,-13.343583775351508,1207032.0,18.0,0.0699999999999998,1.5703949519976916,1.6679479719189385,-150879.0,-2.25,-46.82999999999986,-1050.5942228864558,-1115.85719321377,100938051.0,1505.25,0.2099999999999994,4.711184855993075,5.003843915756816,-452637.0,-6.75,-0.1399999999999996,-3.1407899039953837,-3.335895943837877,301758.0,4.5,-0.5599999999999984,-12.563159615981531,-13.343583775351508,1207032.0,18.0,-0.2799999999999992,-6.281579807990767,-6.671791887675754,603516.0,9.0,-0.1399999999999996,-3.1407899039953837,-3.335895943837877,301758.0,4.5,1.049999999999997,23.55592427996537,25.01921957878408,-2263185.0,-33.75,-0.1399999999999996,-3.1407899039953837,-3.335895943837877,301758.0,4.5,-0.0,-0.0,-0.0,0.0,0.0,-0.2799999999999992,-6.281579807990767,-6.671791887675754,603516.0,9.0,-0.0,-0.0,-0.0,0.0,0.0,0.2099999999999994,4.711184855993075,5.003843915756816,-452637.0,-6.75,-0.0699999999999998,-1.5703949519976916,-1.6679479719189385,150879.0,2.25,-0.0583308961771462,-1.308607784315603,-1.3898985711269367,125727.24691873824,1.8749216628368497,3.919999999999989,87.94211731187073,93.40508642746056,-8449224.0,-126.0,-0.0,-0.0,-0.0,0.0,0.0,-0.0,-0.0,-0.0,0.0,0.0,-0.0699999999999998,-1.5703949519976916,-1.6679479719189385,150879.0,2.25,-0.0,-0.0,-0.0,0.0,0.0,-0.0,-0.0,-0.0,0.0,0.0,0.0699999999999998,1.5703949519976916,1.6679479719189385,-150879.0,-2.25,0.4199999999999988,9.42236971198615,10.007687831513632,-905274.0,-13.5,0.2799999999999992,6.281579807990767,6.671791887675754,-603516.0,-9.0,-0.0699999999999998,-1.5703949519976916,-1.6679479719189385,150879.0,2.25,-0.0,-0.0,-0.0,0.0,0.0,-0.5599999999999984,-12.563159615981531,-13.343583775351508,1207032.0,18.0,-0.0,-0.0,-0.0,0.0,0.0,-0.0,-0.0,-0.0,0.0,0.0,-0.0951169564260377,-2.1338741174404925,-2.2664304937987447,205016.44669434556,3.057330742265507,-0.1455999999999996,-3.266421500155199,-3.4693317815913924,313828.32,4.68,-14.14769999999996,-317.3925237482535,-337.1089646045367,30494154.69,454.74750000000006,-0.0,-0.0,-0.0,0.0,0.0,-0.2589999999999993,-5.810461322391459,-6.171407496100072,558252.3,8.325000000000001,0.0699999999999998,1.5703949519976916,1.6679479719189385,-150879.0,-2.25,-13.53533999999996,-303.6547087081776,-322.5177557461898,29174265.198,435.0645,0.7699999999999978,17.274344471974608,18.34742769110832,-1659669.0,-24.75,0.2099999999999994,4.711184855993075,5.003843915756816,-452637.0,-6.75,0.0699999999999998,1.5703949519976916,1.6679479719189385,-150879.0,-2.25,0.0063688577732225,0.1428803156722861,0.15175604866124,-13727.527028086472,-0.2047132855678693,0.0699999999999998,1.5703949519976916,1.6679479719189385,-150879.0,-2.25,0.0049267272636818,0.1105272517822191,0.1173932106807977,-10619.138325957858,-0.1583590906183443
-0.1600000000000001,-1.7643917046559414,-2.35329949859302,151318.0,1.7,2.0,9619,-0.00464,-0.0511673594350223,-0.0682456854591975,4388.222000000001,0.058,1.1200000000000006,12.350741932591587,16.47309649015114,-1059226.0,-14.0,0.6400000000000003,7.057566818623766,9.41319799437208,-605272.0,-8.0,0.4800000000000002,5.293175113967824,7.05989849577906,-453954.0,-6.0,-0.0,-0.0,-0.0,0.0,0.0,-14.912000000000008,-164.44130687393374,-219.32751326886947,14102837.6,186.4,-0.1600000000000001,-1.7643917046559414,-2.35329949859302,151318.0,2.0,-0.1600000000000001,-1.7643917046559414,-2.35329949859302,151318.0,2.0,-0.0,-0.0,-0.0,0.0,0.0,-0.0021,-0.0231576411236092,-0.0308870559190333,1986.04875,0.02625,-0.0,-0.0,-0.0,0.0,0.0,-0.0,-0.0,-0.0,0.0,0.0,-0.0,-0.0,-0.0,0.0,0.0,-3.680000000000002,-40.58100920708665,-54.12588846763946,3480314.0,46.0,0.3200000000000002,3.528783409311883,4.70659899718604,-302636.0,-4.0,-0.0,-0.0,-0.0,0.0,0.0,0.4800000000000002,5.293175113967824,7.05989849577906,-453954.0,-6.0,-0.0,-0.0,-0.0,0.0,0.0,-0.0,-0.0,-0.0,0.0,0.0,-0.0,-0.0,-0.0,0.0,0.0,-2.240000000000001,-24.701483865183175,-32.94619298030228,2118452.0,28.0,0.4800000000000002,5.293175113967824,7.05989849577906,-453954.0,-6.0,-114.40000000000006,-1261.540068828998,-1682.6091414940092,108192370.0,1430.0,0.1600000000000001,1.7643917046559414,2.35329949859302,-151318.0,-2.0,-0.3200000000000002,-3.528783409311883,-4.70659899718604,302636.0,4.0,-1.760000000000001,-19.408308751215355,-25.88629448452322,1664498.0,22.0,-0.3200000000000002,-3.528783409311883,-4.70659899718604,302636.0,4.0,-0.3200000000000002,-3.528783409311883,-4.70659899718604,302636.0,4.0,2.720000000000001,29.994658979151005,40.00609147608134,-2572406.0,-34.0,-0.6400000000000003,-7.057566818623766,-9.41319799437208,605272.0,8.0,-0.0,-0.0,-0.0,0.0,0.0,-0.0,-0.0,-0.0,0.0,0.0,-0.0,-0.0,-0.0,0.0,0.0,0.1600000000000001,1.7643917046559414,2.35329949859302,-151318.0,-2.0,-0.0,-0.0,-0.0,0.0,0.0,-0.1285815750992271,-1.417926652979195,-1.8911934763081988,121604.41738040526,1.6072696887403384,20.32000000000001,224.07774649130457,298.8690363213136,-19217386.0,-254.0,-0.0,-0.0,-0.0,0.0,0.0,-0.0,-0.0,-0.0,0.0,0.0,-0.3200000000000002,-3.528783409311883,-4.70659899718604,302636.0,4.0,0.3200000000000002,3.528783409311883,4.70659899718604,-302636.0,-4.0,-0.0,-0.0,-0.0,0.0,0.0,0.1600000000000001,1.7643917046559414,2.35329949859302,-151318.0,-2.0,0.3200000000000002,3.528783409311883,4.70659899718604,-302636.0,-4.0,-0.0,-0.0,-0.0,0.0,0.0,-0.0,-0.0,-0.0,0.0,0.0,-0.0,-0.0,-0.0,0.0,0.0,-1.2800000000000007,-14.115133637247531,-18.82639598874416,1210544.0,16.0,0.1600000000000001,1.7643917046559414,2.35329949859302,-151318.0,-2.0,-0.0,-0.0,-0.0,0.0,0.0,-0.1819566224248621,-2.006517220085249,-2.6762401769881707,172083.20120053296,2.2744577803107755,-0.3072000000000001,-3.3876320729394074,-4.518335037298598,290530.56,3.84,-35.93984000000002,-396.3247222666362,-528.6075465719586,33989654.432,449.248,-0.0,-0.0,-0.0,0.0,0.0,-0.5600000000000003,-6.1753709662957945,-8.23654824507557,529613.0,7.0,0.1600000000000001,1.7643917046559414,2.35329949859302,-151318.0,-2.0,-29.65472000000002,-327.0158873243415,-436.1652356682275,28045580.756,370.684,1.600000000000001,17.643917046559416,23.5329949859302,-1513180.0,-20.0,0.1600000000000001,1.7643917046559414,2.35329949859302,-151318.0,-2.0,0.3200000000000002,3.528783409311883,4.70659899718604,-302636.0,-4.0,0.0573944597001539,0.6329144286760077,0.8441647077149337,-54280.09283067427,-0.7174307462519234,-0.0,-0.0,-0.0,0.0,0.0,0.0237607044174699,0.2620199360685361,0.3494753361990562,-22471.38919401699,-0.2970088052183744
-0.29,-2.2140191940721485,-2.6208101117044893,151447.0,1.71,1.75,9661,-0.0078617594254936,-0.0600209871283471,-0.0710488917176619,4105.654757630153,0.0474416517055654,3.19,24.354211134793637,28.828911228749384,-1665917.0,-19.25,0.8699999999999999,6.642057582216445,7.8624303351134675,-454341.0,-5.25,2.32,17.71215355257719,20.966480893635914,-1211576.0,-14.0,0.29,2.2140191940721485,2.6208101117044893,-151447.0,-1.75,-27.695,-211.43883303389015,-250.28736566777872,14463188.5,167.125,-0.8699999999999999,-6.642057582216445,-7.8624303351134675,454341.0,5.25,-0.0,-0.0,-0.0,0.0,0.0,-0.0,-0.0,-0.0,0.0,0.0,-0.0043734290843806,-0.0333891584025242,-0.0395238867833351,2283.9403949730645,0.026391382405745,-0.0,-0.0,-0.0,0.0,0.0,0.8699999999999999,6.642057582216445,7.8624303351134675,-454341.0,-5.25,-0.0,-0.0,-0.0,0.0,0.0,-6.38,-48.70842226958727,-57.65782245749877,3331834.0,38.5,1.16,8.856076776288594,10.483240446817955,-605788.0,-7.0,-0.0,-0.0,-0.0,0.0,0.0,1.7399999999999998,13.28411516443289,15.724860670226937,-908682.0,-10.5,-0.0,-0.0,-0.0,0.0,0.0,0.58,4.428038388144297,5.241620223408979,-302894.0,-3.5,-0.0,-0.0,-0.0,0.0,0.0,-2.9,-22.14019194072149,-26.20810111704489,1514470.0,17.5,0.29,2.2140191940721485,2.6208101117044893,-151447.0,-1.75,-209.09,-1596.307838926019,-1889.6040905389368,109193287.0,1261.75,0.8699999999999999,6.642057582216445,7.8624303351134675,-454341.0,-5.25,-0.8699999999999999,-6.642057582216445,-7.8624303351134675,454341.0,5.25,-2.61,-19.926172746649332,-23.587291005340404,1363023.0,15.75,-0.29,-2.2140191940721485,-2.6208101117044893,151447.0,1.75,-0.29,-2.2140191940721485,-2.6208101117044893,151447.0,1.75,3.4799999999999995,26.56823032886578,31.44972134045387,-1817364.0,-21.0,-0.29,-2.2140191940721485,-2.6208101117044893,151447.0,1.75,-0.29,-2.2140191940721485,-2.6208101117044893,151447.0,1.75,-0.0,-0.0,-0.0,0.0,0.0,-0.29,-2.2140191940721485,-2.6208101117044893,151447.0,1.75,1.16,8.856076776288594,10.483240446817955,-605788.0,-7.0,-0.0,-0.0,-0.0,0.0,0.0,-0.2403237936076875,-1.834763764964323,-2.171872511621414,125504.54334656362,1.4502297890119074,19.43,148.33928600283394,175.59427748420077,-10146949.0,-117.25,-0.0,-0.0,-0.0,0.0,0.0,-0.0,-0.0,-0.0,0.0,0.0,-1.45,-11.070095970360745,-13.104050558522449,757235.0,8.75,0.29,2.2140191940721485,2.6208101117044893,-151447.0,-1.75,-0.0,-0.0,-0.0,0.0,0.0,0.58,4.428038388144297,5.241620223408979,-302894.0,-3.5,1.45,11.070095970360745,13.104050558522449,-757235.0,-8.75,0.58,4.428038388144297,5.241620223408979,-302894.0,-3.5,-0.0,-0.0,-0.0,0.0,0.0,-0.0,-0.0,-0.0,0.0,0.0,-1.7399999999999998,-13.28411516443289,-15.724860670226937,908682.0,10.5,-0.0,-0.0,-0.0,0.0,0.0,-0.0,-0.0,-0.0,0.0,0.0,-0.212986231456533,-1.626053808682267,-1.9248154105348776,111228.01998412953,1.285261741548044,-0.4726999999999999,-3.6088512863376017,-4.271920482078317,246858.61,2.8525,-101.25785,-773.0580118982018,-915.095162653298,52879991.755,611.03875,-0.0,-0.0,-0.0,0.0,0.0,-1.044,-7.970469098659735,-9.434916402136162,545209.2000000001,6.3,-0.0,-0.0,-0.0,0.0,0.0,-109.61565,-836.8660450713611,-990.6269100726214,57244694.295,661.47375,4.64,35.42430710515438,41.93296178727183,-2423152.0,-28.0,0.29,2.2140191940721485,2.6208101117044893,-151447.0,-1.75,0.8699999999999999,6.642057582216445,7.8624303351134675,-454341.0,-5.25,0.1614117397708717,1.232305827590651,1.4587224818597049,-84294.21983820418,-0.9740363606862952,0.29,2.2140191940721485,2.6208101117044893,-151447.0,-1.75,0.0972748219650123,0.742649389415477,0.8790994380005457,-50799.93090391456,-0.587003235995764
-0.1299999999999999,-2.151085053181522,-1.4791455492470589,151764.0,1.86,1.75,9703,-0.002622163525033,-0.0433884366592022,-0.0298350885188504,3061.154040100848,0.0352983551446751,0.1299999999999999,2.151085053181522,1.4791455492470589,-151764.0,-1.75,-0.0,-0.0,-0.0,0.0,0.0,0.6499999999999995,10.75542526590761,7.395727746235295,-758820.0,-8.75,0.1299999999999999,2.151085053181522,1.4791455492470589,-151764.0,-1.75,-12.908999999999988,-213.60274578092512,-146.87915304023295,15070165.2,173.775,-0.1299999999999999,-2.151085053181522,-1.4791455492470589,151764.0,1.75,-0.1299999999999999,-2.151085053181522,-1.4791455492470589,151764.0,1.75,-0.0,-0.0,-0.0,0.0,0.0,-0.0022319606195221,-0.0369318240611065,-0.0253953432035452,2605.625165085831,0.0300456237243365,-0.1299999999999999,-2.151085053181522,-1.4791455492470589,151764.0,1.75,0.2599999999999998,4.302170106363044,2.9582910984941178,-303528.0,-3.5,-0.0,-0.0,-0.0,0.0,0.0,-3.379999999999997,-55.92821138271957,-38.45778428042353,3945864.0,45.5,0.1299999999999999,2.151085053181522,1.4791455492470589,-151764.0,-1.75,-0.0,-0.0,-0.0,0.0,0.0,0.3899999999999997,6.453255159544566,4.437436647741176,-455292.0,-5.25,-0.0,-0.0,-0.0,0.0,0.0,0.3899999999999997,6.453255159544566,4.437436647741176,-455292.0,-5.25,-0.0,-0.0,-0.0,0.0,0.0,-0.7799999999999994,-12.906510319089133,-8.874873295482352,910584.0,10.5,0.3899999999999997,6.453255159544566,4.437436647741176,-455292.0,-5.25,-90.08999999999992,-1490.7019418547948,-1025.047865628212,105172452.0,1212.75,0.1299999999999999,2.151085053181522,1.4791455492470589,-151764.0,-1.75,-0.2599999999999998,-4.302170106363044,-2.9582910984941178,303528.0,3.5,-1.169999999999999,-19.359765478633697,-13.31230994322353,1365876.0,15.75,-0.9099999999999993,-15.057595372270654,-10.354018844729412,1062348.0,12.25,-0.0,-0.0,-0.0,0.0,0.0,2.0799999999999983,34.41736085090435,23.666328787952946,-2428224.0,-28.0,-0.0,-0.0,-0.0,0.0,0.0,-0.0,-0.0,-0.0,0.0,0.0,-0.0,-0.0,-0.0,0.0,0.0,-0.0,-0.0,-0.0,0.0,0.0,0.1299999999999999,2.151085053181522,1.4791455492470589,-151764.0,-1.75,-0.1299999999999999,-2.151085053181522,-1.4791455492470589,151764.0,1.75,-0.1100125339461039,-1.8203562879545323,-1.2517273072905444,128430.3246292041,1.480937956966785,3.2499999999999973,53.77712632953805,36.97863873117648,-3794100.0,-43.75,-0.0,-0.0,-0.0,0.0,0.0,-0.0,-0.0,-0.0,0.0,0.0,-0.1299999999999999,-2.151085053181522,-1.4791455492470589,151764.0,1.75,0.2599999999999998,4.302170106363044,2.9582910984941178,-303528.0,-3.5,0.1299999999999999,2.151085053181522,1.4791455492470589,-151764.0,-1.75,0.1299999999999999,2.151085053181522,1.4791455492470589,-151764.0,-1.75,0.1299999999999999,2.151085053181522,1.4791455492470589,-151764.0,-1.75,-0.0,-0.0,-0.0,0.0,0.0,-0.1299999999999999,-2.151085053181522,-1.4791455492470589,151764.0,1.75,-0.0,-0.0,-0.0,0.0,0.0,-0.2599999999999998,-4.302170106363044,-2.9582910984941178,303528.0,3.5,0.1299999999999999,2.151085053181522,1.4791455492470589,-151764.0,-1.75,-0.0,-0.0,-0.0,0.0,0.0,0.1718856110727563,2.844158221812144,1.9557218199836823,-200661.9067603524,-2.3138447644409523,-0.1949999999999998,-3.226627579772283,-2.218718323870588,227646.0,2.625,-44.663059999999966,-739.03108304115,-508.17820319041806,52140343.368,601.2335,-0.0,-0.0,-0.0,0.0,0.0,-0.4679999999999996,-7.74390619145348,-5.324923977289412,546350.4,6.3,0.2599999999999998,4.302170106363044,2.9582910984941178,-303528.0,-3.5,-45.10622999999996,-746.3641319874458,-513.2206103678013,52657706.844,607.19925,1.169999999999999,19.359765478633697,13.31230994322353,-1365876.0,-15.75,0.6499999999999995,10.75542526590761,7.395727746235295,-758820.0,-8.75,-0.0,-0.0,-0.0,0.0,0.0,0.1074703253326485,1.7782908498739685,1.2228019491686202,-125462.51118295448,-1.4467159179395004,-0.0,-0.0,-0.0,0.0,0.0,0.0754867702109541,1.2490651008748597,0.8588916937274491,-88124.41687919426,-1.016168060532076
0.01,-2.105292930903513,-2.2159231317589927,152098.0,1.76,1.75,9752,0.0004283907682579,-0.0901888056077854,-0.0949281012814868,6515.737907050254,0.0749683844451468,-0.02,4.210585861807026,4.431846263517985,-304196.0,-3.5,0.0,-0.0,-0.0,0.0,0.0,-0.01,2.105292930903513,2.2159231317589927,-152098.0,-1.75,-0.02,4.210585861807026,4.431846263517985,-304196.0,-3.5,0.998,-210.10823450417055,-221.14912854954747,15179380.4,174.65,0.01,-2.105292930903513,-2.2159231317589927,152098.0,1.75,0.0,-0.0,-0.0,0.0,0.0,0.0,-0.0,-0.0,0.0,0.0,0.0001280429971546,-0.0269568016761278,-0.0283733439254629,1947.508378122035,0.022407524502055,0.01,-2.105292930903513,-2.2159231317589927,152098.0,1.75,-0.01,2.105292930903513,2.2159231317589927,-152098.0,-1.75,0.0,-0.0,-0.0,0.0,0.0,0.17,-35.78997982535972,-37.67069323990288,2585666.0,29.75,-0.02,4.210585861807026,4.431846263517985,-304196.0,-3.5,0.0,-0.0,-0.0,0.0,0.0,-0.01,2.105292930903513,2.2159231317589927,-152098.0,-1.75,-0.03,6.315878792710539,6.647769395276978,-456294.0,-5.25,-0.02,4.210585861807026,4.431846263517985,-304196.0,-3.5,0.0,-0.0,-0.0,0.0,0.0,0.32,-67.36937378891241,-70.90954021628777,4867136.0,56.0,-0.02,4.210585861807026,4.431846263517985,-304196.0,-3.5,6.8500000000000005,-1442.1256576689063,-1517.90734525491,104187130.0,1198.75,-0.02,4.210585861807026,4.431846263517985,-304196.0,-3.5,0.0,-0.0,-0.0,0.0,0.0,0.12,-25.263515170842155,-26.59107758110791,1825176.0,21.0,0.08,-16.842343447228103,-17.72738505407194,1216784.0,14.0,0.04,-8.421171723614052,-8.86369252703597,608392.0,7.0,-0.14,29.47410103264918,31.022923844625897,-2129372.0,-24.5,0.0,-0.0,-0.0,0.0,0.0,0.0,-0.0,-0.0,0.0,0.0,0.0,-0.0,-0.0,0.0,0.0,0.01,-2.105292930903513,-2.2159231317589927,152098.0,1.75,0.0,-0.0,-0.0,0.0,0.0,0.0,-0.0,-0.0,0.0,0.0,0.007773135575517,-1.6364727378090602,-1.7224670928086927,118227.83747649884,1.3602987257154795,-1.9,400.0056568716674,421.0253950342086,-28898620.0,-332.5,0.0,-0.0,-0.0,0.0,0.0,0.0,-0.0,-0.0,0.0,0.0,0.03,-6.315878792710539,-6.647769395276978,456294.0,5.25,-0.01,2.105292930903513,2.2159231317589927,-152098.0,-1.75,0.0,-0.0,-0.0,0.0,0.0,0.0,-0.0,-0.0,0.0,0.0,-0.01,2.105292930903513,2.2159231317589927,-152098.0,-1.75,-0.02,4.210585861807026,4.431846263517985,-304196.0,-3.5,0.0,-0.0,-0.0,0.0,0.0,0.0,-0.0,-0.0,0.0,0.0,0.02,-4.210585861807026,-4.431846263517985,304196.0,3.5,0.0,-0.0,-0.0,0.0,0.0,0.0,-0.0,-0.0,0.0,0.0,-0.0258556284057435,5.443367170667999,5.729408507045204,-393258.93692567846,-4.524734971005124,0.0151,-3.1789923256643045,-3.346043928956079,229667.98,2.6425,3.87309,-815.3988997753087,-858.2469722384437,58908924.282000005,677.79075,0.03,-6.315878792710539,-6.647769395276978,456294.0,5.25,0.035,-7.368525258162295,-7.755730961156474,532343.0,6.125,-0.02,4.210585861807026,4.431846263517985,-304196.0,-3.5,4.03941,-850.4141318020959,-895.1022057658593,61438618.218,706.89675,-0.12,25.263515170842155,26.59107758110791,-1825176.0,-21.0,-0.01,2.105292930903513,2.2159231317589927,-152098.0,-1.75,0.0,-0.0,-0.0,0.0,0.0,-0.0141714617728504,2.9835078290951427,3.1402869953297627,-215545.09927270087,-2.4800058102488296,0.0,-0.0,-0.0,0.0,0.0,-0.0093347773121421,1.965244068681134,2.06851489757948,-141980.09596221952,-1.6335860296248743
-1.08,-7.41922711044598,-18.56261265033189,150944.0,0.87,0.25,9798,-0.0512854409462514,-0.3523132720737086,-0.8814738656358675,7167.8051835101705,0.0118716298486693,2.16,14.83845422089196,37.12522530066378,-301888.0,-0.5,3.24,22.25768133133794,55.68783795099567,-452832.0,-0.75,1.08,7.41922711044598,18.56261265033189,-150944.0,-0.25,-0.0,-0.0,-0.0,0.0,0.0,-96.228,-661.0531355407368,-1653.9287871445713,13449110.4,22.275,-0.0,-0.0,-0.0,0.0,0.0,-3.24,-22.25768133133794,-55.68783795099567,452832.0,0.75,-0.0,-0.0,-0.0,0.0,0.0,-0.0144651243694555,-0.0993704100720716,-0.2486208338972959,2021.688641502868,0.0033484084188554,-0.0,-0.0,-0.0,0.0,0.0,-0.0,-0.0,-0.0,0.0,0.0,1.08,7.41922711044598,18.56261265033189,-150944.0,-0.25,-11.88,-81.61149821490578,-204.1887391536508,1660384.0,2.75,-0.0,-0.0,-0.0,0.0,0.0,-0.0,-0.0,-0.0,0.0,0.0,1.08,7.41922711044598,18.56261265033189,-150944.0,-0.25,-0.0,-0.0,-0.0,0.0,0.0,-0.0,-0.0,-0.0,0.0,0.0,-0.0,-0.0,-0.0,0.0,0.0,-11.88,-81.61149821490578,-204.1887391536508,1660384.0,2.75,2.16,14.83845422089196,37.12522530066378,-301888.0,-0.5,-657.72,-4518.309310261601,-11304.63110405212,91924896.0,152.25,3.24,22.25768133133794,55.68783795099567,-452832.0,-0.75,-0.0,-0.0,-0.0,0.0,0.0,-2.16,-14.83845422089196,-37.12522530066378,301888.0,0.5,-2.16,-14.83845422089196,-37.12522530066378,301888.0,0.5,-3.24,-22.25768133133794,-55.68783795099567,452832.0,0.75,7.56,51.93458977312186,129.93828855232323,-1056608.0,-1.75,-0.0,-0.0,-0.0,0.0,0.0,-0.0,-0.0,-0.0,0.0,0.0,-1.08,-7.41922711044598,-18.56261265033189,150944.0,0.25,-1.08,-7.41922711044598,-18.56261265033189,150944.0,0.25,3.24,22.25768133133794,55.68783795099567,-452832.0,-0.75,-0.0,-0.0,-0.0,0.0,0.0,-0.8367913097973679,-5.748467380957623,-14.382437919381864,116952.4328389388,0.193701692082724,211.68,1454.168513647412,3638.2720794650495,-29585024.0,-49.0,-0.0,-0.0,-0.0,0.0,0.0,-0.0,-0.0,-0.0,0.0,0.0,-0.0,-0.0,-0.0,0.0,0.0,-0.0,-0.0,-0.0,0.0,0.0,2.16,14.83845422089196,37.12522530066378,-301888.0,-0.5,1.08,7.41922711044598,18.56261265033189,-150944.0,-0.25,10.8,74.19227110445979,185.6261265033189,-1509440.0,-2.5,-0.0,-0.0,-0.0,0.0,0.0,-0.0,-0.0,-0.0,0.0,0.0,-0.0,-0.0,-0.0,0.0,0.0,-7.56,-51.93458977312186,-129.93828855232323,1056608.0,1.75,4.32,29.67690844178392,74.25045060132756,-603776.0,-1.0,-0.0,-0.0,-0.0,0.0,0.0,7.599115542592558,52.20330004538344,130.6105910206132,-1062074.9041306395,-1.759054523748277,-0.4644,-3.190267657491771,-7.981923439642713,64905.92,0.1075,-407.133,-2796.863139960373,-6997.6409038588645,56902114.400000006,94.24375,-0.0,-0.0,-0.0,0.0,0.0,-4.752000000000001,-32.644599285962315,-81.67549566146032,664153.6000000001,1.1,1.08,7.41922711044598,18.56261265033189,-150944.0,-0.25,-404.4762,-2778.611841268676,-6951.976876739047,56530792.16,93.62875,19.44,133.54608798802764,334.127027705974,-2716992.0,-4.5,1.08,7.41922711044598,18.56261265033189,-150944.0,-0.25,1.08,7.41922711044598,18.56261265033189,-150944.0,-0.25,8.161145558301971,56.06425220226832,140.27054053864452,-1140625.884400308,-1.8891540644217528,2.16,14.83845422089196,37.12522530066378,-301888.0,-0.5,3.5281646082803517,24.237272696175555,60.64069721307232,-493106.73947432346,-0.8167047704352665
-0.31,-18.308224013543924,-34.14613625854089,130430.0,0.66,0.25,9843,-0.0096737588652482,-0.5713204656708734,-1.065553188209785,4070.156028368788,0.0078014184397163,0.31,18.308224013543924,34.14613625854089,-130430.0,-0.25,1.24,73.2328960541757,136.58454503416357,-521720.0,-1.0,-0.0,-0.0,-0.0,0.0,0.0,0.31,18.308224013543924,34.14613625854089,-130430.0,-0.25,-22.258,-1314.5304841724535,-2451.692583363236,9364874.0,17.95,-1.55,-91.54112006771962,-170.73068129270445,652150.0,1.25,-0.0,-0.0,-0.0,0.0,0.0,-0.0,-0.0,-0.0,0.0,0.0,-0.0052277383766745,-0.308743888014058,-0.5758292481739751,2199.528762805356,0.0042159180457052,-0.0,-0.0,-0.0,0.0,0.0,1.24,73.2328960541757,136.58454503416357,-521720.0,-1.0,-0.0,-0.0,-0.0,0.0,0.0,-0.62,-36.61644802708785,-68.29227251708178,260860.0,0.5,0.31,18.308224013543924,34.14613625854089,-130430.0,-0.25,-0.0,-0.0,-0.0,0.0,0.0,-0.0,-0.0,-0.0,0.0,0.0,-0.0,-0.0,-0.0,0.0,0.0,-0.0,-0.0,-0.0,0.0,0.0,-0.0,-0.0,-0.0,0.0,0.0,-4.65,-274.6233602031589,-512.1920438781134,1956450.0,3.75,1.24,73.2328960541757,136.58454503416357,-521720.0,-1.0,-176.39,-10417.379463706491,-19429.15153110977,74214670.0,142.25,0.31,18.308224013543924,34.14613625854089,-130430.0,-0.25,-0.0,-0.0,-0.0,0.0,0.0,-0.0,-0.0,-0.0,0.0,0.0,-0.62,-36.61644802708785,-68.29227251708178,260860.0,0.5,-0.62,-36.61644802708785,-68.29227251708178,260860.0,0.5,3.1,183.08224013543924,341.4613625854089,-1304300.0,-2.5,-0.0,-0.0,-0.0,0.0,0.0,-0.0,-0.0,-0.0,0.0,0.0,-0.31,-18.308224013543924,-34.14613625854089,130430.0,0.25,-0.0,-0.0,-0.0,0.0,0.0,0.31,18.308224013543924,34.14613625854089,-130430.0,-0.25,-0.0,-0.0,-0.0,0.0,0.0,-0.2537894297054522,-14.988495907474126,-27.95460789580568,106779.8558596198,0.2046688949237518,28.21,1666.0483852324971,3107.298399527221,-11869130.0,-22.75,-0.0,-0.0,-0.0,0.0,0.0,-0.0,-0.0,-0.0,0.0,0.0,-0.62,-36.61644802708785,-68.29227251708178,260860.0,0.5,-0.0,-0.0,-0.0,0.0,0.0,-0.0,-0.0,-0.0,0.0,0.0,-0.0,-0.0,-0.0,0.0,0.0,2.79,164.77401612189533,307.315226326868,-1173870.0,-2.25,-0.0,-0.0,-0.0,0.0,0.0,-0.0,-0.0,-0.0,0.0,0.0,-0.0,-0.0,-0.0,0.0,0.0,-0.31,-18.308224013543924,-34.14613625854089,130430.0,0.25,1.24,73.2328960541757,136.58454503416357,-521720.0,-1.0,-0.0,-0.0,-0.0,0.0,0.0,3.1646185440216046,186.8985329721379,348.57901938860323,-1331487.7312797997,-2.552111729049681,-0.0372,-2.196986881625271,-4.097536351024907,15651.6,0.03,-242.823,-14340.831869808955,-26746.66853131508,102165819.0,195.825,-0.0,-0.0,-0.0,0.0,0.0,-4.557,-269.1308929990957,-501.9482030005511,1917321.0,3.675,-0.0,-0.0,-0.0,0.0,0.0,-279.41261000000003,-16501.76985835156,-30776.97114004692,117560602.33,225.33275,7.439999999999999,439.3973763250542,819.5072702049814,-3130320.0,-6.0,0.62,36.61644802708785,68.29227251708178,-260860.0,-0.5,-0.0,-0.0,-0.0,0.0,0.0,4.058953708643874,239.71688309179655,447.0889883950439,-1707772.0394142596,-3.273349765035382,0.31,18.308224013543924,34.14613625854089,-130430.0,-0.25,2.2802733544950704,134.6701786651968,251.16943441712516,-959406.624602555,-1.8389301245927987
